<?xml version="1.0"?>
<opencv_storage>
<shapeML type_id="opencv-ml-ann-mlp">
  <layer_sizes type_id="opencv-matrix">
    <rows>1</rows>
    <cols>3</cols>
    <dt>i</dt>
    <data>
      1600 40 1</data></layer_sizes>
  <activation_function>SIGMOID_SYM</activation_function>
  <f_param1>5.9999999999999998e-01</f_param1>
  <f_param2>1.</f_param2>
  <min_val>-9.4999999999999996e-01</min_val>
  <max_val>9.4999999999999996e-01</max_val>
  <min_val1>-9.7999999999999998e-01</min_val1>
  <max_val1>9.7999999999999998e-01</max_val1>
  <training_params>
    <train_method>BACKPROP</train_method>
    <dw_scale>1.0000000000000001e-01</dw_scale>
    <moment_scale>1.0000000000000001e-01</moment_scale>
    <term_criteria><epsilon>9.9999999747524271e-07</epsilon>
      <iterations>4000</iterations></term_criteria></training_params>
  <input_scale>
    2.7269685951436716e-02 -1.4691063206231753e-01
    4.6896303055468901e-02 -8.4215192106651904e-02
    4.6896303055468901e-02 -8.4215192106651904e-02
    4.6896303055468901e-02 -8.4215192106651904e-02 1. 0. 1. 0. 1. 0. 1.
    0. 1. 0. 1. 0. 3.3278914220683117e-02 -1.1952286093343936e-01
    2.3701652425047511e-02 -1.7025130615174974e-01
    2.3701652425047511e-02 -1.7025130615174974e-01
    1.7007903037838570e-02 -2.4433888871261045e-01
    1.8114746452116564e-02 -2.2771001702132443e-01
    1.7007903037838570e-02 -2.4433888871261045e-01
    1.4098920600576536e-02 -3.0382181012510001e-01
    1.2758531022291875e-02 -3.4367169831173539e-01
    1.3154645874340752e-02 -3.3071891388307384e-01
    9.9934941297071238e-03 -4.8454371185234890e-01
    9.9934941297071238e-03 -4.8454371185234890e-01
    1.0139872527799082e-02 -4.7343207647399937e-01
    1.0296395799213404e-02 -4.6225016352102427e-01
    1.1047037580574303e-02 -4.1659779045053091e-01
    1.4098920600576536e-02 -3.0382181012510001e-01
    1.7007903037838570e-02 -2.4433888871261045e-01
    2.1276631809004621e-02 -1.9104017997521755e-01
    2.3701652425047511e-02 -1.7025130615174974e-01 1. 0.
    4.6896303055468901e-02 -8.4215192106651904e-02 1. 0. 1. 0.
    3.3278914220683117e-02 -1.1952286093343936e-01 1. 0.
    3.3278914220683117e-02 -1.1952286093343936e-01 1. 0. 1. 0. 1. 0. 1.
    0. 1. 0. 2.7269685951436716e-02 -1.4691063206231753e-01 1. 0. 1. 0.
    1. 0. 1. 0. 1. 0. 1. 0. 3.3278914220683117e-02
    -1.1952286093343936e-01 2.3701652425047511e-02
    -1.7025130615174974e-01 2.1276631809004621e-02
    -1.9104017997521755e-01 1.7007903037838570e-02
    -2.4433888871261045e-01 1.5327142612543452e-02
    -2.7524094128159016e-01 1.3598206519957178e-02
    -3.1745108882857781e-01 1.1047037580574303e-02
    -4.1659779045053091e-01 9.8563637458313723e-03
    -4.9559462778335212e-01 8.5925787037713936e-03
    -6.4807406984078608e-01 8.3797995775388382e-03
    -6.9221865524317305e-01 8.1080277390810033e-03
    -7.7169010488506873e-01 8.0002079033630602e-03
    -8.1889452024916964e-01 8.0781134463101603e-03
    -7.8334945180064020e-01 8.3797995775388382e-03
    -6.9221865524317305e-01 8.3336917457871879e-03
    -7.0337532093844679e-01 8.2901734757753667e-03
    -7.1458960101049640e-01 8.3797995775388382e-03
    -6.9221865524317305e-01 8.8580819943686710e-03
    -6.0447052482698882e-01 9.9934941297071238e-03
    -4.8454371185234890e-01 1.0837926477542770e-02
    -4.2817441928883765e-01 1.2758531022291875e-02
    -3.4367169831173539e-01 1.6095374597702619e-02
    -2.6013299085723601e-01 2.1276631809004621e-02
    -1.9104017997521755e-01 2.7269685951436716e-02
    -1.4691063206231753e-01 3.3278914220683117e-02
    -1.1952286093343936e-01 3.3278914220683117e-02
    -1.1952286093343936e-01 2.3701652425047511e-02
    -1.7025130615174974e-01 3.3278914220683117e-02
    -1.1952286093343936e-01 3.3278914220683117e-02
    -1.1952286093343936e-01 1. 0. 1. 0. 1. 0. 1. 0.
    4.6896303055468901e-02 -8.4215192106651904e-02 1. 0. 1. 0. 1. 0. 1.
    0. 3.3278914220683117e-02 -1.1952286093343936e-01
    2.3701652425047511e-02 -1.7025130615174974e-01
    2.1276631809004621e-02 -1.9104017997521755e-01
    1.7007903037838570e-02 -2.4433888871261045e-01
    1.4098920600576536e-02 -3.0382181012510001e-01
    1.3154645874340752e-02 -3.3071891388307384e-01
    1.0837926477542770e-02 -4.2817441928883765e-01
    9.0145485264530398e-03 -5.8277151741435851e-01
    8.4286115692134619e-03 -6.8111491377974986e-01
    8.1080277390810033e-03 -7.7169010488506873e-01
    7.9576184514497262e-03 -8.4311527888775439e-01
    8.0002079033630602e-03 -8.1889452024916964e-01
    7.8712938014989155e-03 -9.1877954056228539e-01
    7.8815362180653242e-03 -9.0582162731567673e-01
    7.8626582598957367e-03 -9.3189111629609322e-01
    7.8815362180653242e-03 -9.0582162731567673e-01
    7.9221076036911676e-03 -8.6780551954518392e-01
    7.9069196532434508e-03 -8.8034084308295035e-01
    7.8439153053234869e-03 -1.0141851056742199e+00
    7.8462508466303656e-03 -9.7221678624268515e-01
    7.8439153053234869e-03 -9.8601329718326924e-01
    8.0781134463101603e-03 -7.8334945180064020e-01
    9.0145485264530398e-03 -5.8277151741435851e-01
    1.0837926477542770e-02 -4.2817441928883765e-01
    1.3598206519957178e-02 -3.1745108882857781e-01
    1.8114746452116564e-02 -2.2771001702132443e-01
    1.8114746452116564e-02 -2.2771001702132443e-01
    2.1276631809004621e-02 -1.9104017997521755e-01
    2.1276631809004621e-02 -1.9104017997521755e-01
    2.3701652425047511e-02 -1.7025130615174974e-01
    2.3701652425047511e-02 -1.7025130615174974e-01 1. 0. 1. 0. 1. 0. 1.
    0. 4.6896303055468901e-02 -8.4215192106651904e-02 1. 0. 1. 0. 1. 0.
    2.3701652425047511e-02 -1.7025130615174974e-01
    2.3701652425047511e-02 -1.7025130615174974e-01
    2.1276631809004621e-02 -1.9104017997521755e-01
    1.9494095287448762e-02 -2.1004201260420147e-01
    1.6095374597702619e-02 -2.6013299085723601e-01
    1.2080049023627129e-02 -3.6878177829171555e-01
    1.0139872527799082e-02 -4.7343207647399937e-01
    8.3336917457871879e-03 -7.0337532093844679e-01
    8.1741457981778978e-03 -7.4862511341763072e-01
    7.9389965381110334e-03 -8.5539892276830154e-01
    7.8626582598957367e-03 -9.3189111629609322e-01
    7.8462508466303656e-03 -9.7221678624268515e-01
    7.8431372549019607e-03 -1. 7.8712938014989155e-03
    -9.1877954056228539e-01 7.8815362180653225e-03
    -1.1039701082909807e+00 7.8712938014989155e-03
    -1.0884003788199381e+00 7.9221076036911659e-03
    -1.1523319193960637e+00 7.9221076036911659e-03
    -1.1523319193960637e+00 7.8815362180653225e-03
    -1.1039701082909807e+00 7.9221076036911659e-03
    -1.1523319193960637e+00 7.8934042208998485e-03
    -1.1198072396480807e+00 7.8815362180653225e-03
    -1.1039701082909807e+00 7.8462508466303656e-03
    -1.0285771796480583e+00 7.8934042208998485e-03
    -8.9301083668138070e-01 8.4286115692134619e-03
    -6.8111491377974986e-01 9.0145485264530398e-03
    -5.8277151741435851e-01 1.0464091762392323e-02
    -4.5098761680169730e-01 1.7007903037838570e-02
    -2.4433888871261045e-01 1.9494095287448762e-02
    -2.1004201260420147e-01 2.3701652425047511e-02
    -1.7025130615174974e-01 2.1276631809004621e-02
    -1.9104017997521755e-01 2.3701652425047511e-02
    -1.7025130615174974e-01 2.3701652425047511e-02
    -1.7025130615174974e-01 1. 0. 1. 0. 1. 0. 2.3701652425047511e-02
    -1.7025130615174974e-01 3.3278914220683117e-02
    -1.1952286093343936e-01 1. 0. 2.3701652425047511e-02
    -1.7025130615174974e-01 2.3701652425047511e-02
    -1.7025130615174974e-01 2.1276631809004621e-02
    -1.9104017997521755e-01 1.7007903037838570e-02
    -2.4433888871261045e-01 1.4669529119192977e-02
    -2.8977485337560777e-01 1.2758531022291875e-02
    -3.4367169831173539e-01 9.6067950418249320e-03
    -5.1754916950676566e-01 8.2491395323092652e-03
    -7.2586618631129773e-01 8.0502096895413173e-03
    -7.9509993588603500e-01 8.0002079033630602e-03
    -8.1889452024916964e-01 7.8712938014989155e-03
    -9.1877954056228539e-01 7.8439153053234869e-03
    -1.0141851056742199e+00 7.8712938014989155e-03
    -1.0884003788199381e+00 7.8815362180653225e-03
    -1.1039701082909807e+00 7.9389965381110334e-03
    -1.1690451944500122e+00 8.0781134463101603e-03
    -1.2765694770084508e+00 7.9576184514497245e-03
    -1.1860774262319254e+00 8.0242587562746447e-03
    -1.2392393980641052e+00 7.9780090410488131e-03
    -1.2034433356286307e+00 7.9780090410488131e-03
    -1.2034433356286307e+00 7.9389965381110334e-03
    -1.1690451944500122e+00 7.9576184514497245e-03
    -1.1860774262319254e+00 8.0242587562746447e-03
    -1.2392393980641052e+00 7.8556139177977206e-03
    -1.0580184237878971e+00 7.8462508466303656e-03
    -1.0285771796480583e+00 7.8431372549019607e-03 -1.
    7.9069196532434508e-03 -8.8034084308295035e-01
    8.4286115692134619e-03 -6.8111491377974986e-01
    9.2849152726491527e-03 -5.5022930999537056e-01
    1.1047037580574303e-02 -4.1659779045053091e-01
    1.5327142612543452e-02 -2.7524094128159016e-01
    1.6095374597702619e-02 -2.6013299085723601e-01
    1.9494095287448762e-02 -2.1004201260420147e-01
    2.3701652425047511e-02 -1.7025130615174974e-01
    2.3701652425047511e-02 -1.7025130615174974e-01 1. 0. 1. 0.
    2.7269685951436716e-02 -1.4691063206231753e-01
    2.3701652425047511e-02 -1.7025130615174974e-01
    1.9494095287448762e-02 -2.1004201260420147e-01
    1.8114746452116564e-02 -2.2771001702132443e-01
    1.9494095287448762e-02 -2.1004201260420147e-01
    1.8114746452116564e-02 -2.2771001702132443e-01
    1.2402319069138648e-02 -3.5634832254989918e-01
    1.0464091762392323e-02 -4.5098761680169730e-01
    8.8580819943686710e-03 -6.0447052482698882e-01
    8.1400156040260224e-03 -7.6011695006609192e-01
    7.9069196532434508e-03 -8.8034084308295035e-01
    7.8462508466303656e-03 -9.7221678624268515e-01
    7.8462508466303656e-03 -9.7221678624268515e-01
    7.9221076036911676e-03 -8.6780551954518392e-01
    7.8431372549019607e-03 -1. 7.8431372549019607e-03 -1.
    7.9389965381110334e-03 -1.1690451944500122e+00
    7.9389965381110334e-03 -1.1690451944500122e+00
    8.0242587562746447e-03 -1.2392393980641052e+00
    8.0002079033630602e-03 -1.2211584951084107e+00
    7.9069196532434508e-03 -1.1359236684941296e+00
    8.0002079033630602e-03 -1.2211584951084107e+00
    8.0781134463101603e-03 -1.2765694770084508e+00
    7.9780090410488131e-03 -1.2034433356286307e+00
    7.9780090410488131e-03 -1.2034433356286307e+00
    7.9389965381110334e-03 -1.1690451944500122e+00
    7.9221076036911659e-03 -1.1523319193960637e+00
    7.9780090410488131e-03 -1.2034433356286307e+00
    7.8626582598957367e-03 -1.0730867399773194e+00
    7.8556139177977206e-03 -1.0580184237878971e+00
    7.9389965381110334e-03 -8.5539892276830154e-01
    8.0781134463101603e-03 -7.8334945180064020e-01
    9.0995989711679676e-03 -5.7192901984277544e-01
    1.0139872527799082e-02 -4.7343207647399937e-01
    1.6095374597702619e-02 -2.6013299085723601e-01
    1.8114746452116564e-02 -2.2771001702132443e-01
    1.9494095287448762e-02 -2.1004201260420147e-01
    1.8114746452116564e-02 -2.2771001702132443e-01
    3.3278914220683117e-02 -1.1952286093343936e-01 1. 0.
    2.1276631809004621e-02 -1.9104017997521755e-01
    2.3701652425047511e-02 -1.7025130615174974e-01
    1.9494095287448762e-02 -2.1004201260420147e-01
    1.6095374597702619e-02 -2.6013299085723601e-01
    1.4669529119192977e-02 -2.8977485337560777e-01
    1.2758531022291875e-02 -3.4367169831173539e-01
    1.0139872527799082e-02 -4.7343207647399937e-01
    8.4286115692134619e-03 -6.8111491377974986e-01
    8.0502096895413173e-03 -7.9509993588603500e-01
    7.8501480558542478e-03 -9.5860258653882158e-01
    7.8556139177977224e-03 -9.4516312525052171e-01
    7.8556139177977224e-03 -9.4516312525052171e-01
    7.8462508466303656e-03 -9.7221678624268515e-01
    7.8712938014989155e-03 -9.1877954056228539e-01
    7.9221076036911659e-03 -1.1523319193960637e+00
    7.9576184514497245e-03 -1.1860774262319254e+00
    7.9389965381110334e-03 -1.1690451944500122e+00
    8.0242587562746447e-03 -1.2392393980641052e+00
    7.9576184514497245e-03 -1.1860774262319254e+00
    7.9576184514497245e-03 -1.1860774262319254e+00
    7.9576184514497245e-03 -1.1860774262319254e+00
    8.0242587562746447e-03 -1.2392393980641052e+00
    7.9069196532434508e-03 -1.1359236684941296e+00
    7.9069196532434508e-03 -1.1359236684941296e+00
    7.8462508466303656e-03 -9.7221678624268515e-01
    7.9576184514497245e-03 -1.1860774262319254e+00
    8.0242587562746447e-03 -1.2392393980641052e+00
    8.0002079033630602e-03 -1.2211584951084107e+00
    8.0242587562746447e-03 -1.2392393980641052e+00
    7.9780090410488131e-03 -1.2034433356286307e+00
    7.8712938014989155e-03 -1.0884003788199381e+00
    7.9221076036911676e-03 -8.6780551954518392e-01
    8.0242587562746447e-03 -8.0694658478592907e-01
    8.5925787037713936e-03 -6.4807406984078608e-01
    1.0296395799213404e-02 -4.6225016352102427e-01
    1.5327142612543452e-02 -2.7524094128159016e-01
    1.7007903037838570e-02 -2.4433888871261045e-01
    1.8114746452116564e-02 -2.2771001702132443e-01
    1.5327142612543452e-02 -2.7524094128159016e-01 1. 0.
    2.7269685951436716e-02 -1.4691063206231753e-01
    1.9494095287448762e-02 -2.1004201260420147e-01
    1.5327142612543452e-02 -2.7524094128159016e-01
    1.4098920600576536e-02 -3.0382181012510001e-01
    1.4669529119192977e-02 -2.8977485337560777e-01
    1.0464091762392323e-02 -4.5098761680169730e-01
    8.2491395323092652e-03 -7.2586618631129773e-01
    7.8815362180653242e-03 -9.0582162731567673e-01
    7.8501480558542478e-03 -9.5860258653882158e-01
    7.8815362180653242e-03 -9.0582162731567673e-01
    7.8501480558542478e-03 -9.5860258653882158e-01
    7.8815362180653225e-03 -1.1039701082909807e+00
    7.8626582598957367e-03 -1.0730867399773194e+00
    7.8815362180653225e-03 -1.1039701082909807e+00
    7.8626582598957367e-03 -1.0730867399773194e+00
    7.9389965381110334e-03 -1.1690451944500122e+00
    7.8431372549019607e-03 -1. 7.8462508466303656e-03
    -1.0285771796480583e+00 7.8501480558542495e-03
    -1.0431851677040120e+00 7.8501480558542495e-03
    -1.0431851677040120e+00 7.8462508466303656e-03
    -1.0285771796480583e+00 7.8501480558542478e-03
    -9.5860258653882158e-01 7.8626582598957367e-03
    -9.3189111629609322e-01 7.8439153053234869e-03
    -9.8601329718326924e-01 7.8431372549019607e-03 -1.
    7.8501480558542495e-03 -1.0431851677040120e+00
    7.8626582598957367e-03 -1.0730867399773194e+00
    7.9576184514497245e-03 -1.1860774262319254e+00
    7.8626582598957367e-03 -1.0730867399773194e+00
    8.0502096895413173e-03 -1.2577035349470009e+00
    7.8934042208998485e-03 -1.1198072396480807e+00
    7.8439153053234869e-03 -9.8601329718326924e-01
    7.8815362180653242e-03 -9.0582162731567673e-01
    7.9221076036911676e-03 -8.6780551954518392e-01
    8.7180244445187495e-03 -6.2622429108514965e-01
    1.1273356753471185e-02 -4.0488816508945807e-01
    1.4669529119192977e-02 -2.8977485337560777e-01
    1.4098920600576536e-02 -3.0382181012510001e-01
    1.5327142612543452e-02 -2.7524094128159016e-01
    3.3278914220683117e-02 -1.1952286093343936e-01
    2.7269685951436716e-02 -1.4691063206231753e-01
    1.9494095287448762e-02 -2.1004201260420147e-01
    1.3598206519957178e-02 -3.1745108882857781e-01
    1.2080049023627129e-02 -3.6878177829171555e-01
    1.1519106876210314e-02 -3.9302868179745754e-01
    8.1400156040260224e-03 -7.6011695006609192e-01
    7.8712938014989155e-03 -9.1877954056228539e-01
    7.8431372549019607e-03 -1. 7.8439153053234869e-03
    -1.0141851056742199e+00 7.8712938014989155e-03
    -9.1877954056228539e-01 7.8626582598957367e-03
    -9.3189111629609322e-01 7.8501480558542495e-03
    -1.0431851677040120e+00 7.9069196532434508e-03
    -1.1359236684941296e+00 7.8439153053234869e-03
    -1.0141851056742199e+00 7.8934042208998485e-03
    -8.9301083668138070e-01 7.8501480558542495e-03
    -1.0431851677040120e+00 7.8626582598957367e-03
    -9.3189111629609322e-01 7.8462508466303656e-03
    -9.7221678624268515e-01 7.8501480558542478e-03
    -9.5860258653882158e-01 7.8462508466303656e-03
    -9.7221678624268515e-01 7.8462508466303656e-03
    -9.7221678624268515e-01 7.8626582598957367e-03
    -9.3189111629609322e-01 7.8934042208998485e-03
    -8.9301083668138070e-01 7.8934042208998485e-03
    -8.9301083668138070e-01 7.8501480558542478e-03
    -9.5860258653882158e-01 7.8462508466303656e-03
    -1.0285771796480583e+00 7.8439153053234869e-03
    -9.8601329718326924e-01 7.8462508466303656e-03
    -1.0285771796480583e+00 7.8439153053234869e-03
    -9.8601329718326924e-01 7.9069196532434508e-03
    -1.1359236684941296e+00 7.8934042208998485e-03
    -1.1198072396480807e+00 7.8501480558542495e-03
    -1.0431851677040120e+00 7.8431372549019607e-03 -1.
    7.8501480558542478e-03 -9.5860258653882158e-01
    7.9221076036911676e-03 -8.6780551954518392e-01
    8.9341379160638307e-03 -5.9361683970466372e-01
    1.1519106876210314e-02 -3.9302868179745754e-01
    1.3598206519957178e-02 -3.1745108882857781e-01
    1.5327142612543452e-02 -2.7524094128159016e-01
    1.9494095287448762e-02 -2.1004201260420147e-01
    2.7269685951436716e-02 -1.4691063206231753e-01
    1.7007903037838570e-02 -2.4433888871261045e-01
    1.1786939891520949e-02 -3.8100038100057154e-01
    1.1519106876210314e-02 -3.9302868179745754e-01
    8.8580819943686710e-03 -6.0447052482698882e-01
    7.8712938014989155e-03 -9.1877954056228539e-01
    7.8431372549019607e-03 -1. 7.8501480558542495e-03
    -1.0431851677040120e+00 7.9069196532434508e-03
    -1.1359236684941296e+00 7.8626582598957367e-03
    -1.0730867399773194e+00 7.8501480558542478e-03
    -9.5860258653882158e-01 7.8556139177977206e-03
    -1.0580184237878971e+00 7.8439153053234869e-03
    -9.8601329718326924e-01 7.8439153053234869e-03
    -9.8601329718326924e-01 7.9389965381110334e-03
    -8.5539892276830154e-01 7.8815362180653242e-03
    -9.0582162731567673e-01 8.0002079033630602e-03
    -8.1889452024916964e-01 7.9576184514497262e-03
    -8.4311527888775439e-01 8.0242587562746447e-03
    -8.0694658478592907e-01 8.0242587562746447e-03
    -8.0694658478592907e-01 8.0502096895413173e-03
    -7.9509993588603500e-01 8.2104932447040757e-03
    -7.3720978077448562e-01 7.9576184514497262e-03
    -8.4311527888775439e-01 7.9576184514497262e-03
    -8.4311527888775439e-01 7.9576184514497262e-03
    -8.4311527888775439e-01 7.8556139177977224e-03
    -9.4516312525052171e-01 7.8501480558542478e-03
    -9.5860258653882158e-01 7.8462508466303656e-03
    -1.0285771796480583e+00 7.8501480558542478e-03
    -9.5860258653882158e-01 7.9389965381110334e-03
    -1.1690451944500122e+00 7.9069196532434508e-03
    -1.1359236684941296e+00 7.8712938014989155e-03
    -1.0884003788199381e+00 7.8815362180653225e-03
    -1.1039701082909807e+00 7.8439153053234869e-03
    -9.8601329718326924e-01 7.8815362180653242e-03
    -9.0582162731567673e-01 7.9576184514497262e-03
    -8.4311527888775439e-01 9.4930512967656231e-03
    -5.2846880634459326e-01 1.1273356753471185e-02
    -4.0488816508945807e-01 1.5327142612543452e-02
    -2.7524094128159016e-01 1.5327142612543452e-02
    -2.7524094128159016e-01 2.1276631809004621e-02
    -1.9104017997521755e-01 1.4669529119192977e-02
    -2.8977485337560777e-01 1.1047037580574303e-02
    -4.1659779045053091e-01 1.0464091762392323e-02
    -4.5098761680169730e-01 7.9069196532434508e-03
    -8.8034084308295035e-01 7.8712938014989155e-03
    -9.1877954056228539e-01 7.8556139177977206e-03
    -1.0580184237878971e+00 7.8815362180653225e-03
    -1.1039701082909807e+00 7.8626582598957367e-03
    -1.0730867399773194e+00 7.8934042208998485e-03
    -8.9301083668138070e-01 7.8462508466303656e-03
    -9.7221678624268515e-01 7.8462508466303656e-03
    -9.7221678624268515e-01 7.8439153053234869e-03
    -1.0141851056742199e+00 7.8934042208998485e-03
    -8.9301083668138070e-01 7.9221076036911676e-03
    -8.6780551954518392e-01 8.1400156040260224e-03
    -7.6011695006609192e-01 8.0502096895413173e-03
    -7.9509993588603500e-01 8.2104932447040757e-03
    -7.3720978077448562e-01 8.3797995775388382e-03
    -6.9221865524317305e-01 8.4286115692134619e-03
    -6.8111491377974986e-01 8.6535747342788519e-03
    -6.3713467497806620e-01 8.5925787037713936e-03
    -6.4807406984078608e-01 8.1741457981778978e-03
    -7.4862511341763072e-01 8.3336917457871879e-03
    -7.0337532093844679e-01 8.3336917457871879e-03
    -7.0337532093844679e-01 8.0002079033630602e-03
    -8.1889452024916964e-01 7.9576184514497262e-03
    -8.4311527888775439e-01 7.8626582598957367e-03
    -9.3189111629609322e-01 7.8431372549019607e-03 -1.
    7.8712938014989155e-03 -1.0884003788199381e+00
    7.8712938014989155e-03 -1.0884003788199381e+00
    7.9221076036911659e-03 -1.1523319193960637e+00
    7.9389965381110334e-03 -1.1690451944500122e+00
    7.8501480558542495e-03 -1.0431851677040120e+00
    7.8556139177977224e-03 -9.4516312525052171e-01
    7.8934042208998485e-03 -8.9301083668138070e-01
    8.3336917457871879e-03 -7.0337532093844679e-01
    9.4930512967656231e-03 -5.2846880634459326e-01
    1.3598206519957178e-02 -3.1745108882857781e-01
    1.5327142612543452e-02 -2.7524094128159016e-01
    2.1276631809004621e-02 -1.9104017997521755e-01
    1.2758531022291875e-02 -3.4367169831173539e-01
    1.0296395799213404e-02 -4.6225016352102427e-01
    8.5925787037713936e-03 -6.4807406984078608e-01
    7.9069196532434508e-03 -8.8034084308295035e-01
    7.8626582598957367e-03 -9.3189111629609322e-01
    7.8556139177977206e-03 -1.0580184237878971e+00
    7.8431372549019607e-03 -1. 7.8439153053234869e-03
    -9.8601329718326924e-01 7.8439153053234869e-03
    -9.8601329718326924e-01 7.8462508466303656e-03
    -9.7221678624268515e-01 7.8815362180653242e-03
    -9.0582162731567673e-01 7.8712938014989155e-03
    -9.1877954056228539e-01 8.0502096895413173e-03
    -7.9509993588603500e-01 8.2104932447040757e-03
    -7.3720978077448562e-01 8.4802525833324038e-03
    -6.7005939426048999e-01 8.5925787037713936e-03
    -6.4807406984078608e-01 8.9341379160638307e-03
    -5.9361683970466372e-01 9.3859196539000378e-03
    -5.3935988997059370e-01 9.3859196539000378e-03
    -5.3935988997059370e-01 9.8563637458313723e-03
    -4.9559462778335212e-01 9.8563637458313723e-03
    -4.9559462778335212e-01 9.1896046472344940e-03
    -5.6108360768678212e-01 8.7861223783379343e-03
    -6.1533793698993489e-01 8.2901734757753667e-03
    -7.1458960101049640e-01 8.2104932447040757e-03
    -7.3720978077448562e-01 8.1741457981778978e-03
    -7.4862511341763072e-01 7.8556139177977224e-03
    -9.4516312525052171e-01 7.8712938014989155e-03
    -9.1877954056228539e-01 7.9221076036911676e-03
    -8.6780551954518392e-01 7.8712938014989155e-03
    -1.0884003788199381e+00 7.9780090410488131e-03
    -1.2034433356286307e+00 7.9576184514497245e-03
    -1.1860774262319254e+00 7.9221076036911659e-03
    -1.1523319193960637e+00 7.8431372549019607e-03 -1.
    7.8626582598957367e-03 -9.3189111629609322e-01
    8.1400156040260224e-03 -7.6011695006609192e-01
    8.7180244445187495e-03 -6.2622429108514965e-01
    1.2080049023627129e-02 -3.6878177829171555e-01
    1.4098920600576536e-02 -3.0382181012510001e-01
    2.1276631809004621e-02 -1.9104017997521755e-01
    1.2758531022291875e-02 -3.4367169831173539e-01
    9.9934941297071238e-03 -4.8454371185234890e-01
    8.2901734757753667e-03 -7.1458960101049640e-01
    7.8712938014989155e-03 -9.1877954056228539e-01
    7.8462508466303656e-03 -1.0285771796480583e+00
    7.8439153053234869e-03 -1.0141851056742199e+00
    7.8439153053234869e-03 -1.0141851056742199e+00
    7.8626582598957367e-03 -1.0730867399773194e+00
    7.8439153053234869e-03 -1.0141851056742199e+00
    7.8934042208998485e-03 -8.9301083668138070e-01
    7.9221076036911676e-03 -8.6780551954518392e-01
    8.1400156040260224e-03 -7.6011695006609192e-01
    8.2901734757753667e-03 -7.1458960101049640e-01
    8.5348587662459879e-03 -6.5904736881610748e-01
    8.5925787037713936e-03 -6.4807406984078608e-01
    8.8580819943686710e-03 -6.0447052482698882e-01
    9.4930512967656231e-03 -5.2846880634459326e-01
    9.8563637458313723e-03 -4.9559462778335212e-01
    1.0139872527799082e-02 -4.7343207647399937e-01
    1.0296395799213404e-02 -4.6225016352102427e-01
    9.9934941297071238e-03 -4.8454371185234890e-01
    9.4930512967656231e-03 -5.2846880634459326e-01
    8.5925787037713936e-03 -6.4807406984078608e-01
    8.5925787037713936e-03 -6.4807406984078608e-01
    8.6535747342788519e-03 -6.3713467497806620e-01
    8.2104932447040757e-03 -7.3720978077448562e-01
    8.1400156040260224e-03 -7.6011695006609192e-01
    7.9780090410488131e-03 -8.3094896983881650e-01
    7.9389965381110334e-03 -8.5539892276830154e-01
    7.9069196532434508e-03 -1.1359236684941296e+00
    7.9069196532434508e-03 -1.1359236684941296e+00
    7.9780090410488131e-03 -1.2034433356286307e+00
    7.8712938014989155e-03 -1.0884003788199381e+00
    7.8501480558542495e-03 -1.0431851677040120e+00
    7.8501480558542495e-03 -1.0431851677040120e+00
    7.8626582598957367e-03 -9.3189111629609322e-01
    8.4802525833324038e-03 -6.7005939426048999e-01
    9.7276949527167374e-03 -5.0659369137563570e-01
    1.2758531022291875e-02 -3.4367169831173539e-01
    2.1276631809004621e-02 -1.9104017997521755e-01
    1.1273356753471185e-02 -4.0488816508945807e-01
    8.4802525833324038e-03 -6.7005939426048999e-01
    8.0242587562746447e-03 -8.0694658478592907e-01
    7.8431372549019607e-03 -1. 7.8626582598957367e-03
    -1.0730867399773194e+00 7.8439153053234869e-03
    -1.0141851056742199e+00 7.8501480558542495e-03
    -1.0431851677040120e+00 7.8439153053234869e-03
    -9.8601329718326924e-01 7.8439153053234869e-03
    -9.8601329718326924e-01 7.9576184514497262e-03
    -8.4311527888775439e-01 7.9576184514497262e-03
    -8.4311527888775439e-01 8.0781134463101603e-03
    -7.8334945180064020e-01 8.2901734757753667e-03
    -7.1458960101049640e-01 8.6535747342788519e-03
    -6.3713467497806620e-01 8.7180244445187495e-03
    -6.2622429108514965e-01 9.4930512967656231e-03
    -5.2846880634459326e-01 1.0139872527799082e-02
    -4.7343207647399937e-01 1.0139872527799082e-02
    -4.7343207647399937e-01 1.0464091762392323e-02
    -4.5098761680169730e-01 1.0644144586834148e-02
    -4.3963315494212873e-01 1.0464091762392323e-02
    -4.5098761680169730e-01 1.0464091762392323e-02
    -4.5098761680169730e-01 9.3859196539000378e-03
    -5.3935988997059370e-01 9.0995989711679676e-03
    -5.7192901984277544e-01 8.9341379160638307e-03
    -5.9361683970466372e-01 8.3797995775388382e-03
    -6.9221865524317305e-01 8.3336917457871879e-03
    -7.0337532093844679e-01 8.4286115692134619e-03
    -6.8111491377974986e-01 8.0781134463101603e-03
    -7.8334945180064020e-01 7.8712938014989155e-03
    -9.1877954056228539e-01 7.8439153053234869e-03
    -1.0141851056742199e+00 7.9069196532434508e-03
    -1.1359236684941296e+00 7.9221076036911659e-03
    -1.1523319193960637e+00 7.8626582598957367e-03
    -1.0730867399773194e+00 7.8712938014989155e-03
    -1.0884003788199381e+00 7.8431372549019607e-03 -1.
    8.1741457981778978e-03 -7.4862511341763072e-01
    9.1896046472344940e-03 -5.6108360768678212e-01
    1.2080049023627129e-02 -3.6878177829171555e-01
    1.8114746452116564e-02 -2.2771001702132443e-01
    1.0296395799213404e-02 -4.6225016352102427e-01
    8.2104932447040757e-03 -7.3720978077448562e-01
    7.8815362180653242e-03 -9.0582162731567673e-01
    7.8626582598957367e-03 -1.0730867399773194e+00
    7.8626582598957367e-03 -1.0730867399773194e+00
    7.8439153053234869e-03 -1.0141851056742199e+00
    7.8556139177977206e-03 -1.0580184237878971e+00
    7.8439153053234869e-03 -9.8601329718326924e-01
    7.8501480558542478e-03 -9.5860258653882158e-01
    7.9069196532434508e-03 -8.8034084308295035e-01
    8.2104932447040757e-03 -7.3720978077448562e-01
    8.3797995775388382e-03 -6.9221865524317305e-01
    8.5925787037713936e-03 -6.4807406984078608e-01
    8.8580819943686710e-03 -6.0447052482698882e-01
    9.6067950418249320e-03 -5.1754916950676566e-01
    1.0644144586834148e-02 -4.3963315494212873e-01
    1.1273356753471185e-02 -4.0488816508945807e-01
    1.2402319069138648e-02 -3.5634832254989918e-01
    1.1519106876210314e-02 -3.9302868179745754e-01
    1.1786939891520949e-02 -3.8100038100057154e-01
    1.1519106876210314e-02 -3.9302868179745754e-01
    1.1519106876210314e-02 -3.9302868179745754e-01
    1.1519106876210314e-02 -3.9302868179745754e-01
    1.0296395799213404e-02 -4.6225016352102427e-01
    9.2849152726491527e-03 -5.5022930999537056e-01
    9.0145485264530398e-03 -5.8277151741435851e-01
    8.3336917457871879e-03 -7.0337532093844679e-01
    8.2491395323092652e-03 -7.2586618631129773e-01
    8.2491395323092652e-03 -7.2586618631129773e-01
    7.9069196532434508e-03 -8.8034084308295035e-01
    7.8501480558542478e-03 -9.5860258653882158e-01
    7.8556139177977224e-03 -9.4516312525052171e-01
    7.8934042208998485e-03 -1.1198072396480807e+00
    7.8934042208998485e-03 -1.1198072396480807e+00
    7.9069196532434508e-03 -1.1359236684941296e+00
    7.8712938014989155e-03 -1.0884003788199381e+00
    7.9069196532434508e-03 -8.8034084308295035e-01
    8.8580819943686710e-03 -6.0447052482698882e-01
    1.0644144586834148e-02 -4.3963315494212873e-01
    1.6095374597702619e-02 -2.6013299085723601e-01
    1.0139872527799082e-02 -4.7343207647399937e-01
    8.0781134463101603e-03 -7.8334945180064020e-01
    7.8556139177977224e-03 -9.4516312525052171e-01
    7.8712938014989155e-03 -1.0884003788199381e+00
    7.9221076036911659e-03 -1.1523319193960637e+00
    7.9221076036911659e-03 -1.1523319193960637e+00
    7.8501480558542495e-03 -1.0431851677040120e+00
    7.8431372549019607e-03 -1. 7.8462508466303656e-03
    -9.7221678624268515e-01 8.0502096895413173e-03
    -7.9509993588603500e-01 8.2901734757753667e-03
    -7.1458960101049640e-01 8.3797995775388382e-03
    -6.9221865524317305e-01 8.8580819943686710e-03
    -6.0447052482698882e-01 9.2849152726491527e-03
    -5.5022930999537056e-01 1.1519106876210314e-02
    -3.9302868179745754e-01 1.4098920600576536e-02
    -3.0382181012510001e-01 1.4098920600576536e-02
    -3.0382181012510001e-01 1.6095374597702619e-02
    -2.6013299085723601e-01 1.4098920600576536e-02
    -3.0382181012510001e-01 1.3154645874340752e-02
    -3.3071891388307384e-01 1.4098920600576536e-02
    -3.0382181012510001e-01 1.6095374597702619e-02
    -2.6013299085723601e-01 1.6095374597702619e-02
    -2.6013299085723601e-01 1.4098920600576536e-02
    -3.0382181012510001e-01 1.2080049023627129e-02
    -3.6878177829171555e-01 9.6067950418249320e-03
    -5.1754916950676566e-01 8.8580819943686710e-03
    -6.0447052482698882e-01 8.2491395323092652e-03
    -7.2586618631129773e-01 8.2104932447040757e-03
    -7.3720978077448562e-01 8.0781134463101603e-03
    -7.8334945180064020e-01 7.8556139177977224e-03
    -9.4516312525052171e-01 7.8626582598957367e-03
    -9.3189111629609322e-01 7.8501480558542478e-03
    -9.5860258653882158e-01 7.9069196532434508e-03
    -1.1359236684941296e+00 7.9780090410488131e-03
    -1.2034433356286307e+00 7.8934042208998485e-03
    -1.1198072396480807e+00 7.8501480558542478e-03
    -9.5860258653882158e-01 8.3797995775388382e-03
    -6.9221865524317305e-01 9.6067950418249320e-03
    -5.1754916950676566e-01 1.6095374597702619e-02
    -2.6013299085723601e-01 9.3859196539000378e-03
    -5.3935988997059370e-01 7.9221076036911676e-03
    -8.6780551954518392e-01 7.8431372549019607e-03 -1.
    7.8712938014989155e-03 -1.0884003788199381e+00
    7.9221076036911659e-03 -1.1523319193960637e+00
    7.8934042208998485e-03 -1.1198072396480807e+00
    7.8626582598957367e-03 -1.0730867399773194e+00
    7.8462508466303656e-03 -9.7221678624268515e-01
    7.9576184514497262e-03 -8.4311527888775439e-01
    8.5348587662459879e-03 -6.5904736881610748e-01
    8.3797995775388382e-03 -6.9221865524317305e-01
    8.6535747342788519e-03 -6.3713467497806620e-01
    9.9934941297071238e-03 -4.8454371185234890e-01
    1.1047037580574303e-02 -4.1659779045053091e-01
    1.2758531022291875e-02 -3.4367169831173539e-01
    1.4098920600576536e-02 -3.0382181012510001e-01
    1.6095374597702619e-02 -2.6013299085723601e-01
    1.7007903037838570e-02 -2.4433888871261045e-01
    1.7007903037838570e-02 -2.4433888871261045e-01
    1.4098920600576536e-02 -3.0382181012510001e-01
    1.5327142612543452e-02 -2.7524094128159016e-01
    1.8114746452116564e-02 -2.2771001702132443e-01
    1.7007903037838570e-02 -2.4433888871261045e-01
    1.6095374597702619e-02 -2.6013299085723601e-01
    1.5327142612543452e-02 -2.7524094128159016e-01
    1.1273356753471185e-02 -4.0488816508945807e-01
    9.1896046472344940e-03 -5.6108360768678212e-01
    8.3797995775388382e-03 -6.9221865524317305e-01
    8.2491395323092652e-03 -7.2586618631129773e-01
    8.1080277390810033e-03 -7.7169010488506873e-01
    7.8815362180653242e-03 -9.0582162731567673e-01
    7.8462508466303656e-03 -9.7221678624268515e-01
    7.8431372549019607e-03 -1. 7.9389965381110334e-03
    -1.1690451944500122e+00 8.0781134463101603e-03
    -1.2765694770084508e+00 8.0502096895413173e-03
    -1.2577035349470009e+00 7.8556139177977206e-03
    -1.0580184237878971e+00 8.0242587562746447e-03
    -8.0694658478592907e-01 8.7180244445187495e-03
    -6.2622429108514965e-01 1.2758531022291875e-02
    -3.4367169831173539e-01 9.0145485264530398e-03
    -5.8277151741435851e-01 7.8626582598957367e-03
    -9.3189111629609322e-01 7.8626582598957367e-03
    -1.0730867399773194e+00 7.9389965381110334e-03
    -1.1690451944500122e+00 7.8626582598957367e-03
    -1.0730867399773194e+00 7.9069196532434508e-03
    -1.1359236684941296e+00 7.8431372549019607e-03 -1.
    7.8462508466303656e-03 -9.7221678624268515e-01
    8.1080277390810033e-03 -7.7169010488506873e-01
    8.5348587662459879e-03 -6.5904736881610748e-01
    8.4802525833324038e-03 -6.7005939426048999e-01
    9.0145485264530398e-03 -5.8277151741435851e-01
    1.0464091762392323e-02 -4.5098761680169730e-01
    1.2402319069138648e-02 -3.5634832254989918e-01
    1.3598206519957178e-02 -3.1745108882857781e-01
    1.4098920600576536e-02 -3.0382181012510001e-01
    1.5327142612543452e-02 -2.7524094128159016e-01
    1.9494095287448762e-02 -2.1004201260420147e-01
    2.3701652425047511e-02 -1.7025130615174974e-01
    2.3701652425047511e-02 -1.7025130615174974e-01
    1.7007903037838570e-02 -2.4433888871261045e-01
    1.7007903037838570e-02 -2.4433888871261045e-01
    1.7007903037838570e-02 -2.4433888871261045e-01
    1.6095374597702619e-02 -2.6013299085723601e-01
    1.5327142612543452e-02 -2.7524094128159016e-01
    1.1786939891520949e-02 -3.8100038100057154e-01
    9.6067950418249320e-03 -5.1754916950676566e-01
    8.8580819943686710e-03 -6.0447052482698882e-01
    8.3797995775388382e-03 -6.9221865524317305e-01
    8.1400156040260224e-03 -7.6011695006609192e-01
    7.8815362180653242e-03 -9.0582162731567673e-01
    7.9221076036911676e-03 -8.6780551954518392e-01
    7.8501480558542478e-03 -9.5860258653882158e-01
    7.9069196532434508e-03 -1.1359236684941296e+00
    8.0502096895413173e-03 -1.2577035349470009e+00
    8.0781134463101603e-03 -1.2765694770084508e+00
    7.8626582598957367e-03 -1.0730867399773194e+00
    7.8815362180653242e-03 -9.0582162731567673e-01
    8.5925787037713936e-03 -6.4807406984078608e-01
    1.0296395799213404e-02 -4.6225016352102427e-01
    8.7861223783379343e-03 -6.1533793698993489e-01
    7.8626582598957367e-03 -9.3189111629609322e-01
    7.8462508466303656e-03 -1.0285771796480583e+00
    7.8934042208998485e-03 -1.1198072396480807e+00
    7.9389965381110334e-03 -1.1690451944500122e+00
    7.9389965381110334e-03 -1.1690451944500122e+00
    7.8439153053234869e-03 -1.0141851056742199e+00
    7.9221076036911676e-03 -8.6780551954518392e-01
    8.2901734757753667e-03 -7.1458960101049640e-01
    8.4286115692134619e-03 -6.8111491377974986e-01
    8.7861223783379343e-03 -6.1533793698993489e-01
    9.6067950418249320e-03 -5.1754916950676566e-01
    1.0644144586834148e-02 -4.3963315494212873e-01
    1.2758531022291875e-02 -3.4367169831173539e-01
    1.4669529119192977e-02 -2.8977485337560777e-01
    1.5327142612543452e-02 -2.7524094128159016e-01
    1.9494095287448762e-02 -2.1004201260420147e-01
    2.1276631809004621e-02 -1.9104017997521755e-01
    2.3701652425047511e-02 -1.7025130615174974e-01
    2.1276631809004621e-02 -1.9104017997521755e-01
    1.6095374597702619e-02 -2.6013299085723601e-01
    1.6095374597702619e-02 -2.6013299085723601e-01
    1.6095374597702619e-02 -2.6013299085723601e-01
    1.5327142612543452e-02 -2.7524094128159016e-01
    1.5327142612543452e-02 -2.7524094128159016e-01
    1.0837926477542770e-02 -4.2817441928883765e-01
    1.0139872527799082e-02 -4.7343207647399937e-01
    9.0995989711679676e-03 -5.7192901984277544e-01
    8.4802525833324038e-03 -6.7005939426048999e-01
    8.2491395323092652e-03 -7.2586618631129773e-01
    8.1080277390810033e-03 -7.7169010488506873e-01
    7.9389965381110334e-03 -8.5539892276830154e-01
    7.8501480558542478e-03 -9.5860258653882158e-01
    7.8712938014989155e-03 -1.0884003788199381e+00
    8.0781134463101603e-03 -1.2765694770084508e+00
    8.0502096895413173e-03 -1.2577035349470009e+00
    7.9069196532434508e-03 -1.1359236684941296e+00
    7.8556139177977224e-03 -9.4516312525052171e-01
    8.2901734757753667e-03 -7.1458960101049640e-01
    1.0837926477542770e-02 -4.2817441928883765e-01
    8.7180244445187495e-03 -6.2622429108514965e-01
    7.8815362180653242e-03 -9.0582162731567673e-01
    7.8462508466303656e-03 -1.0285771796480583e+00
    7.8556139177977206e-03 -1.0580184237878971e+00
    7.8556139177977206e-03 -1.0580184237878971e+00
    7.9221076036911659e-03 -1.1523319193960637e+00
    7.8815362180653242e-03 -9.0582162731567673e-01
    7.8712938014989155e-03 -9.1877954056228539e-01
    8.3797995775388382e-03 -6.9221865524317305e-01
    8.1741457981778978e-03 -7.4862511341763072e-01
    9.0995989711679676e-03 -5.7192901984277544e-01
    1.0296395799213404e-02 -4.6225016352102427e-01
    1.0837926477542770e-02 -4.2817441928883765e-01
    1.2080049023627129e-02 -3.6878177829171555e-01
    1.3598206519957178e-02 -3.1745108882857781e-01
    1.6095374597702619e-02 -2.6013299085723601e-01
    1.9494095287448762e-02 -2.1004201260420147e-01
    2.1276631809004621e-02 -1.9104017997521755e-01
    1.9494095287448762e-02 -2.1004201260420147e-01
    2.3701652425047511e-02 -1.7025130615174974e-01
    1.7007903037838570e-02 -2.4433888871261045e-01
    1.6095374597702619e-02 -2.6013299085723601e-01
    1.5327142612543452e-02 -2.7524094128159016e-01
    1.4669529119192977e-02 -2.8977485337560777e-01
    1.2080049023627129e-02 -3.6878177829171555e-01
    1.0464091762392323e-02 -4.5098761680169730e-01
    1.0139872527799082e-02 -4.7343207647399937e-01
    9.4930512967656231e-03 -5.2846880634459326e-01
    8.8580819943686710e-03 -6.0447052482698882e-01
    8.4802525833324038e-03 -6.7005939426048999e-01
    8.2104932447040757e-03 -7.3720978077448562e-01
    7.9576184514497262e-03 -8.4311527888775439e-01
    7.8431372549019607e-03 -1. 7.9069196532434508e-03
    -1.1359236684941296e+00 8.0781134463101603e-03
    -1.2765694770084508e+00 8.2104932447040757e-03
    -1.3564659966250536e+00 8.0242587562746447e-03
    -1.2392393980641052e+00 7.8626582598957367e-03
    -9.3189111629609322e-01 8.3336917457871879e-03
    -7.0337532093844679e-01 1.0837926477542770e-02
    -4.2817441928883765e-01 8.8580819943686710e-03
    -6.0447052482698882e-01 7.9069196532434508e-03
    -8.8034084308295035e-01 7.9069196532434508e-03
    -1.1359236684941296e+00 7.8626582598957367e-03
    -1.0730867399773194e+00 7.9069196532434508e-03
    -1.1359236684941296e+00 7.8712938014989155e-03
    -1.0884003788199381e+00 7.8556139177977224e-03
    -9.4516312525052171e-01 7.8462508466303656e-03
    -9.7221678624268515e-01 8.1080277390810033e-03
    -7.7169010488506873e-01 8.0781134463101603e-03
    -7.8334945180064020e-01 9.0995989711679676e-03
    -5.7192901984277544e-01 1.0644144586834148e-02
    -4.3963315494212873e-01 1.1047037580574303e-02
    -4.1659779045053091e-01 1.2758531022291875e-02
    -3.4367169831173539e-01 1.4098920600576536e-02
    -3.0382181012510001e-01 1.5327142612543452e-02
    -2.7524094128159016e-01 2.1276631809004621e-02
    -1.9104017997521755e-01 1.9494095287448762e-02
    -2.1004201260420147e-01 2.1276631809004621e-02
    -1.9104017997521755e-01 2.7269685951436716e-02
    -1.4691063206231753e-01 1.7007903037838570e-02
    -2.4433888871261045e-01 1.7007903037838570e-02
    -2.4433888871261045e-01 1.5327142612543452e-02
    -2.7524094128159016e-01 1.4098920600576536e-02
    -3.0382181012510001e-01 1.2402319069138648e-02
    -3.5634832254989918e-01 1.1047037580574303e-02
    -4.1659779045053091e-01 9.9934941297071238e-03
    -4.8454371185234890e-01 9.3859196539000378e-03
    -5.3935988997059370e-01 8.7861223783379343e-03
    -6.1533793698993489e-01 8.3797995775388382e-03
    -6.9221865524317305e-01 8.2901734757753667e-03
    -7.1458960101049640e-01 8.1080277390810033e-03
    -7.7169010488506873e-01 7.8462508466303656e-03
    -1.0285771796480583e+00 7.8626582598957367e-03
    -1.0730867399773194e+00 8.0502096895413173e-03
    -1.2577035349470009e+00 8.0502096895413173e-03
    -1.2577035349470009e+00 8.0002079033630602e-03
    -1.2211584951084107e+00 7.8439153053234869e-03
    -9.8601329718326924e-01 8.7180244445187495e-03
    -6.2622429108514965e-01 1.1786939891520949e-02
    -3.8100038100057154e-01 9.2849152726491527e-03
    -5.5022930999537056e-01 7.8934042208998485e-03
    -8.9301083668138070e-01 7.8439153053234869e-03
    -1.0141851056742199e+00 8.0002079033630602e-03
    -1.2211584951084107e+00 7.8934042208998485e-03
    -1.1198072396480807e+00 7.8556139177977206e-03
    -1.0580184237878971e+00 7.8439153053234869e-03
    -1.0141851056742199e+00 7.8815362180653242e-03
    -9.0582162731567673e-01 8.1400156040260224e-03
    -7.6011695006609192e-01 8.1741457981778978e-03
    -7.4862511341763072e-01 8.8580819943686710e-03
    -6.0447052482698882e-01 1.0464091762392323e-02
    -4.5098761680169730e-01 1.1047037580574303e-02
    -4.1659779045053091e-01 1.2402319069138648e-02
    -3.5634832254989918e-01 1.4098920600576536e-02
    -3.0382181012510001e-01 1.5327142612543452e-02
    -2.7524094128159016e-01 1.9494095287448762e-02
    -2.1004201260420147e-01 1.9494095287448762e-02
    -2.1004201260420147e-01 2.1276631809004621e-02
    -1.9104017997521755e-01 2.3701652425047511e-02
    -1.7025130615174974e-01 1.6095374597702619e-02
    -2.6013299085723601e-01 1.5327142612543452e-02
    -2.7524094128159016e-01 1.5327142612543452e-02
    -2.7524094128159016e-01 1.4098920600576536e-02
    -3.0382181012510001e-01 1.3598206519957178e-02
    -3.1745108882857781e-01 1.0837926477542770e-02
    -4.2817441928883765e-01 1.0296395799213404e-02
    -4.6225016352102427e-01 9.2849152726491527e-03
    -5.5022930999537056e-01 8.8580819943686710e-03
    -6.0447052482698882e-01 8.3797995775388382e-03
    -6.9221865524317305e-01 8.2901734757753667e-03
    -7.1458960101049640e-01 8.0502096895413173e-03
    -7.9509993588603500e-01 7.8431372549019607e-03 -1.
    8.0242587562746447e-03 -1.2392393980641052e+00
    8.0781134463101603e-03 -1.2765694770084508e+00
    8.0781134463101603e-03 -1.2765694770084508e+00
    8.0242587562746447e-03 -1.2392393980641052e+00
    7.9069196532434508e-03 -1.1359236684941296e+00
    8.4286115692134619e-03 -6.8111491377974986e-01
    1.1519106876210314e-02 -3.9302868179745754e-01
    9.2849152726491527e-03 -5.5022930999537056e-01
    8.0781134463101603e-03 -7.8334945180064020e-01
    7.8556139177977206e-03 -1.0580184237878971e+00
    8.0002079033630602e-03 -1.2211584951084107e+00
    8.0242587562746447e-03 -1.2392393980641052e+00
    7.9221076036911659e-03 -1.1523319193960637e+00
    7.8501480558542495e-03 -1.0431851677040120e+00
    7.8626582598957367e-03 -9.3189111629609322e-01
    8.0242587562746447e-03 -8.0694658478592907e-01
    8.0781134463101603e-03 -7.8334945180064020e-01
    8.5348587662459879e-03 -6.5904736881610748e-01
    9.9934941297071238e-03 -4.8454371185234890e-01
    1.1273356753471185e-02 -4.0488816508945807e-01
    1.2080049023627129e-02 -3.6878177829171555e-01
    1.3598206519957178e-02 -3.1745108882857781e-01
    1.7007903037838570e-02 -2.4433888871261045e-01
    1.9494095287448762e-02 -2.1004201260420147e-01
    2.3701652425047511e-02 -1.7025130615174974e-01
    2.1276631809004621e-02 -1.9104017997521755e-01
    2.1276631809004621e-02 -1.9104017997521755e-01
    1.5327142612543452e-02 -2.7524094128159016e-01
    1.5327142612543452e-02 -2.7524094128159016e-01
    1.4098920600576536e-02 -3.0382181012510001e-01
    1.4098920600576536e-02 -3.0382181012510001e-01
    1.2402319069138648e-02 -3.5634832254989918e-01
    1.1047037580574303e-02 -4.1659779045053091e-01
    1.0296395799213404e-02 -4.6225016352102427e-01
    9.0995989711679676e-03 -5.7192901984277544e-01
    8.9341379160638307e-03 -5.9361683970466372e-01
    8.4802525833324038e-03 -6.7005939426048999e-01
    8.4286115692134619e-03 -6.8111491377974986e-01
    8.0242587562746447e-03 -8.0694658478592907e-01
    7.8431372549019607e-03 -1. 7.8712938014989155e-03
    -1.0884003788199381e+00 8.1080277390810033e-03
    -1.2958569685805872e+00 8.0242587562746447e-03
    -1.2392393980641052e+00 8.0242587562746447e-03
    -1.2392393980641052e+00 7.9221076036911659e-03
    -1.1523319193960637e+00 8.3797995775388382e-03
    -6.9221865524317305e-01 1.3598206519957178e-02
    -3.1745108882857781e-01 9.2849152726491527e-03
    -5.5022930999537056e-01 7.9576184514497262e-03
    -8.4311527888775439e-01 7.8462508466303656e-03
    -1.0285771796480583e+00 7.9780090410488131e-03
    -1.2034433356286307e+00 7.9389965381110334e-03
    -1.1690451944500122e+00 7.8934042208998485e-03
    -1.1198072396480807e+00 7.8501480558542495e-03
    -1.0431851677040120e+00 7.8501480558542478e-03
    -9.5860258653882158e-01 8.0781134463101603e-03
    -7.8334945180064020e-01 8.1741457981778978e-03
    -7.4862511341763072e-01 8.7180244445187495e-03
    -6.2622429108514965e-01 9.6067950418249320e-03
    -5.1754916950676566e-01 9.9934941297071238e-03
    -4.8454371185234890e-01 1.2402319069138648e-02
    -3.5634832254989918e-01 1.2402319069138648e-02
    -3.5634832254989918e-01 1.7007903037838570e-02
    -2.4433888871261045e-01 1.7007903037838570e-02
    -2.4433888871261045e-01 1.9494095287448762e-02
    -2.1004201260420147e-01 2.3701652425047511e-02
    -1.7025130615174974e-01 2.1276631809004621e-02
    -1.9104017997521755e-01 1.7007903037838570e-02
    -2.4433888871261045e-01 1.5327142612543452e-02
    -2.7524094128159016e-01 1.3598206519957178e-02
    -3.1745108882857781e-01 1.3598206519957178e-02
    -3.1745108882857781e-01 1.1786939891520949e-02
    -3.8100038100057154e-01 1.1519106876210314e-02
    -3.9302868179745754e-01 9.8563637458313723e-03
    -4.9559462778335212e-01 9.1896046472344940e-03
    -5.6108360768678212e-01 8.7861223783379343e-03
    -6.1533793698993489e-01 8.4286115692134619e-03
    -6.8111491377974986e-01 8.4286115692134619e-03
    -6.8111491377974986e-01 7.9221076036911676e-03
    -8.6780551954518392e-01 7.8501480558542495e-03
    -1.0431851677040120e+00 8.0242587562746447e-03
    -1.2392393980641052e+00 8.1400156040260241e-03
    -1.3155870289605440e+00 8.0781134463101603e-03
    -1.2765694770084508e+00 8.0781134463101603e-03
    -1.2765694770084508e+00 7.8439153053234869e-03
    -1.0141851056742199e+00 8.4802525833324038e-03
    -6.7005939426048999e-01 1.6095374597702619e-02
    -2.6013299085723601e-01 8.7180244445187495e-03
    -6.2622429108514965e-01 8.3336917457871879e-03
    -7.0337532093844679e-01 7.9780090410488131e-03
    -8.3094896983881650e-01 7.9389965381110334e-03
    -1.1690451944500122e+00 8.0002079033630602e-03
    -1.2211584951084107e+00 8.0002079033630602e-03
    -1.2211584951084107e+00 7.8626582598957367e-03
    -1.0730867399773194e+00 7.8431372549019607e-03 -1.
    7.9389965381110334e-03 -8.5539892276830154e-01
    8.0781134463101603e-03 -7.8334945180064020e-01
    8.4802525833324038e-03 -6.7005939426048999e-01
    8.9341379160638307e-03 -5.9361683970466372e-01
    9.9934941297071238e-03 -4.8454371185234890e-01
    1.1519106876210314e-02 -3.9302868179745754e-01
    1.3154645874340752e-02 -3.3071891388307384e-01
    1.3598206519957178e-02 -3.1745108882857781e-01
    1.4669529119192977e-02 -2.8977485337560777e-01
    1.5327142612543452e-02 -2.7524094128159016e-01
    1.6095374597702619e-02 -2.6013299085723601e-01
    1.4669529119192977e-02 -2.8977485337560777e-01
    1.4098920600576536e-02 -3.0382181012510001e-01
    1.4098920600576536e-02 -3.0382181012510001e-01
    1.3598206519957178e-02 -3.1745108882857781e-01
    1.3154645874340752e-02 -3.3071891388307384e-01
    1.1273356753471185e-02 -4.0488816508945807e-01
    9.8563637458313723e-03 -4.9559462778335212e-01
    9.3859196539000378e-03 -5.3935988997059370e-01
    9.2849152726491527e-03 -5.5022930999537056e-01
    8.5925787037713936e-03 -6.4807406984078608e-01
    8.3797995775388382e-03 -6.9221865524317305e-01
    8.2901734757753667e-03 -7.1458960101049640e-01
    7.9221076036911676e-03 -8.6780551954518392e-01
    7.8712938014989155e-03 -1.0884003788199381e+00
    7.9389965381110334e-03 -1.1690451944500122e+00
    8.2491395323092652e-03 -1.3776643944275648e+00
    8.1080277390810033e-03 -1.2958569685805872e+00
    8.0002079033630602e-03 -1.2211584951084107e+00
    7.8934042208998485e-03 -1.1198072396480807e+00
    8.3336917457871879e-03 -7.0337532093844679e-01
    1.5327142612543452e-02 -2.7524094128159016e-01
    9.3859196539000378e-03 -5.3935988997059370e-01
    8.4802525833324038e-03 -6.7005939426048999e-01
    8.0002079033630602e-03 -8.1889452024916964e-01
    7.8501480558542478e-03 -9.5860258653882158e-01
    7.9780090410488131e-03 -1.2034433356286307e+00
    7.9780090410488131e-03 -1.2034433356286307e+00
    7.8556139177977206e-03 -1.0580184237878971e+00
    7.8431372549019607e-03 -1. 7.9069196532434508e-03
    -8.8034084308295035e-01 8.0002079033630602e-03
    -8.1889452024916964e-01 8.3336917457871879e-03
    -7.0337532093844679e-01 8.7180244445187495e-03
    -6.2622429108514965e-01 9.3859196539000378e-03
    -5.3935988997059370e-01 1.0837926477542770e-02
    -4.2817441928883765e-01 1.2402319069138648e-02
    -3.5634832254989918e-01 1.2758531022291875e-02
    -3.4367169831173539e-01 1.2402319069138648e-02
    -3.5634832254989918e-01 1.3598206519957178e-02
    -3.1745108882857781e-01 1.3154645874340752e-02
    -3.3071891388307384e-01 1.4669529119192977e-02
    -2.8977485337560777e-01 1.3154645874340752e-02
    -3.3071891388307384e-01 1.3154645874340752e-02
    -3.3071891388307384e-01 1.1786939891520949e-02
    -3.8100038100057154e-01 1.1273356753471185e-02
    -4.0488816508945807e-01 1.0644144586834148e-02
    -4.3963315494212873e-01 9.6067950418249320e-03
    -5.1754916950676566e-01 9.1896046472344940e-03
    -5.6108360768678212e-01 8.9341379160638307e-03
    -5.9361683970466372e-01 8.4802525833324038e-03
    -6.7005939426048999e-01 8.4286115692134619e-03
    -6.8111491377974986e-01 8.2491395323092652e-03
    -7.2586618631129773e-01 7.9221076036911676e-03
    -8.6780551954518392e-01 7.8934042208998485e-03
    -1.1198072396480807e+00 7.9780090410488131e-03
    -1.2034433356286307e+00 8.0242587562746447e-03
    -1.2392393980641052e+00 8.0002079033630602e-03
    -1.2211584951084107e+00 7.9221076036911659e-03
    -1.1523319193960637e+00 7.8556139177977206e-03
    -1.0580184237878971e+00 8.2901734757753667e-03
    -7.1458960101049640e-01 1.8114746452116564e-02
    -2.2771001702132443e-01 1.1519106876210314e-02
    -3.9302868179745754e-01 8.7861223783379343e-03
    -6.1533793698993489e-01 8.2104932447040757e-03
    -7.3720978077448562e-01 7.8439153053234869e-03
    -9.8601329718326924e-01 7.9069196532434508e-03
    -1.1359236684941296e+00 8.0242587562746447e-03
    -1.2392393980641052e+00 7.8934042208998485e-03
    -1.1198072396480807e+00 7.9389965381110334e-03
    -1.1690451944500122e+00 7.8626582598957367e-03
    -1.0730867399773194e+00 7.8556139177977224e-03
    -9.4516312525052171e-01 8.1080277390810033e-03
    -7.7169010488506873e-01 8.2491395323092652e-03
    -7.2586618631129773e-01 9.2849152726491527e-03
    -5.5022930999537056e-01 9.1896046472344940e-03
    -5.6108360768678212e-01 1.0296395799213404e-02
    -4.6225016352102427e-01 1.1786939891520949e-02
    -3.8100038100057154e-01 1.2402319069138648e-02
    -3.5634832254989918e-01 1.3154645874340752e-02
    -3.3071891388307384e-01 1.1786939891520949e-02
    -3.8100038100057154e-01 1.2402319069138648e-02
    -3.5634832254989918e-01 1.1786939891520949e-02
    -3.8100038100057154e-01 1.1519106876210314e-02
    -3.9302868179745754e-01 1.0837926477542770e-02
    -4.2817441928883765e-01 9.9934941297071238e-03
    -4.8454371185234890e-01 9.6067950418249320e-03
    -5.1754916950676566e-01 9.0995989711679676e-03
    -5.7192901984277544e-01 8.8580819943686710e-03
    -6.0447052482698882e-01 8.9341379160638307e-03
    -5.9361683970466372e-01 8.5348587662459879e-03
    -6.5904736881610748e-01 8.3797995775388382e-03
    -6.9221865524317305e-01 8.0502096895413173e-03
    -7.9509993588603500e-01 7.8815362180653242e-03
    -9.0582162731567673e-01 8.0002079033630602e-03
    -1.2211584951084107e+00 7.9069196532434508e-03
    -1.1359236684941296e+00 7.9389965381110334e-03
    -1.1690451944500122e+00 7.9780090410488131e-03
    -1.2034433356286307e+00 8.0002079033630602e-03
    -1.2211584951084107e+00 7.8462508466303656e-03
    -1.0285771796480583e+00 8.5925787037713936e-03
    -6.4807406984078608e-01 1.8114746452116564e-02
    -2.2771001702132443e-01 1.3154645874340752e-02
    -3.3071891388307384e-01 9.7276949527167374e-03
    -5.0659369137563570e-01 8.6535747342788519e-03
    -6.3713467497806620e-01 7.8626582598957367e-03
    -9.3189111629609322e-01 7.8626582598957367e-03
    -1.0730867399773194e+00 7.8815362180653225e-03
    -1.1039701082909807e+00 8.0242587562746447e-03
    -1.2392393980641052e+00 8.0502096895413173e-03
    -1.2577035349470009e+00 8.0502096895413173e-03
    -1.2577035349470009e+00 7.8431372549019607e-03 -1.
    7.8934042208998485e-03 -8.9301083668138070e-01
    8.2901734757753667e-03 -7.1458960101049640e-01
    8.5348587662459879e-03 -6.5904736881610748e-01
    8.7861223783379343e-03 -6.1533793698993489e-01
    9.6067950418249320e-03 -5.1754916950676566e-01
    1.0139872527799082e-02 -4.7343207647399937e-01
    1.0464091762392323e-02 -4.5098761680169730e-01
    1.1047037580574303e-02 -4.1659779045053091e-01
    1.1047037580574303e-02 -4.1659779045053091e-01
    1.1047037580574303e-02 -4.1659779045053091e-01
    1.1786939891520949e-02 -3.8100038100057154e-01
    1.1047037580574303e-02 -4.1659779045053091e-01
    9.7276949527167374e-03 -5.0659369137563570e-01
    9.0995989711679676e-03 -5.7192901984277544e-01
    8.9341379160638307e-03 -5.9361683970466372e-01
    8.8580819943686710e-03 -6.0447052482698882e-01
    8.9341379160638307e-03 -5.9361683970466372e-01
    8.6535747342788519e-03 -6.3713467497806620e-01
    8.4286115692134619e-03 -6.8111491377974986e-01
    8.2491395323092652e-03 -7.2586618631129773e-01
    7.8712938014989155e-03 -9.1877954056228539e-01
    7.8462508466303656e-03 -1.0285771796480583e+00
    7.9576184514497245e-03 -1.1860774262319254e+00
    7.8712938014989155e-03 -1.0884003788199381e+00
    7.9389965381110334e-03 -1.1690451944500122e+00
    7.9389965381110334e-03 -1.1690451944500122e+00
    7.8501480558542495e-03 -1.0431851677040120e+00
    7.8439153053234869e-03 -9.8601329718326924e-01
    1.0464091762392323e-02 -4.5098761680169730e-01
    1.4669529119192977e-02 -2.8977485337560777e-01
    1.4669529119192977e-02 -2.8977485337560777e-01
    1.0837926477542770e-02 -4.2817441928883765e-01
    8.8580819943686710e-03 -6.0447052482698882e-01
    8.2491395323092652e-03 -7.2586618631129773e-01
    7.8439153053234869e-03 -9.8601329718326924e-01
    7.9780090410488131e-03 -1.2034433356286307e+00
    7.9576184514497245e-03 -1.1860774262319254e+00
    7.8934042208998485e-03 -1.1198072396480807e+00
    7.9780090410488131e-03 -1.2034433356286307e+00
    7.9069196532434508e-03 -1.1359236684941296e+00
    7.8934042208998485e-03 -1.1198072396480807e+00
    7.8934042208998485e-03 -8.9301083668138070e-01
    8.0242587562746447e-03 -8.0694658478592907e-01
    8.2104932447040757e-03 -7.3720978077448562e-01
    8.5348587662459879e-03 -6.5904736881610748e-01
    9.6067950418249320e-03 -5.1754916950676566e-01
    9.7276949527167374e-03 -5.0659369137563570e-01
    9.6067950418249320e-03 -5.1754916950676566e-01
    9.6067950418249320e-03 -5.1754916950676566e-01
    9.8563637458313723e-03 -4.9559462778335212e-01
    1.0464091762392323e-02 -4.5098761680169730e-01
    9.3859196539000378e-03 -5.3935988997059370e-01
    9.1896046472344940e-03 -5.6108360768678212e-01
    9.0145485264530398e-03 -5.8277151741435851e-01
    8.8580819943686710e-03 -6.0447052482698882e-01
    8.5925787037713936e-03 -6.4807406984078608e-01
    8.7861223783379343e-03 -6.1533793698993489e-01
    8.4802525833324038e-03 -6.7005939426048999e-01
    8.3797995775388382e-03 -6.9221865524317305e-01
    8.0002079033630602e-03 -8.1889452024916964e-01
    7.8501480558542495e-03 -1.0431851677040120e+00
    7.8431372549019607e-03 -1. 7.8712938014989155e-03
    -1.0884003788199381e+00 7.9069196532434508e-03
    -1.1359236684941296e+00 7.8626582598957367e-03
    -1.0730867399773194e+00 7.8815362180653225e-03
    -1.1039701082909807e+00 7.8439153053234869e-03
    -9.8601329718326924e-01 8.1080277390810033e-03
    -7.7169010488506873e-01 1.1786939891520949e-02
    -3.8100038100057154e-01 1.7007903037838570e-02
    -2.4433888871261045e-01 1.3598206519957178e-02
    -3.1745108882857781e-01 1.2080049023627129e-02
    -3.6878177829171555e-01 9.0995989711679676e-03
    -5.7192901984277544e-01 8.5348587662459879e-03
    -6.5904736881610748e-01 8.0242587562746447e-03
    -8.0694658478592907e-01 7.8556139177977206e-03
    -1.0580184237878971e+00 8.0242587562746447e-03
    -1.2392393980641052e+00 7.9389965381110334e-03
    -1.1690451944500122e+00 7.8501480558542495e-03
    -1.0431851677040120e+00 8.0502096895413173e-03
    -1.2577035349470009e+00 7.8712938014989155e-03
    -1.0884003788199381e+00 7.8712938014989155e-03
    -9.1877954056228539e-01 7.8626582598957367e-03
    -9.3189111629609322e-01 7.9780090410488131e-03
    -8.3094896983881650e-01 8.2901734757753667e-03
    -7.1458960101049640e-01 8.5925787037713936e-03
    -6.4807406984078608e-01 8.7180244445187495e-03
    -6.2622429108514965e-01 9.2849152726491527e-03
    -5.5022930999537056e-01 9.0995989711679676e-03
    -5.7192901984277544e-01 9.0995989711679676e-03
    -5.7192901984277544e-01 9.2849152726491527e-03
    -5.5022930999537056e-01 8.8580819943686710e-03
    -6.0447052482698882e-01 8.5925787037713936e-03
    -6.4807406984078608e-01 8.5925787037713936e-03
    -6.4807406984078608e-01 8.5348587662459879e-03
    -6.5904736881610748e-01 8.3797995775388382e-03
    -6.9221865524317305e-01 8.5925787037713936e-03
    -6.4807406984078608e-01 8.3336917457871879e-03
    -7.0337532093844679e-01 8.0781134463101603e-03
    -7.8334945180064020e-01 7.9069196532434508e-03
    -8.8034084308295035e-01 7.8501480558542495e-03
    -1.0431851677040120e+00 7.8712938014989155e-03
    -1.0884003788199381e+00 7.9069196532434508e-03
    -1.1359236684941296e+00 7.8934042208998485e-03
    -1.1198072396480807e+00 7.8934042208998485e-03
    -1.1198072396480807e+00 7.8556139177977224e-03
    -9.4516312525052171e-01 7.9221076036911676e-03
    -8.6780551954518392e-01 8.6535747342788519e-03
    -6.3713467497806620e-01 1.2402319069138648e-02
    -3.5634832254989918e-01 1.9494095287448762e-02
    -2.1004201260420147e-01 1.6095374597702619e-02
    -2.6013299085723601e-01 1.4669529119192977e-02
    -2.8977485337560777e-01 9.9934941297071238e-03
    -4.8454371185234890e-01 8.9341379160638307e-03
    -5.9361683970466372e-01 8.2901734757753667e-03
    -7.1458960101049640e-01 7.9780090410488131e-03
    -8.3094896983881650e-01 7.8439153053234869e-03
    -9.8601329718326924e-01 7.8712938014989155e-03
    -9.1877954056228539e-01 7.8431372549019607e-03 -1.
    8.0502096895413173e-03 -1.2577035349470009e+00
    8.1080277390810033e-03 -1.2958569685805872e+00
    8.0502096895413173e-03 -1.2577035349470009e+00
    7.9780090410488131e-03 -1.2034433356286307e+00
    7.9221076036911659e-03 -1.1523319193960637e+00
    7.8626582598957367e-03 -9.3189111629609322e-01
    8.2104932447040757e-03 -7.3720978077448562e-01
    8.3797995775388382e-03 -6.9221865524317305e-01
    8.3336917457871879e-03 -7.0337532093844679e-01
    8.5925787037713936e-03 -6.4807406984078608e-01
    8.3336917457871879e-03 -7.0337532093844679e-01
    8.7180244445187495e-03 -6.2622429108514965e-01
    8.2901734757753667e-03 -7.1458960101049640e-01
    8.1741457981778978e-03 -7.4862511341763072e-01
    8.2104932447040757e-03 -7.3720978077448562e-01
    8.1741457981778978e-03 -7.4862511341763072e-01
    8.2491395323092652e-03 -7.2586618631129773e-01
    8.2104932447040757e-03 -7.3720978077448562e-01
    8.0502096895413173e-03 -7.9509993588603500e-01
    7.9221076036911676e-03 -8.6780551954518392e-01
    7.8626582598957367e-03 -1.0730867399773194e+00
    7.8934042208998485e-03 -1.1198072396480807e+00
    7.8626582598957367e-03 -1.0730867399773194e+00
    7.8431372549019607e-03 -1. 7.8462508466303656e-03
    -1.0285771796480583e+00 7.8439153053234869e-03
    -9.8601329718326924e-01 7.8712938014989155e-03
    -9.1877954056228539e-01 8.1080277390810033e-03
    -7.7169010488506873e-01 9.8563637458313723e-03
    -4.9559462778335212e-01 1.8114746452116564e-02
    -2.2771001702132443e-01 1.9494095287448762e-02
    -2.1004201260420147e-01 1.6095374597702619e-02
    -2.6013299085723601e-01 1.4669529119192977e-02
    -2.8977485337560777e-01 1.1786939891520949e-02
    -3.8100038100057154e-01 9.7276949527167374e-03
    -5.0659369137563570e-01 8.2901734757753667e-03
    -7.1458960101049640e-01 8.0502096895413173e-03
    -7.9509993588603500e-01 7.9576184514497262e-03
    -8.4311527888775439e-01 7.8439153053234869e-03
    -9.8601329718326924e-01 7.8439153053234869e-03
    -9.8601329718326924e-01 7.9069196532434508e-03
    -1.1359236684941296e+00 7.9780090410488131e-03
    -1.2034433356286307e+00 8.1080277390810033e-03
    -1.2958569685805872e+00 8.1400156040260241e-03
    -1.3155870289605440e+00 8.0002079033630602e-03
    -1.2211584951084107e+00 7.9069196532434508e-03
    -1.1359236684941296e+00 7.8501480558542495e-03
    -1.0431851677040120e+00 7.8712938014989155e-03
    -9.1877954056228539e-01 7.9221076036911676e-03
    -8.6780551954518392e-01 7.9780090410488131e-03
    -8.3094896983881650e-01 7.9576184514497262e-03
    -8.4311527888775439e-01 8.1080277390810033e-03
    -7.7169010488506873e-01 8.0002079033630602e-03
    -8.1889452024916964e-01 8.0502096895413173e-03
    -7.9509993588603500e-01 8.0002079033630602e-03
    -8.1889452024916964e-01 8.1741457981778978e-03
    -7.4862511341763072e-01 8.1080277390810033e-03
    -7.7169010488506873e-01 7.9389965381110334e-03
    -8.5539892276830154e-01 7.8439153053234869e-03
    -1.0141851056742199e+00 7.8556139177977206e-03
    -1.0580184237878971e+00 8.0002079033630602e-03
    -1.2211584951084107e+00 7.9069196532434508e-03
    -1.1359236684941296e+00 7.9069196532434508e-03
    -1.1359236684941296e+00 7.8712938014989155e-03
    -1.0884003788199381e+00 7.8439153053234869e-03
    -9.8601329718326924e-01 7.8501480558542478e-03
    -9.5860258653882158e-01 7.8626582598957367e-03
    -9.3189111629609322e-01 8.5925787037713936e-03
    -6.4807406984078608e-01 1.3154645874340752e-02
    -3.3071891388307384e-01 1.8114746452116564e-02
    -2.2771001702132443e-01 2.7269685951436716e-02
    -1.4691063206231753e-01 1.4669529119192977e-02
    -2.8977485337560777e-01 1.4669529119192977e-02
    -2.8977485337560777e-01 1.3598206519957178e-02
    -3.1745108882857781e-01 1.1786939891520949e-02
    -3.8100038100057154e-01 9.0145485264530398e-03
    -5.8277151741435851e-01 8.5348587662459879e-03
    -6.5904736881610748e-01 8.0781134463101603e-03
    -7.8334945180064020e-01 8.2104932447040757e-03
    -7.3720978077448562e-01 7.8556139177977224e-03
    -9.4516312525052171e-01 7.8439153053234869e-03
    -1.0141851056742199e+00 7.8934042208998485e-03
    -1.1198072396480807e+00 8.1741457981778960e-03
    -1.3357820651177328e+00 8.1080277390810033e-03
    -1.2958569685805872e+00 8.1741457981778960e-03
    -1.3357820651177328e+00 7.9780090410488131e-03
    -1.2034433356286307e+00 8.0002079033630602e-03
    -1.2211584951084107e+00 7.9576184514497245e-03
    -1.1860774262319254e+00 7.8626582598957367e-03
    -1.0730867399773194e+00 7.8439153053234869e-03
    -9.8601329718326924e-01 7.8462508466303656e-03
    -1.0285771796480583e+00 7.8934042208998485e-03
    -8.9301083668138070e-01 7.8712938014989155e-03
    -9.1877954056228539e-01 7.9389965381110334e-03
    -8.5539892276830154e-01 7.9069196532434508e-03
    -8.8034084308295035e-01 7.9221076036911676e-03
    -8.6780551954518392e-01 7.8934042208998485e-03
    -8.9301083668138070e-01 7.8626582598957367e-03
    -1.0730867399773194e+00 7.8815362180653225e-03
    -1.1039701082909807e+00 7.9069196532434508e-03
    -1.1359236684941296e+00 7.9221076036911659e-03
    -1.1523319193960637e+00 7.8934042208998485e-03
    -1.1198072396480807e+00 7.8626582598957367e-03
    -9.3189111629609322e-01 7.8815362180653242e-03
    -9.0582162731567673e-01 7.8556139177977224e-03
    -9.4516312525052171e-01 7.8815362180653242e-03
    -9.0582162731567673e-01 8.2901734757753667e-03
    -7.1458960101049640e-01 9.9934941297071238e-03
    -4.8454371185234890e-01 1.5327142612543452e-02
    -2.7524094128159016e-01 1.8114746452116564e-02
    -2.2771001702132443e-01 2.1276631809004621e-02
    -1.9104017997521755e-01 1.8114746452116564e-02
    -2.2771001702132443e-01 1.5327142612543452e-02
    -2.7524094128159016e-01 1.4098920600576536e-02
    -3.0382181012510001e-01 1.4669529119192977e-02
    -2.8977485337560777e-01 1.1273356753471185e-02
    -4.0488816508945807e-01 9.2849152726491527e-03
    -5.5022930999537056e-01 8.5925787037713936e-03
    -6.4807406984078608e-01 8.0002079033630602e-03
    -8.1889452024916964e-01 8.0781134463101603e-03
    -7.8334945180064020e-01 7.8462508466303656e-03
    -9.7221678624268515e-01 7.8934042208998485e-03
    -1.1198072396480807e+00 7.9576184514497245e-03
    -1.1860774262319254e+00 8.0002079033630602e-03
    -1.2211584951084107e+00 8.2491395323092652e-03
    -1.3776643944275648e+00 8.2104932447040757e-03
    -1.3564659966250536e+00 8.2104932447040757e-03
    -1.3564659966250536e+00 8.1741457981778960e-03
    -1.3357820651177328e+00 8.0002079033630602e-03
    -1.2211584951084107e+00 8.1400156040260241e-03
    -1.3155870289605440e+00 8.0502096895413173e-03
    -1.2577035349470009e+00 7.9221076036911659e-03
    -1.1523319193960637e+00 7.9780090410488131e-03
    -1.2034433356286307e+00 7.8501480558542495e-03
    -1.0431851677040120e+00 7.8501480558542478e-03
    -9.5860258653882158e-01 7.8626582598957367e-03
    -1.0730867399773194e+00 7.8556139177977206e-03
    -1.0580184237878971e+00 7.9221076036911659e-03
    -1.1523319193960637e+00 7.9389965381110334e-03
    -1.1690451944500122e+00 7.9221076036911659e-03
    -1.1523319193960637e+00 7.8626582598957367e-03
    -1.0730867399773194e+00 7.8462508466303656e-03
    -1.0285771796480583e+00 7.9221076036911676e-03
    -8.6780551954518392e-01 7.8815362180653242e-03
    -9.0582162731567673e-01 7.8934042208998485e-03
    -8.9301083668138070e-01 8.3797995775388382e-03
    -6.9221865524317305e-01 9.2849152726491527e-03
    -5.5022930999537056e-01 1.0464091762392323e-02
    -4.5098761680169730e-01 1.7007903037838570e-02
    -2.4433888871261045e-01 2.1276631809004621e-02
    -1.9104017997521755e-01 1.9494095287448762e-02
    -2.1004201260420147e-01 1.9494095287448762e-02
    -2.1004201260420147e-01 1.5327142612543452e-02
    -2.7524094128159016e-01 1.6095374597702619e-02
    -2.6013299085723601e-01 1.7007903037838570e-02
    -2.4433888871261045e-01 1.5327142612543452e-02
    -2.7524094128159016e-01 1.2758531022291875e-02
    -3.4367169831173539e-01 9.7276949527167374e-03
    -5.0659369137563570e-01 8.2901734757753667e-03
    -7.1458960101049640e-01 8.0781134463101603e-03
    -7.8334945180064020e-01 8.0781134463101603e-03
    -7.8334945180064020e-01 7.8556139177977224e-03
    -9.4516312525052171e-01 7.8934042208998485e-03
    -1.1198072396480807e+00 7.9780090410488131e-03
    -1.2034433356286307e+00 8.1080277390810033e-03
    -1.2958569685805872e+00 8.3336917457871879e-03
    -1.4217160742372861e+00 8.3797995775388382e-03
    -1.4446302370292308e+00 8.4286115692134619e-03
    -1.4681810363696830e+00 8.2104932447040757e-03
    -1.3564659966250536e+00 8.2104932447040757e-03
    -1.3564659966250536e+00 8.1400156040260241e-03
    -1.3155870289605440e+00 8.1080277390810033e-03
    -1.2958569685805872e+00 8.0002079033630602e-03
    -1.2211584951084107e+00 8.1400156040260241e-03
    -1.3155870289605440e+00 8.0781134463101603e-03
    -1.2765694770084508e+00 7.9576184514497245e-03
    -1.1860774262319254e+00 7.9221076036911659e-03
    -1.1523319193960637e+00 7.9221076036911659e-03
    -1.1523319193960637e+00 8.0242587562746447e-03
    -1.2392393980641052e+00 7.9576184514497245e-03
    -1.1860774262319254e+00 7.8712938014989155e-03
    -1.0884003788199381e+00 7.8439153053234869e-03
    -1.0141851056742199e+00 7.8712938014989155e-03
    -9.1877954056228539e-01 7.9780090410488131e-03
    -8.3094896983881650e-01 8.4286115692134619e-03
    -6.8111491377974986e-01 9.0995989711679676e-03
    -5.7192901984277544e-01 1.0644144586834148e-02
    -4.3963315494212873e-01 1.5327142612543452e-02
    -2.7524094128159016e-01 2.1276631809004621e-02
    -1.9104017997521755e-01 2.1276631809004621e-02
    -1.9104017997521755e-01 4.6896303055468901e-02
    -8.4215192106651904e-02 2.3701652425047511e-02
    -1.7025130615174974e-01 1.7007903037838570e-02
    -2.4433888871261045e-01 1.9494095287448762e-02
    -2.1004201260420147e-01 1.7007903037838570e-02
    -2.4433888871261045e-01 1.8114746452116564e-02
    -2.2771001702132443e-01 1.3598206519957178e-02
    -3.1745108882857781e-01 1.1786939891520949e-02
    -3.8100038100057154e-01 9.3859196539000378e-03
    -5.3935988997059370e-01 8.2491395323092652e-03
    -7.2586618631129773e-01 7.9221076036911676e-03
    -8.6780551954518392e-01 7.8815362180653242e-03
    -9.0582162731567673e-01 7.8501480558542495e-03
    -1.0431851677040120e+00 7.9389965381110334e-03
    -1.1690451944500122e+00 8.0002079033630602e-03
    -1.2211584951084107e+00 8.1741457981778960e-03
    -1.3357820651177328e+00 8.3797995775388382e-03
    -1.4446302370292308e+00 8.4802525833324038e-03
    -1.4924050144892731e+00 8.3797995775388382e-03
    -1.4446302370292308e+00 8.2491395323092652e-03
    -1.3776643944275648e+00 8.2901734757753667e-03
    -1.3994046353122220e+00 8.3797995775388382e-03
    -1.4446302370292308e+00 8.4802525833324038e-03
    -1.4924050144892731e+00 8.2491395323092652e-03
    -1.3776643944275648e+00 8.1741457981778960e-03
    -1.3357820651177328e+00 7.9576184514497245e-03
    -1.1860774262319254e+00 7.9221076036911659e-03
    -1.1523319193960637e+00 7.9576184514497245e-03
    -1.1860774262319254e+00 7.9389965381110334e-03
    -1.1690451944500122e+00 7.8556139177977224e-03
    -9.4516312525052171e-01 7.8462508466303656e-03
    -1.0285771796480583e+00 7.8556139177977224e-03
    -9.4516312525052171e-01 8.0242587562746447e-03
    -8.0694658478592907e-01 9.1896046472344940e-03
    -5.6108360768678212e-01 9.0995989711679676e-03
    -5.7192901984277544e-01 9.9934941297071238e-03
    -4.8454371185234890e-01 1.3598206519957178e-02
    -3.1745108882857781e-01 1.6095374597702619e-02
    -2.6013299085723601e-01 2.3701652425047511e-02
    -1.7025130615174974e-01 3.3278914220683117e-02
    -1.1952286093343936e-01 4.6896303055468901e-02
    -8.4215192106651904e-02 1. 0. 2.3701652425047511e-02
    -1.7025130615174974e-01 1.7007903037838570e-02
    -2.4433888871261045e-01 1.8114746452116564e-02
    -2.2771001702132443e-01 1.8114746452116564e-02
    -2.2771001702132443e-01 1.4669529119192977e-02
    -2.8977485337560777e-01 1.4669529119192977e-02
    -2.8977485337560777e-01 1.1786939891520949e-02
    -3.8100038100057154e-01 9.4930512967656231e-03
    -5.2846880634459326e-01 8.4802525833324038e-03
    -6.7005939426048999e-01 8.0502096895413173e-03
    -7.9509993588603500e-01 7.8556139177977224e-03
    -9.4516312525052171e-01 7.8501480558542495e-03
    -1.0431851677040120e+00 7.9576184514497245e-03
    -1.1860774262319254e+00 8.0781134463101603e-03
    -1.2765694770084508e+00 8.1080277390810033e-03
    -1.2958569685805872e+00 8.1400156040260241e-03
    -1.3155870289605440e+00 8.2491395323092652e-03
    -1.3776643944275648e+00 8.2491395323092652e-03
    -1.3776643944275648e+00 8.2901734757753667e-03
    -1.3994046353122220e+00 8.2104932447040757e-03
    -1.3564659966250536e+00 8.1741457981778960e-03
    -1.3357820651177328e+00 8.2901734757753667e-03
    -1.3994046353122220e+00 8.0502096895413173e-03
    -1.2577035349470009e+00 8.0781134463101603e-03
    -1.2765694770084508e+00 8.0002079033630602e-03
    -1.2211584951084107e+00 7.8556139177977206e-03
    -1.0580184237878971e+00 7.8556139177977206e-03
    -1.0580184237878971e+00 7.8934042208998485e-03
    -8.9301083668138070e-01 8.0002079033630602e-03
    -8.1889452024916964e-01 8.1400156040260224e-03
    -7.6011695006609192e-01 8.7861223783379343e-03
    -6.1533793698993489e-01 8.7861223783379343e-03
    -6.1533793698993489e-01 9.0145485264530398e-03
    -5.8277151741435851e-01 1.2758531022291875e-02
    -3.4367169831173539e-01 1.5327142612543452e-02
    -2.7524094128159016e-01 2.1276631809004621e-02
    -1.9104017997521755e-01 3.3278914220683117e-02
    -1.1952286093343936e-01 1. 0. 4.6896303055468901e-02
    -8.4215192106651904e-02 1. 0. 1. 0. 2.7269685951436716e-02
    -1.4691063206231753e-01 1.9494095287448762e-02
    -2.1004201260420147e-01 1.6095374597702619e-02
    -2.6013299085723601e-01 1.5327142612543452e-02
    -2.7524094128159016e-01 1.5327142612543452e-02
    -2.7524094128159016e-01 1.4669529119192977e-02
    -2.8977485337560777e-01 1.2080049023627129e-02
    -3.6878177829171555e-01 1.0139872527799082e-02
    -4.7343207647399937e-01 9.0145485264530398e-03
    -5.8277151741435851e-01 8.2491395323092652e-03
    -7.2586618631129773e-01 8.0781134463101603e-03
    -7.8334945180064020e-01 7.9780090410488131e-03
    -8.3094896983881650e-01 8.0002079033630602e-03
    -8.1889452024916964e-01 7.8556139177977224e-03
    -9.4516312525052171e-01 7.8556139177977206e-03
    -1.0580184237878971e+00 7.9389965381110334e-03
    -1.1690451944500122e+00 7.9221076036911659e-03
    -1.1523319193960637e+00 7.9069196532434508e-03
    -1.1359236684941296e+00 7.9389965381110334e-03
    -1.1690451944500122e+00 7.9576184514497245e-03
    -1.1860774262319254e+00 7.9221076036911659e-03
    -1.1523319193960637e+00 7.9069196532434508e-03
    -1.1359236684941296e+00 7.9221076036911659e-03
    -1.1523319193960637e+00 7.8712938014989155e-03
    -1.0884003788199381e+00 7.8462508466303656e-03
    -9.7221678624268515e-01 7.9221076036911676e-03
    -8.6780551954518392e-01 8.0242587562746447e-03
    -8.0694658478592907e-01 8.1741457981778978e-03
    -7.4862511341763072e-01 8.3797995775388382e-03
    -6.9221865524317305e-01 8.5348587662459879e-03
    -6.5904736881610748e-01 8.5925787037713936e-03
    -6.4807406984078608e-01 1.1519106876210314e-02
    -3.9302868179745754e-01 1.3598206519957178e-02
    -3.1745108882857781e-01 1.4669529119192977e-02
    -2.8977485337560777e-01 3.3278914220683117e-02
    -1.1952286093343936e-01 1. 0. 1. 0. 4.6896303055468901e-02
    -8.4215192106651904e-02 1. 0. 1. 0. 1. 0. 3.3278914220683117e-02
    -1.1952286093343936e-01 1.9494095287448762e-02
    -2.1004201260420147e-01 2.1276631809004621e-02
    -1.9104017997521755e-01 1.7007903037838570e-02
    -2.4433888871261045e-01 1.6095374597702619e-02
    -2.6013299085723601e-01 1.6095374597702619e-02
    -2.6013299085723601e-01 1.3598206519957178e-02
    -3.1745108882857781e-01 1.0464091762392323e-02
    -4.5098761680169730e-01 1.0139872527799082e-02
    -4.7343207647399937e-01 8.3797995775388382e-03
    -6.9221865524317305e-01 8.0242587562746447e-03
    -8.0694658478592907e-01 8.0502096895413173e-03
    -7.9509993588603500e-01 8.0242587562746447e-03
    -8.0694658478592907e-01 7.8501480558542478e-03
    -9.5860258653882158e-01 7.8556139177977224e-03
    -9.4516312525052171e-01 7.8626582598957367e-03
    -9.3189111629609322e-01 7.8462508466303656e-03
    -1.0285771796480583e+00 7.8439153053234869e-03
    -9.8601329718326924e-01 7.8556139177977224e-03
    -9.4516312525052171e-01 7.8462508466303656e-03
    -1.0285771796480583e+00 7.8462508466303656e-03
    -1.0285771796480583e+00 7.8439153053234869e-03
    -1.0141851056742199e+00 7.9221076036911676e-03
    -8.6780551954518392e-01 8.0781134463101603e-03
    -7.8334945180064020e-01 8.4802525833324038e-03
    -6.7005939426048999e-01 8.4802525833324038e-03
    -6.7005939426048999e-01 8.7180244445187495e-03
    -6.2622429108514965e-01 9.0145485264530398e-03
    -5.8277151741435851e-01 9.8563637458313723e-03
    -4.9559462778335212e-01 1.2080049023627129e-02
    -3.6878177829171555e-01 1.2402319069138648e-02
    -3.5634832254989918e-01 1.4098920600576536e-02
    -3.0382181012510001e-01 2.3701652425047511e-02
    -1.7025130615174974e-01 3.3278914220683117e-02
    -1.1952286093343936e-01 1. 0. 1. 0. 4.6896303055468901e-02
    -8.4215192106651904e-02 1. 0. 1. 0. 1. 0. 3.3278914220683117e-02
    -1.1952286093343936e-01 2.3701652425047511e-02
    -1.7025130615174974e-01 2.3701652425047511e-02
    -1.7025130615174974e-01 2.3701652425047511e-02
    -1.7025130615174974e-01 1.9494095287448762e-02
    -2.1004201260420147e-01 2.3701652425047511e-02
    -1.7025130615174974e-01 1.9494095287448762e-02
    -2.1004201260420147e-01 1.4669529119192977e-02
    -2.8977485337560777e-01 1.3598206519957178e-02
    -3.1745108882857781e-01 1.2402319069138648e-02
    -3.5634832254989918e-01 1.0644144586834148e-02
    -4.3963315494212873e-01 9.0995989711679676e-03
    -5.7192901984277544e-01 8.7861223783379343e-03
    -6.1533793698993489e-01 8.7861223783379343e-03
    -6.1533793698993489e-01 8.7180244445187495e-03
    -6.2622429108514965e-01 8.7180244445187495e-03
    -6.2622429108514965e-01 8.1400156040260224e-03
    -7.6011695006609192e-01 8.2104932447040757e-03
    -7.3720978077448562e-01 8.1080277390810033e-03
    -7.7169010488506873e-01 8.0502096895413173e-03
    -7.9509993588603500e-01 8.0242587562746447e-03
    -8.0694658478592907e-01 8.2901734757753667e-03
    -7.1458960101049640e-01 8.4286115692134619e-03
    -6.8111491377974986e-01 8.8580819943686710e-03
    -6.0447052482698882e-01 9.2849152726491527e-03
    -5.5022930999537056e-01 9.0995989711679676e-03
    -5.7192901984277544e-01 9.4930512967656231e-03
    -5.2846880634459326e-01 1.4098920600576536e-02
    -3.0382181012510001e-01 1.2402319069138648e-02
    -3.5634832254989918e-01 1.5327142612543452e-02
    -2.7524094128159016e-01 1.6095374597702619e-02
    -2.6013299085723601e-01 1.7007903037838570e-02
    -2.4433888871261045e-01 3.3278914220683117e-02
    -1.1952286093343936e-01 1. 0. 1. 0. 1. 0.</input_scale>
  <output_scale>
    1.0526315789473684e+00 0.</output_scale>
  <inv_output_scale>
    9.4999999999999996e-01 0.</inv_output_scale>
  <weights>
    <_>
      1.9591144072373959e-01 4.7217302297673416e-02
      3.3439415296767049e-02 2.2479695252708775e-02
      -3.4325158402265125e-02 1.4857385009333115e-02
      -2.0131523268418050e-02 -3.9006271781265214e-02
      -9.0511307441781610e-03 6.0377309976401207e-02
      1.8974760069244985e-02 3.6198844915971036e-02
      2.1036587169274316e-02 -2.5320897128351474e-02
      -5.9930660983996175e-03 1.7633791333868321e-02
      -7.6781738766430775e-03 3.3012845361380903e-02
      -5.9336743868687217e-02 6.0724123071639706e-02
      -3.4648007906936867e-02 1.0586656987741978e-02
      7.6411919523188161e-03 3.5289142484220548e-02
      1.7254743744756964e-02 -1.0674682216552888e-02
      5.0250453791792764e-02 -5.2831582646484306e-02
      2.2902248511870969e-02 1.8754620604793659e-02
      -3.5147099396053143e-02 -4.9127821341546245e-02
      6.3152860587138954e-02 2.3983970819901959e-02
      2.8169131319052819e-02 1.1464809301434446e-02
      3.3901356183072474e-02 2.4344103020494747e-02
      -3.9730176901972607e-02 -3.3514387509798328e-02
      4.2912333455326787e-02 1.1580951739340761e-02
      1.1234956640106486e-02 1.4112591057810603e-03
      -1.2369612528019406e-02 -4.0267346798986327e-03
      -1.9315433239085456e-03 -1.1417596404715210e-02
      4.3976468084434206e-03 1.1242977638285334e-02
      -3.0132155380934697e-04 1.2848057251055974e-02
      6.6838690482354376e-04 -7.7976693936022958e-03
      3.0007085102797641e-03 -4.3402811177398079e-04
      3.6615880604639012e-03 1.0247421568887444e-02
      -1.3300062452485608e-02 1.3251568779341073e-02
      -1.0830165909576120e-02 -2.3831972568090984e-03
      -3.4754928856297928e-03 1.2899086323576841e-02
      -7.4125699681764962e-04 2.4314758688961120e-03
      1.3477123615267369e-02 -1.2410370136877576e-02
      2.4030230890631226e-03 -1.2657090494243655e-03
      -1.1922409041465512e-02 -1.4178225075593364e-02
      1.1361882448594273e-02 3.9298939295715823e-03
      8.7242443785956834e-03 -3.2374505198543226e-03
      1.2193752395758655e-02 6.4588399187614619e-03
      -1.3342864288502360e-02 -1.2067463860726470e-02
      8.9244909027304253e-02 1.1693380145639797e-02
      1.1611335808057668e-02 8.9967746892849025e-03
      -1.1459681213073674e-02 9.3263012933955235e-03
      -9.7509573553513883e-03 -9.9098388392936613e-03
      -6.5226328889430203e-03 1.1475958486617812e-02
      8.8167430950380349e-03 9.1003073195897229e-03
      1.0389761197038272e-02 -6.8779561239027953e-03
      -4.5892756166159799e-03 8.7264921181974403e-03
      -5.4129821326750196e-03 8.7855932039472406e-03
      -1.3272749200222214e-02 1.3093403210127804e-02
      -8.4207253011248755e-03 8.1009226275083040e-03
      5.2427862815197512e-03 1.2686430712945968e-02
      9.2725082964921404e-03 -5.6667556643776153e-03
      1.3189914233453925e-02 -1.2507760726556487e-02
      1.0642517983074053e-02 9.2714829383801801e-03
      -1.0982758436350274e-02 -1.5182275153717572e-02
      1.1523907085611820e-02 8.2019948407553098e-03
      7.3959492744461062e-03 8.2333240185054734e-03
      1.0279129707501795e-02 7.6275850400493042e-03
      -1.3599390612216737e-02 -1.1042581859798147e-02
      3.9416185911351438e-02 1.2687340079972192e-02
      1.2319058088011247e-02 2.3796762713111687e-03
      -1.1360117364007043e-02 -3.8849324913515495e-03
      -4.9043419294749336e-04 -1.2324697741060993e-02
      4.2442863417647180e-03 1.1542041648911606e-02
      9.4975061954490710e-04 1.2298425945239302e-02
      9.9251271447617969e-04 -8.5016875158728453e-03
      3.3077834138330714e-03 -2.1376372588203084e-04
      4.7049674074956596e-03 1.0512025406038796e-02
      -1.3230195942768344e-02 1.1365321853314108e-02
      -1.0564704540385727e-02 -4.2557770886845698e-03
      -2.9424616314398964e-03 1.1565605856459129e-02
      4.2998578703451706e-04 4.0320498871387906e-03
      1.3087313202885786e-02 -1.2530196083415254e-02
      3.6817917144539854e-03 8.2172760847034083e-05
      -1.1386471732095981e-02 -1.3535888875008268e-02
      1.3638528396133522e-02 3.1544378067945569e-03
      9.0482659271797893e-03 -3.4970455736165309e-03
      1.2259109645070366e-02 7.5564639730170873e-03
      -1.1695359222202653e-02 -1.2243442370162741e-02
      7.6792128537373156e-04 3.9113966154086634e-04
      1.0223290973327929e-04 -7.4051485516200854e-04
      -1.0613465030639344e-03 1.2195734907036050e-03
      7.8348237475296342e-04 6.2273781643240763e-04
      -6.8533836696241007e-04 -5.6083736816806462e-04
      1.9154761838263633e-04 -5.4979385448701730e-04
      8.3192936768511632e-04 -5.4251001121607728e-04
      -9.5949344330447761e-04 -8.2391837064399703e-04
      9.9710439467748358e-04 2.3306896178115530e-04
      7.2939638117246631e-04 -7.0924623867844069e-04
      -8.1654930446447226e-04 -3.5859610113503105e-04
      -9.0056365953744696e-04 7.2327842410388086e-04
      9.9368987839671113e-04 6.7204190186007920e-04
      -9.6018195820310795e-04 1.1309850430212796e-03
      -1.2108542536666820e-03 -1.2192476459423629e-04
      1.1874979022113809e-03 1.1181620405702841e-03
      -1.1762246172103261e-03 -3.1067637113254138e-04
      -1.0466778412739374e-03 8.7273754851174812e-04
      -1.6315578044241819e-04 9.8650727645104995e-04
      -2.6554248025771376e-04 5.6806831594354706e-04
      1.1936854513403968e-03 -9.7985299091219629e-04
      9.5299997988754779e-04 -1.1058620135187077e-04
      8.2739715686127774e-05 -1.2982753208899678e-04
      2.7265431118780485e-04 1.6522723830615326e-04
      -5.3247321664021130e-04 -3.4666311617651186e-04
      -1.0490767123061790e-03 -9.5807283833550076e-04
      1.0258043785471233e-03 -9.4870741011722861e-04
      6.4008382825744012e-04 -3.6562015021120744e-04
      2.9736090753866085e-04 -1.1645249205592084e-03
      -1.1942211337740234e-03 -8.6104032702435940e-04
      -8.0696502597657363e-04 1.0319883860130696e-03
      5.2700750202510011e-04 8.3612265018103598e-04
      -9.9670973543749576e-04 -2.3272534041554502e-05
      6.4139057102730621e-04 3.7459591871464844e-04
      -7.1691755580176721e-04 1.5291014943650730e-04
      5.4051425519736570e-04 1.0194950219548902e-03
      3.0081275546891325e-04 5.8834438890964340e-04
      1.6306369467748052e-04 7.7891127957786213e-04
      6.1573715273536005e-04 9.7330054844149987e-04
      7.9010807593027301e-04 -8.5758423904020592e-04
      2.1417132932911455e-04 -4.4589068887066364e-04
      1.0531673992642304e-03 7.0344106791488939e-04
      -1.2221909087404568e-03 -5.2110462328643547e-04
      -6.6090793352329108e-04 -1.2487154519535092e-03
      7.8983116539177900e-04 3.6349600499168761e-04
      -3.2422762477708235e-04 4.1901243388493408e-04
      -1.5051485239619305e-04 3.6912922873491875e-04
      5.6773945685285930e-04 9.1961652954561152e-04
      -9.8217938047836096e-04 -1.1970159940137759e-03
      -5.3924562759331861e-04 8.9887411077465434e-04
      -7.0579574587044370e-05 1.1142487605087985e-03
      9.8500512045425633e-04 -4.9897621598470846e-04
      -1.0600403586221406e-03 1.1432539274522358e-03
      1.2253049148512927e-04 1.1305370848161741e-03
      -6.5728282982254285e-04 4.0059460311130991e-04
      9.2982881932916089e-04 6.1660478295609122e-04
      4.1214060191835801e-04 -7.7914438015144359e-04
      8.3075770514120281e-04 1.1795181362592481e-03
      -4.8608309140902954e-04 8.5282263176968077e-04
      -7.5689017161771231e-04 4.8027403922400396e-05
      4.0772759036874194e-04 -4.6343371663136348e-04
      -1.1754081326732825e-03 -5.8776074558593153e-04
      -1.1035781485130803e-03 1.0393442879559069e-03
      9.2847474462864649e-04 8.7719200381428198e-05
      1.1913575355020343e-03 1.0054269022835937e-04
      1.1669726138403044e-03 1.1749618114607111e-03
      -1.0966327674677349e-03 8.9748950716925192e-04
      7.5339654422948161e-04 -8.4335389700268364e-04
      -1.2083424179383251e-03 1.7768227828752472e-04
      -8.2449815704757005e-04 5.3597591412867180e-04
      3.6751369207797856e-04 -5.2179094428158918e-04
      6.2850188883509055e-04 5.9739719318230094e-04
      4.0586548730337238e-05 -1.0767739828352865e-03
      -1.1103604571571129e-03 -6.6534843286577216e-04
      6.4544791569169071e-04 -4.0283631637491260e-05
      -8.0636975642904422e-04 -5.3570582811193366e-04
      7.0260910942869514e-04 -4.0772227051692273e-04
      1.1259865829144567e-04 8.5420735837199284e-04
      8.0691184894229016e-04 -3.7169358946951214e-04
      1.1827157925115568e-03 4.6458360406528642e-04
      -2.3538551820703559e-04 1.0107257608172708e-03
      -5.3371785550389129e-05 8.5173649159594089e-04
      -8.2208636045729875e-04 7.8664292837959005e-04
      -1.0251158980695235e-03 -7.9311856264897829e-04
      -1.8163095432784354e-04 -4.5424165104865669e-04
      -6.9052668885513137e-04 2.7231331035164569e-04
      -1.9745137864939894e-04 -1.2042033415002819e-03
      -4.2370114326528349e-04 -7.5168354486649682e-04
      -1.3905973578284657e-04 -7.2876993766243629e-04
      -9.2233844057529519e-04 -3.1230652460768221e-04
      3.8682755087121688e-04 -9.7104749970257148e-04
      1.1666798307014394e-03 -1.1962887872014325e-03
      -4.7912170696350618e-04 -5.0874273811125339e-04
      8.2933218361980242e-04 -9.1330048336895204e-05
      -1.2024103339129907e-03 1.0902279747378807e-03
      -4.0142924393772806e-04 -1.1171570016267332e-04
      -7.5476455515840406e-04 1.2728724643889733e-05
      -7.2074093756452134e-04 3.3350261602016387e-05
      9.8082535511594062e-04 -6.3964684043723338e-04
      -1.0681281367440597e-03 9.9871683141229532e-04
      3.7352005552683309e-04 -7.9216785643224975e-04
      4.5735486136197723e-04 -6.9156030785048959e-04
      -3.8296215620829834e-04 2.6369489559906249e-04
      -1.2327892210067272e-04 -5.4445116755477902e-04
      -1.1736328915703412e-03 4.8101356643178675e-04
      1.6719124618846644e-04 9.5638603750570399e-04
      -7.9098778333172104e-04 6.9115518188143401e-04
      1.2212955201118506e-03 -8.5916110568997901e-04
      5.3471275473238001e-04 1.1398474865322427e-03
      -3.4947193977220350e-05 8.1121823158411955e-04
      4.5050130443821571e-06 3.6721477247891301e-04
      -1.2144827087108507e-03 -4.8655677123171851e-05
      1.1363885740853200e-03 5.4543291118360968e-04
      -2.2040082782885014e-05 6.3498327426502724e-04
      -6.1081949551003976e-04 2.3331765943376698e-04
      2.3438551184871596e-04 -6.3776585872519641e-04
      -6.0735761181714956e-05 1.1881812765078172e-04
      -1.9249960827784670e-05 -1.1849136417444450e-03
      6.4690445170128576e-04 7.3716294079696374e-04
      -9.0972007357457702e-04 -2.8420634244279538e-04
      7.6745281578759761e-02 1.6639768292495530e-02
      1.6875208831404486e-02 3.6699429373887467e-03
      -1.5618373104721233e-02 4.3683452332359419e-04
      -3.9101032966761696e-03 -1.6463119363849962e-02
      2.3376011370381429e-03 1.5059320330347646e-02
      3.4774146409591732e-03 1.5299843666344485e-02
      3.2776479814013285e-03 -9.9317064354823154e-03
      1.6381688260248689e-03 6.5077006490886643e-04
      1.2210993257352205e-03 1.2093802166560853e-02
      -1.6609528673961066e-02 1.4543532151073832e-02
      -1.5763438057336970e-02 -8.1262980022087702e-05
      -5.5922288070772762e-04 1.7130403625247988e-02
      1.3057410192075815e-03 2.0318502426992444e-03
      1.8412571222308039e-02 -1.5632989521245855e-02
      3.0769099584672748e-03 1.9334146604111390e-03
      -1.7329311622640540e-02 -2.0408225990643902e-02
      1.4865551283647985e-02 4.2547209715819477e-03
      1.0566192651096578e-02 -1.8470531724797516e-03
      1.6836435369270701e-02 9.6369164739217583e-03
      -1.8540316287305677e-02 -1.5738489248029210e-02
      3.2144207142500347e-01 5.7204831414799574e-02
      3.9497145959378512e-02 3.4542626502279433e-02
      -3.6249373599733424e-02 2.2673772390337230e-02
      -3.3567221835692287e-02 -3.3669499380492615e-02
      -1.4490716195375846e-02 3.8043042117349248e-02
      3.2143129986501803e-02 3.2716912456829020e-02
      3.3517895197081114e-02 -2.9399210655497301e-02
      -1.2231768850400060e-02 3.1338887242393393e-02
      -1.6301485135421706e-02 3.1531088092005104e-02
      -3.9522353489224699e-02 4.1273717875447716e-02
      -3.1769574741350844e-02 1.9636059091561554e-02
      1.3836522748994384e-02 4.1326926639273301e-02
      3.0086901616073750e-02 -1.7302788102984988e-02
      4.6762348823706321e-02 -3.9134191458551709e-02
      3.3746905753254945e-02 2.9680645767390598e-02
      -4.0530508074890247e-02 -4.2085398084860351e-02
      4.0797024622606363e-02 3.4516473618915043e-02
      2.9942140706182209e-02 1.7921750300090127e-02
      5.3115032438822971e-02 2.9856849136980838e-02
      -6.0396063163194069e-02 -3.5789888057581778e-02
      1.9408027187373272e-01 2.2679224036254161e-02
      2.2904289811061750e-02 2.1287609600834291e-02
      -2.2843970295390349e-02 1.1687706059458300e-02
      -1.9041792105715098e-02 -2.5023675358580012e-02
      -6.1477825503661442e-03 3.7049124095232325e-02
      1.7370711675679072e-02 2.6064980220418643e-02
      1.8065837764716999e-02 -1.9965374901804080e-02
      -5.3402210165233522e-03 1.7956375287125247e-02
      -8.5764726228352815e-03 2.3174220158895580e-02
      -3.9896853011981093e-02 3.8580981689561172e-02
      -2.3684303260541363e-02 9.0126924569829559e-03
      7.8358556793296959e-03 2.3852526568670197e-02
      1.6016515862939656e-02 -9.3867141763225269e-03
      2.6543179820943640e-02 -3.5031701918607355e-02
      1.9038300554497806e-02 1.7098511871898009e-02
      -2.4868565446022912e-02 -3.2912516994374343e-02
      3.9959788691507021e-02 2.0217851162541864e-02
      2.0817200502960820e-02 8.9977560983485003e-03
      2.0953839057580342e-02 1.9891064907067442e-02
      -2.3990566421867265e-02 -2.3714830993591587e-02
      -4.4529976885055028e-01 2.6818069584606606e-02
      3.9806599907400722e-02 1.3973478366917019e-02
      -4.1543219306343214e-02 5.7271892147109666e-03
      -1.3180759404836881e-02 -4.6794102591155004e-02
      2.7403623877287595e-04 5.8470041168407524e-02
      1.1539144930511665e-02 4.5126846937386861e-02
      1.3440047594529152e-02 -3.4318777630573137e-02
      3.3218027736346147e-03 1.0158177175833153e-02
      -1.1793277991122165e-03 4.0832151947283540e-02
      -6.1850384339123175e-02 6.1728204432833472e-02
      -4.5330715043710890e-02 3.9979308566091831e-03
      -6.4668073732441654e-04 2.7290578751857669e-02
      1.0490395813767889e-02 -2.2521037692257045e-03
      5.0116162774281263e-02 -5.9537392184645203e-02
      1.3092563060415393e-02 1.0906008936061130e-02
      -4.2052881226883929e-02 -5.6818092510018237e-02
      6.1129020235335396e-02 1.5347058675715121e-02
      3.6268792592226116e-02 2.1072313753047003e-03
      2.4505988056349771e-02 1.5508802773973991e-02
      -2.8350513817603323e-02 -3.7829958020511971e-02
      4.6257108035914757e-01 5.7953804236998953e-02
      4.4093508240905639e-02 5.2008894078129621e-02
      -4.4937521142558050e-02 3.5357262693507335e-02
      -4.8290325226764706e-02 -5.7815458223564056e-02
      -2.1557640364859337e-02 7.3077897450350954e-02
      4.7151246844260024e-02 5.5061117677522892e-02
      4.9144558261858602e-02 -4.6899255175493253e-02
      -1.8315991712971755e-02 4.4298766214311620e-02
      -2.3845646909186252e-02 5.2771880697585524e-02
      -7.4143355020428667e-02 7.5487005879321029e-02
      -5.3361563124816193e-02 2.9048734472049174e-02
      2.3050140758646167e-02 4.7249977105026243e-02
      4.3273855301437673e-02 -2.6800798747777969e-02
      5.1967508984944878e-02 -7.4244511819491515e-02
      4.8354970264631876e-02 4.4844798598478126e-02
      -4.6862177976075947e-02 -6.9480010471311165e-02
      7.5587775753145667e-02 5.2094278159274206e-02
      4.9414242934857106e-02 2.6326689937757119e-02
      5.4688852082229011e-02 5.0226121471721279e-02
      -6.3160649193669288e-02 -4.4360801174496409e-02
      2.3699325735780705e-01 -1.5462972138326066e-02
      -5.6005782531366941e-03 3.0384665994643668e-02
      -1.1384301544513854e-03 2.3745886394690528e-02
      -2.9957087019547680e-02 -2.4821530415871051e-02
      -1.6387936842058051e-02 -2.6741245833212315e-03
      2.9554399909703669e-02 1.9735550350214778e-02
      3.0652918003838771e-02 -2.4467903160605167e-02
      -1.1946456350662641e-02 2.7583832795379560e-02
      -1.6320286491086744e-02 2.3731634422818105e-02
      -3.4311825977888732e-04 -8.8333995820543678e-04
      -2.2609844381459396e-02 2.0645109930129947e-02
      1.5090543525299132e-02 -4.5178059088441325e-03
      2.7110735218519907e-02 -1.9168348619663569e-02
      -1.3866526449579758e-02 -4.8185080919555708e-03
      3.0524502869237864e-02 2.7851945651942874e-02
      7.0689443074382213e-03 -7.2769078516281786e-03
      -1.8983792495878826e-03 3.0572864603590651e-02
      2.2804357801173552e-02 1.7889598772624006e-02
      -2.8110154790278400e-03 2.6850946599984223e-02
      6.4035878447834928e-03 2.8768006153996576e-03
      1.1798324359727203e-01 -5.8596929822822365e-02
      -4.9977838100962547e-02 1.0165206264829115e-02
      4.1619498858411479e-02 1.4231918463919193e-02
      -1.0908361541334472e-02 2.4054625179466115e-02
      -1.4896892597761552e-02 -3.9700462222984720e-02
      1.0465369896163238e-02 -2.4385563496707074e-02
      1.1647126867799720e-02 1.1191013852332336e-02
      -1.4198282127114702e-02 1.3537382165688550e-02
      -1.4541104645011406e-02 -1.6862142163478207e-02
      3.6849163795459841e-02 -3.4653878028559862e-02
      2.2552050098324294e-02 1.4377602031721993e-02
      1.4300161667756559e-02 -4.9993546248815128e-02
      1.2704957522356510e-02 -1.6493070649070248e-02
      -7.4150445111710026e-02 2.9425223013639527e-02
      7.8989899258195342e-03 1.3325304089894480e-02
      5.7295227822234437e-02 2.4903677096099194e-02
      -3.8417484790862336e-02 6.7094086063455138e-03
      -1.3032974393130380e-02 1.5197229359102522e-02
      -4.5762006680331591e-02 -4.5779488782154744e-03
      5.4384867523718981e-02 4.5379583106774764e-02
      3.5500704253308402e-01 5.8391914301045046e-02
      4.4566962987595167e-02 3.7201205420299789e-02
      -4.1658272690386695e-02 2.2874184182640506e-02
      -3.4697881950452029e-02 -5.1236389783662718e-02
      -1.4605752361722353e-02 6.5223938745767596e-02
      3.3255842157995916e-02 4.5683876386108449e-02
      3.5286057395576567e-02 -3.8796056192100054e-02
      -9.9891803775541740e-03 3.1284680090289632e-02
      -1.4856586852766826e-02 4.6310919827863749e-02
      -6.8458908692908035e-02 7.0061071871432332e-02
      -4.5306115503929476e-02 2.0354196451029177e-02
      1.3263701731608570e-02 4.6555509024169321e-02
      3.0504648037580274e-02 -1.7138102028856569e-02
      5.4317323438697315e-02 -6.5927701917246243e-02
      3.7124412358861505e-02 3.1179710920707461e-02
      -4.6567893265347139e-02 -6.5720534541599124e-02
      6.9460100310357431e-02 3.8544994550687418e-02
      4.2203264477849993e-02 1.9295646421485006e-02
      4.8274062813687256e-02 3.9211856108073824e-02
      -5.1178368513416672e-02 -4.1782300384528306e-02
      -2.5088090355608267e-01 -6.2964785649956154e-02
      -8.2522865906002080e-02 -1.9768570051825324e-02
      7.6413480089771224e-02 -8.6731263782299419e-03
      1.8387184602375886e-02 4.9526335728653489e-02
      2.0745856828307471e-03 -6.6343004051045304e-02
      -1.5602099199450877e-02 -5.2669640642069221e-02
      -1.7121979163349645e-02 3.2456880938455716e-02
      7.3670927487992134e-04 -1.4009005791264927e-02
      3.6349135799943824e-03 -4.0750787775745326e-02
      7.4041463354386841e-02 -7.3369849728619096e-02
      4.7542614592952594e-02 -4.8871346581351362e-03
      -3.5588762162550970e-03 -8.1581158929731779e-02
      -1.5099995385815093e-02 3.7139657189086345e-03
      -9.4265198902410599e-02 7.0144400406757221e-02
      -2.0115980334696047e-02 -1.5935714917370107e-02
      8.6692305804008593e-02 7.5834402914835952e-02
      -7.5180666392300546e-02 -2.3941936884903925e-02
      -3.6660416828887731e-02 -5.3953859069824387e-03
      -7.4140030260847936e-02 -2.8381683295825508e-02
      8.2819050302647843e-02 7.8327446642986034e-02
      -2.1391990989145146e-01 -4.8890661955889585e-02
      -5.1311952373340172e-02 -4.0804534534090171e-02
      5.6110458478498430e-02 -1.8394245652353997e-02
      3.6420809321217579e-02 7.9508085725239652e-02
      9.0649547411996625e-03 -1.4609682077141301e-01
      -3.4914762679952506e-02 -7.4361665512401739e-02
      -3.5017824421956695e-02 5.4836460431650913e-02
      5.4359544200140398e-03 -3.0361911007830138e-02
      8.7124205581386744e-03 -6.6563872683970363e-02
      1.5370336527560283e-01 -1.5015434947832049e-01
      7.0301676048554182e-02 -1.5419270677100319e-02
