<?xml version="1.0"?>
<opencv_storage>
<shapeML type_id="opencv-ml-ann-mlp">
  <layer_sizes type_id="opencv-matrix">
    <rows>1</rows>
    <cols>3</cols>
    <dt>i</dt>
    <data>
      1600 40 1</data></layer_sizes>
  <activation_function>SIGMOID_SYM</activation_function>
  <f_param1>5.9999999999999998e-01</f_param1>
  <f_param2>1.</f_param2>
  <min_val>-9.4999999999999996e-01</min_val>
  <max_val>9.4999999999999996e-01</max_val>
  <min_val1>-9.7999999999999998e-01</min_val1>
  <max_val1>9.7999999999999998e-01</max_val1>
  <training_params>
    <train_method>BACKPROP</train_method>
    <dw_scale>1.0000000000000001e-01</dw_scale>
    <moment_scale>1.0000000000000001e-01</moment_scale>
    <term_criteria><epsilon>9.9999999747524271e-07</epsilon>
      <iterations>4000</iterations></term_criteria></training_params>
  <input_scale>
    3.9543084336243470e-02 -1.0016708449412667e-01
    6.8262708292815277e-02 -5.7639041770423498e-02
    6.8262708292815277e-02 -5.7639041770423498e-02
    4.8349405380426133e-02 -8.1649658092772609e-02
    6.8262708292815277e-02 -5.7639041770423498e-02
    3.9543084336243470e-02 -1.0016708449412667e-01
    3.4302726039563657e-02 -1.1585688927269844e-01
    2.6061939634699959e-02 -1.5404159684748153e-01
    2.1916708772517331e-02 -1.8505830254940131e-01
    2.0075997852302425e-02 -2.0341905108624311e-01
    1.8050123787121852e-02 -2.2861497842960624e-01
    1.8050123787121852e-02 -2.2861497842960624e-01
    1.8651188047187357e-02 -2.2047927592204922e-01
    1.7507484665559115e-02 -2.3652495839563306e-01
    1.7507484665559115e-02 -2.3652495839563306e-01
    1.6564233346771248e-02 -2.5175440748900674e-01
    1.5089554099427737e-02 -2.8030595529069408e-01
    1.3110573305544548e-02 -3.3210558207753577e-01
    1.2921153034336899e-02 -3.3821759846501054e-01
    1.1448657957572153e-02 -3.9634344021992335e-01
    1.0387118503165600e-02 -4.5607017003965516e-01
    1.1115540139462740e-02 -4.1296808067805285e-01
    1.1448657957572153e-02 -3.9634344021992335e-01
    1.1824233592006041e-02 -3.7939345531966401e-01
    1.3744170483299543e-02 -3.1333978072025609e-01
    1.7014526667715805e-02 -2.4423169902168218e-01
    1.6150900599579864e-02 -2.5910964703630607e-01
    1.7014526667715805e-02 -2.4423169902168218e-01
    2.0075997852302425e-02 -2.0341905108624311e-01
    2.0075997852302425e-02 -2.0341905108624311e-01
    2.4420137436311905e-02 -1.6495721976846453e-01
    3.9543084336243470e-02 -1.0016708449412667e-01
    3.4302726039563657e-02 -1.1585688927269844e-01
    4.8349405380426133e-02 -8.1649658092772609e-02
    3.9543084336243470e-02 -1.0016708449412667e-01
    6.8262708292815277e-02 -5.7639041770423498e-02
    4.8349405380426133e-02 -8.1649658092772609e-02
    6.8262708292815277e-02 -5.7639041770423498e-02 1. 0. 1. 0.
    3.9543084336243470e-02 -1.0016708449412667e-01 1. 0. 1. 0.
    4.8349405380426133e-02 -8.1649658092772609e-02
    6.8262708292815277e-02 -5.7639041770423498e-02
    3.0732899495003914e-02 -1.2974982402692051e-01
    2.8102521050711243e-02 -1.4237369936287483e-01
    2.0932636189741304e-02 -1.9442398845107403e-01
    1.6564233346771248e-02 -2.5175440748900674e-01
    1.4784299193103773e-02 -2.8711892307136960e-01
    1.4499023164320227e-02 -2.9382126412463505e-01
    1.3980591541594653e-02 -3.0692490702242570e-01
    1.3744170483299543e-02 -3.1333978072025609e-01
    1.1960324519398656e-02 -3.7366113192227257e-01
    1.0550705236281328e-02 -4.4543540318737396e-01
    9.4894008682446674e-03 -5.2882985633297275e-01
    9.1598337489855516e-03 -5.6460365972637760e-01
    8.8517291410407997e-03 -6.0540551459668124e-01
    8.6594020929601761e-03 -6.3612197163020368e-01
    8.7202198188179071e-03 -6.2586345885058992e-01
    8.7842696520755558e-03 -6.1562605028536133e-01
    8.8517291410407997e-03 -6.0540551459668124e-01
    8.8867974513075782e-03 -6.0030022518766424e-01
    8.9976716577282768e-03 -5.8499762582614145e-01
    9.1176618044070956e-03 -5.6970290810980762e-01
    1.0233967706163020e-02 -4.6662826262869134e-01
    1.0550705236281328e-02 -4.4543540318737396e-01
    1.1824233592006041e-02 -3.7939345531966401e-01
    1.4231703056790990e-02 -3.0042088406305484e-01
    1.5769837222546556e-02 -2.6631182064565373e-01
    1.9321736938871879e-02 -2.1209125149788172e-01
    2.1916708772517331e-02 -1.8505830254940131e-01
    2.8102521050711243e-02 -1.4237369936287483e-01
    2.8102521050711243e-02 -1.4237369936287483e-01
    3.4302726039563657e-02 -1.1585688927269844e-01
    3.4302726039563657e-02 -1.1585688927269844e-01
    4.8349405380426133e-02 -8.1649658092772609e-02
    4.8349405380426133e-02 -8.1649658092772609e-02 1. 0. 1. 0.
    4.8349405380426133e-02 -8.1649658092772609e-02
    6.8262708292815277e-02 -5.7639041770423498e-02
    6.8262708292815277e-02 -5.7639041770423498e-02
    4.8349405380426133e-02 -8.1649658092772609e-02
    3.4302726039563657e-02 -1.1585688927269844e-01
    2.1916708772517331e-02 -1.8505830254940131e-01
    1.9321736938871879e-02 -2.1209125149788172e-01
    1.7014526667715805e-02 -2.4423169902168218e-01
    1.4784299193103773e-02 -2.8711892307136960e-01
    1.2741187043078866e-02 -3.4426518632954817e-01
    1.2251157119368477e-02 -3.6205820294822399e-01
    1.0550705236281328e-02 -4.4543540318737396e-01
    9.3403737931246292e-03 -5.4418502281466175e-01
    8.9227923313431722e-03 -5.9519752157254369e-01
    8.6594020929601761e-03 -6.3612197163020368e-01
    8.3760380386262087e-03 -6.9310328008367195e-01
    8.3985432851639112e-03 -6.8787406675009721e-01
    8.2531074190242294e-03 -7.2474307533947868e-01
    8.2345334849928554e-03 -7.3006501344597252e-01
    8.1337082307961425e-03 -7.6233315057180395e-01
    8.1185963787420920e-03 -7.6777189594991435e-01
    8.1653510144374698e-03 -7.5150970677579298e-01
    8.1337082307961425e-03 -7.6233315057180395e-01
    8.0254193910867851e-03 -8.0639520338585591e-01
    8.0897558031197189e-03 -7.7870596422745109e-01
    8.1185963787420920e-03 -7.6777189594991435e-01
    8.4216567374779134e-03 -6.8265614878628911e-01
    9.0766001138150153e-03 -5.7480124892951046e-01
    9.9553802460786347e-03 -4.8754991337583775e-01
    1.1333275426960183e-02 -4.0191847623425020e-01
    1.3980591541594653e-02 -3.0692490702242570e-01
    1.5417144935771756e-02 -2.7337354679158199e-01
    1.7507484665559115e-02 -2.3652495839563306e-01
    1.9321736938871879e-02 -2.1209125149788172e-01
    2.0932636189741304e-02 -1.9442398845107403e-01
    2.3062782199577747e-02 -1.7526187135109578e-01
    2.8102521050711243e-02 -1.4237369936287483e-01
    3.9543084336243470e-02 -1.0016708449412667e-01 1. 0.
    6.8262708292815277e-02 -5.7639041770423498e-02
    4.8349405380426133e-02 -8.1649658092772609e-02
    6.8262708292815277e-02 -5.7639041770423498e-02
    4.8349405380426133e-02 -8.1649658092772609e-02
    4.8349405380426133e-02 -8.1649658092772609e-02
    2.8102521050711243e-02 -1.4237369936287483e-01
    1.9321736938871879e-02 -2.1209125149788172e-01
    1.6564233346771248e-02 -2.5175440748900674e-01
    1.5769837222546556e-02 -2.6631182064565373e-01
    1.3310256968080306e-02 -3.2592500092368831e-01
    1.1012703431425132e-02 -4.1844626448875294e-01
    9.6515604991818590e-03 -5.1341827622303504e-01
    8.6301538859502383e-03 -6.4126044106199787e-01
    8.4453915066567686e-03 -6.7744903724755035e-01
    8.2531074190242294e-03 -7.2474307533947868e-01
    8.1653510144374698e-03 -7.5150970677579298e-01
    8.0760135526625094e-03 -7.8420230937691415e-01
    8.0254193910867851e-03 -8.0639520338585591e-01
    8.0897558031197189e-03 -7.7870596422745109e-01
    7.9357349392405394e-03 -8.5769002787023574e-01
    7.9059731710801433e-03 -8.8117568522701195e-01
    7.8821240272367952e-03 -9.0513927571050357e-01
    7.8723663317123490e-03 -9.1731314971178002e-01
    7.9128523030147484e-03 -8.7526103040466119e-01
    7.9059731710801433e-03 -8.8117568522701195e-01
    7.9128523030147484e-03 -8.7526103040466119e-01
    7.9201036080404942e-03 -8.6937561127994167e-01
    8.0254193910867851e-03 -8.0639520338585591e-01
    8.1653510144374698e-03 -7.5150970677579298e-01
    8.6016537688661139e-03 -6.4640573604111407e-01
    9.0366143135840703e-03 -5.7989928939489821e-01
    9.8284142820297179e-03 -4.9792959773196915e-01
    1.2569952963930672e-02 -3.5025216619694238e-01
    1.4784299193103773e-02 -2.8711892307136960e-01
    1.8651188047187357e-02 -2.2047927592204922e-01
    1.8651188047187357e-02 -2.2047927592204922e-01
    2.0932636189741304e-02 -1.9442398845107403e-01
    2.0075997852302425e-02 -2.0341905108624311e-01
    3.4302726039563657e-02 -1.1585688927269844e-01
    3.9543084336243470e-02 -1.0016708449412667e-01
    4.8349405380426133e-02 -8.1649658092772609e-02
    3.0732899495003914e-02 -1.2974982402692051e-01
    3.9543084336243470e-02 -1.0016708449412667e-01
    3.9543084336243470e-02 -1.0016708449412667e-01
    2.6061939634699959e-02 -1.5404159684748153e-01
    2.4420137436311905e-02 -1.6495721976846453e-01
    1.7507484665559115e-02 -2.3652495839563306e-01
    1.5417144935771756e-02 -2.7337354679158199e-01
    1.2741187043078866e-02 -3.4426518632954817e-01
    1.1333275426960183e-02 -4.0191847623425020e-01
    9.2933811673260799e-03 -5.4929421800255140e-01
    8.4697612471847129e-03 -6.7225224203648204e-01
    8.2918546152246850e-03 -7.1414284285428498e-01
    8.2531074190242294e-03 -7.2474307533947868e-01
    8.0897558031197189e-03 -7.7870596422745109e-01
    7.9620540755588210e-03 -8.4036580681601791e-01
    7.9277300937825208e-03 -8.6351881269859609e-01
    7.8875412351978799e-03 -8.9910134775393047e-01
    7.8723663317123490e-03 -9.1731314971178002e-01
    7.8493362753914442e-03 -9.6102387014105517e-01
    7.8571057605466236e-03 -9.4207218407083859e-01
    7.8474405709950922e-03 -9.6741792204684540e-01
    7.8458905613204930e-03 -9.7385168109635323e-01
    7.8493362753914442e-03 -9.6102387014105517e-01
    7.8821240272367952e-03 -9.0513927571050357e-01
    7.8723663317123490e-03 -9.1731314971178002e-01
    7.8603931440504125e-03 -9.3582925660375027e-01
    7.9059731710801433e-03 -8.8117568522701195e-01
    7.9528933050870866e-03 -8.4611411222664934e-01
    7.9815583199927629e-03 -8.2894561823368551e-01
    8.1337082307961425e-03 -7.6233315057180395e-01
    8.6594020929601761e-03 -6.3612197163020368e-01
    9.3886765512847838e-03 -5.3907169337509320e-01
    1.0818019086377622e-02 -4.2931774420607882e-01
    1.3980591541594653e-02 -3.0692490702242570e-01
    1.5417144935771756e-02 -2.7337354679158199e-01
    1.6564233346771248e-02 -2.5175440748900674e-01
    2.0075997852302425e-02 -2.0341905108624311e-01
    2.4420137436311905e-02 -1.6495721976846453e-01
    3.0732899495003914e-02 -1.2974982402692051e-01
    6.8262708292815277e-02 -5.7639041770423498e-02
    3.0732899495003914e-02 -1.2974982402692051e-01
    2.8102521050711243e-02 -1.4237369936287483e-01
    2.1916708772517331e-02 -1.8505830254940131e-01
    2.0932636189741304e-02 -1.9442398845107403e-01
    2.0075997852302425e-02 -2.0341905108624311e-01
    1.6564233346771248e-02 -2.5175440748900674e-01
    1.2569952963930672e-02 -3.5025216619694238e-01
    1.0309299440345403e-02 -4.6135821833201368e-01
    8.8867974513075782e-03 -6.0030022518766424e-01
    8.3985432851639112e-03 -6.8787406675009721e-01
    8.1653510144374698e-03 -7.5150970677579298e-01
    8.0254193910867851e-03 -8.0639520338585591e-01
    7.9919101867330922e-03 -8.2327260234856459e-01
    8.0374234077924857e-03 -8.0081480245190695e-01
    7.9357349392405394e-03 -8.5769002787023574e-01
    7.9059731710801433e-03 -8.8117568522701195e-01
    7.8474405709950922e-03 -9.6741792204684540e-01
    7.8446856330232385e-03 -9.8032594632548686e-01
    7.8474405709950922e-03 -1.0336794235569033e+00
    7.8438253097550172e-03 -1.0133339220532849e+00
    7.8438253097550172e-03 -9.8684153193424473e-01
    7.8438253097550172e-03 -1.0133339220532849e+00
    7.8458905613204930e-03 -1.0268504120403723e+00
    7.8438253097550172e-03 -9.8684153193424473e-01
    7.8474405709950922e-03 -9.6741792204684540e-01
    7.8541679109112132e-03 -9.4835176447475955e-01
    7.8571057605466236e-03 -9.4207218407083859e-01
    7.8493362753914442e-03 -9.6102387014105517e-01
    7.9059731710801433e-03 -8.8117568522701195e-01
    7.9357349392405394e-03 -8.5769002787023574e-01
    8.1818972232510726e-03 -7.4612400506071030e-01
    8.4453915066567686e-03 -6.7744903724755035e-01
    9.1598337489855516e-03 -5.6460365972637760e-01
    1.0233967706163020e-02 -4.6662826262869134e-01
    1.3310256968080306e-02 -3.2592500092368831e-01
    1.4784299193103773e-02 -2.8711892307136960e-01
    1.5769837222546556e-02 -2.6631182064565373e-01
    1.5769837222546556e-02 -2.6631182064565373e-01
    2.0932636189741304e-02 -1.9442398845107403e-01
    3.0732899495003914e-02 -1.2974982402692051e-01
    2.8102521050711243e-02 -1.4237369936287483e-01
    2.8102521050711243e-02 -1.4237369936287483e-01
    2.1916708772517331e-02 -1.8505830254940131e-01
    1.8651188047187357e-02 -2.2047927592204922e-01
    1.6150900599579864e-02 -2.5910964703630607e-01
    1.3744170483299543e-02 -3.1333978072025609e-01
    1.0161011459222687e-02 -4.7188140965429864e-01
    8.8175614693187365e-03 -6.1051394146839322e-01
    8.3541284064396377e-03 -6.9834427688930012e-01
    8.0627147609871816e-03 -7.8971888288079750e-01
    8.0254193910867851e-03 -8.0639520338585591e-01
    8.0026678134276011e-03 -8.1762356087188282e-01
    7.9716077147026672e-03 -8.3464316536059047e-01
    7.9815583199927629e-03 -8.2894561823368551e-01
    7.8493362753914442e-03 -9.6102387014105517e-01
    7.8446856330232385e-03 -9.8032594632548686e-01
    7.8493362753914442e-03 -9.6102387014105517e-01
    7.8474405709950922e-03 -1.0336794235569033e+00
    7.8438253097550172e-03 -1.0133339220532849e+00
    7.8433092516400609e-03 -1.0066445913694329e+00
    7.8433092516400609e-03 -1.0066445913694329e+00
    7.8446856330232368e-03 -1.0200688900954387e+00
    7.8446856330232385e-03 -9.8032594632548686e-01
    7.8458905613204930e-03 -9.7385168109635323e-01
    7.8933202317827359e-03 -8.9309520635766915e-01
    7.8438253097550172e-03 -9.8684153193424473e-01
    7.8433092516400609e-03 -1.0066445913694329e+00
    7.8474405709950922e-03 -9.6741792204684540e-01
    7.8458905613204930e-03 -9.7385168109635323e-01
    7.8515784255251790e-03 -9.5466874101087607e-01
    7.9201036080404942e-03 -8.6937561127994167e-01
    8.2345334849928554e-03 -7.3006501344597252e-01
    8.3985432851639112e-03 -6.8787406675009721e-01
    8.8175614693187365e-03 -6.1051394146839322e-01
    9.8909411963770937e-03 -4.9274572946852108e-01
    1.2921153034336899e-02 -3.3821759846501054e-01
    1.4499023164320227e-02 -2.9382126412463505e-01
    1.4784299193103773e-02 -2.8711892307136960e-01
    1.5769837222546556e-02 -2.6631182064565373e-01
    2.6061939634699959e-02 -1.5404159684748153e-01
    3.0732899495003914e-02 -1.2974982402692051e-01
    2.4420137436311905e-02 -1.6495721976846453e-01
    1.8050123787121852e-02 -2.2861497842960624e-01
    1.6150900599579864e-02 -2.5910964703630607e-01
    1.5417144935771756e-02 -2.7337354679158199e-01
    1.1012703431425132e-02 -4.1844626448875294e-01
    8.7202198188179071e-03 -6.2586345885058992e-01
    8.2164798440306375e-03 -7.3540215292764277e-01
    8.0254193910867851e-03 -8.0639520338585591e-01
    8.0760135526625094e-03 -7.8420230937691415e-01
    7.9620540755588210e-03 -8.4036580681601791e-01
    7.8821240272367952e-03 -9.0513927571050357e-01
    7.8680219022060106e-03 -9.2345045140295379e-01
    7.8603931440504125e-03 -9.3582925660375027e-01
    7.8515784255251790e-03 -9.5466874101087607e-01
    7.8458905613204930e-03 -1.0268504120403723e+00
    7.8458905613204930e-03 -9.7385168109635323e-01
    7.8458905613204930e-03 -9.7385168109635323e-01
    7.8493362753914442e-03 -9.6102387014105517e-01
    7.8515784255251790e-03 -9.5466874101087607e-01
    7.8541679109112132e-03 -9.4835176447475955e-01
    7.8603931440504125e-03 -9.3582925660375027e-01
    7.8571057605466236e-03 -9.4207218407083859e-01
    7.8571057605466236e-03 -9.4207218407083859e-01
    7.8541679109112132e-03 -9.4835176447475955e-01
    7.8458905613204930e-03 -9.7385168109635323e-01
    7.8493362753914442e-03 -9.6102387014105517e-01
    7.8431372549019607e-03 -1. 7.8541679109112132e-03
    -9.4835176447475955e-01 7.8431372549019607e-03 -1.
    7.8723663317123490e-03 -9.1731314971178002e-01
    8.0254193910867851e-03 -8.0639520338585591e-01
    8.1337082307961425e-03 -7.6233315057180395e-01
    8.2345334849928554e-03 -7.3006501344597252e-01
    8.8867974513075782e-03 -6.0030022518766424e-01
    1.0387118503165600e-02 -4.5607017003965516e-01
    1.2251157119368477e-02 -3.6205820294822399e-01
    1.3110573305544548e-02 -3.3210558207753577e-01
    1.4784299193103773e-02 -2.8711892307136960e-01
    2.0932636189741304e-02 -1.9442398845107403e-01
    3.0732899495003914e-02 -1.2974982402692051e-01
    2.3062782199577747e-02 -1.7526187135109578e-01
    1.6150900599579864e-02 -2.5910964703630607e-01
    1.4231703056790990e-02 -3.0042088406305484e-01
    1.1960324519398656e-02 -3.7366113192227257e-01
    8.7518299914497409e-03 -6.2074237886375316e-01
    8.2918546152246850e-03 -7.1414284285428498e-01
    8.0760135526625094e-03 -7.8420230937691415e-01
    7.9815583199927629e-03 -8.2894561823368551e-01
    8.0026678134276011e-03 -8.1762356087188282e-01
    7.9528933050870866e-03 -8.4611411222664934e-01
    7.8770664082188496e-03 -9.1120965222226991e-01
    7.8493362753914442e-03 -9.6102387014105517e-01
    7.8723663317123490e-03 -9.1731314971178002e-01
    7.8994633724369309e-03 -8.8712019959006139e-01
    7.8433092516400627e-03 -9.9339926779878274e-01
    7.8515784255251790e-03 -9.5466874101087607e-01
    7.8474405709950922e-03 -9.6741792204684540e-01
    7.8446856330232385e-03 -9.8032594632548686e-01
    7.8515784255251790e-03 -9.5466874101087607e-01
    7.8458905613204930e-03 -9.7385168109635323e-01
    7.8474405709950922e-03 -9.6741792204684540e-01
    7.8571057605466236e-03 -9.4207218407083859e-01
    7.8603931440504125e-03 -9.3582925660375027e-01
    7.8474405709950922e-03 -9.6741792204684540e-01
    7.8474405709950922e-03 -9.6741792204684540e-01
    7.8541679109112132e-03 -9.4835176447475955e-01
    7.8541679109112132e-03 -9.4835176447475955e-01
    7.8680219022060106e-03 -9.2345045140295379e-01
    7.8431372549019607e-03 -1. 7.8493362753914442e-03
    -9.6102387014105517e-01 7.9128523030147484e-03
    -8.7526103040466119e-01 7.9815583199927629e-03
    -8.2894561823368551e-01 7.9815583199927629e-03
    -8.2894561823368551e-01 8.1653510144374698e-03
    -7.5150970677579298e-01 8.8517291410407997e-03
    -6.0540551459668124e-01 1.0467544448861018e-02
    -4.5076296542197858e-01 1.1960324519398656e-02
    -3.7366113192227257e-01 1.3521113719393921e-02
    -3.1967136409428010e-01 1.6150900599579864e-02
    -2.5910964703630607e-01 2.4420137436311905e-02
    -1.6495721976846453e-01 1.8050123787121852e-02
    -2.2861497842960624e-01 1.3310256968080306e-02
    -3.2592500092368831e-01 1.2102488923167299e-02
    -3.6788360369097950e-01 9.3403737931246292e-03
    -5.4418502281466175e-01 8.2918546152246850e-03
    -7.1414284285428498e-01 8.1185963787420920e-03
    -7.6777189594991435e-01 8.0254193910867851e-03
    -8.0639520338585591e-01 7.9128523030147484e-03
    -8.7526103040466119e-01 7.8821240272367952e-03
    -9.0513927571050357e-01 7.9059731710801433e-03
    -8.8117568522701195e-01 7.8541679109112132e-03
    -9.4835176447475955e-01 7.8770664082188496e-03
    -9.1120965222226991e-01 7.8770664082188496e-03
    -9.1120965222226991e-01 7.8875412351978799e-03
    -8.9910134775393047e-01 7.8571057605466236e-03
    -9.4207218407083859e-01 7.8821240272367952e-03
    -9.0513927571050357e-01 7.8723663317123490e-03
    -9.1731314971178002e-01 7.8680219022060106e-03
    -9.2345045140295379e-01 7.8933202317827359e-03
    -8.9309520635766915e-01 7.8680219022060106e-03
    -9.2345045140295379e-01 7.9128523030147484e-03
    -8.7526103040466119e-01 7.8640313729626769e-03
    -9.2962225170452828e-01 7.8640313729626769e-03
    -9.2962225170452828e-01 7.8640313729626769e-03
    -9.2962225170452828e-01 7.8493362753914442e-03
    -9.6102387014105517e-01 7.8493362753914442e-03
    -9.6102387014105517e-01 7.8446856330232385e-03
    -9.8032594632548686e-01 7.8640313729626769e-03
    -9.2962225170452828e-01 7.8446856330232368e-03
    -1.0200688900954387e+00 7.8458905613204930e-03
    -9.7385168109635323e-01 7.8571057605466236e-03
    -9.4207218407083859e-01 7.8723663317123490e-03
    -9.1731314971178002e-01 7.9528933050870866e-03
    -8.4611411222664934e-01 8.0498533289682390e-03
    -7.9525620552903120e-01 8.1989373522683220e-03
    -7.4075498561801711e-01 9.0766001138150153e-03
    -5.7480124892951046e-01 1.0818019086377622e-02
    -4.2931774420607882e-01 1.2569952963930672e-02
    -3.5025216619694238e-01 1.3110573305544548e-02
    -3.3210558207753577e-01 2.0932636189741304e-02
    -1.9442398845107403e-01 1.6150900599579864e-02
    -2.5910964703630607e-01 1.1824233592006041e-02
    -3.7939345531966401e-01 1.0021812945840106e-02
    -4.8234122903240378e-01 8.3328022944528686e-03
    -7.0359754473029190e-01 8.1653510144374698e-03
    -7.5150970677579298e-01 8.0138359074584092e-03
    -8.1199794294115013e-01 7.9277300937825208e-03
    -8.6351881269859609e-01 7.8770664082188496e-03
    -9.1120965222226991e-01 7.9620540755588210e-03
    -8.4036580681601791e-01 7.8770664082188496e-03
    -9.1120965222226991e-01 7.8640313729626769e-03
    -9.2962225170452828e-01 7.8515784255251790e-03
    -9.5466874101087607e-01 7.8680219022060106e-03
    -9.2345045140295379e-01 7.8493362753914442e-03
    -9.6102387014105517e-01 7.8821240272367952e-03
    -9.0513927571050357e-01 7.8640313729626769e-03
    -9.2962225170452828e-01 7.9059731710801433e-03
    -8.8117568522701195e-01 7.9128523030147484e-03
    -8.7526103040466119e-01 7.9128523030147484e-03
    -8.7526103040466119e-01 7.9059731710801433e-03
    -8.8117568522701195e-01 7.9201036080404942e-03
    -8.6937561127994167e-01 7.8933202317827359e-03
    -8.9309520635766915e-01 7.9059731710801433e-03
    -8.8117568522701195e-01 7.9059731710801433e-03
    -8.8117568522701195e-01 7.8640313729626769e-03
    -9.2962225170452828e-01 7.8680219022060106e-03
    -9.2345045140295379e-01 7.8458905613204930e-03
    -9.7385168109635323e-01 7.8446856330232385e-03
    -9.8032594632548686e-01 7.8458905613204930e-03
    -1.0268504120403723e+00 7.8433092516400627e-03
    -9.9339926779878274e-01 7.8446856330232385e-03
    -9.8032594632548686e-01 7.8438253097550172e-03
    -9.8684153193424473e-01 7.8933202317827359e-03
    -8.9309520635766915e-01 7.9919101867330922e-03
    -8.2327260234856459e-01 8.0760135526625094e-03
    -7.8420230937691415e-01 8.4697612471847129e-03
    -6.7225224203648204e-01 9.3403737931246292e-03
    -5.4418502281466175e-01 1.2102488923167299e-02
    -3.6788360369097950e-01 1.3521113719393921e-02
    -3.1967136409428010e-01 1.9321736938871879e-02
    -2.1209125149788172e-01 1.4231703056790990e-02
    -3.0042088406305484e-01 1.0636737998067412e-02
    -4.4008622942335202e-01 8.8867974513075782e-03
    -6.0030022518766424e-01 8.1989373522683220e-03
    -7.4075498561801711e-01 8.1039478701034062e-03
    -7.7322933071864119e-01 7.9441214985675433e-03
    -8.5188865805003267e-01 7.9357349392405394e-03
    -8.5769002787023574e-01 7.8933202317827359e-03
    -8.9309520635766915e-01 7.8821240272367952e-03
    -9.0513927571050357e-01 7.8515784255251790e-03
    -9.5466874101087607e-01 7.8821240272367952e-03
    -9.0513927571050357e-01 7.8680219022060106e-03
    -9.2345045140295379e-01 7.8821240272367952e-03
    -9.0513927571050357e-01 7.8994633724369309e-03
    -8.8712019959006139e-01 7.9357349392405394e-03
    -8.5769002787023574e-01 7.9441214985675433e-03
    -8.5188865805003267e-01 8.0498533289682390e-03
    -7.9525620552903120e-01 8.1039478701034062e-03
    -7.7322933071864119e-01 8.1185963787420920e-03
    -7.6777189594991435e-01 8.0254193910867851e-03
    -8.0639520338585591e-01 8.0760135526625094e-03
    -7.8420230937691415e-01 7.9815583199927629e-03
    -8.2894561823368551e-01 7.9357349392405394e-03
    -8.5769002787023574e-01 7.8770664082188496e-03
    -9.1120965222226991e-01 7.8770664082188496e-03
    -9.1120965222226991e-01 7.9059731710801433e-03
    -8.8117568522701195e-01 7.8446856330232385e-03
    -9.8032594632548686e-01 7.8515784255251790e-03
    -9.5466874101087607e-01 7.8680219022060106e-03
    -9.2345045140295379e-01 7.8438253097550172e-03
    -9.8684153193424473e-01 7.8474405709950922e-03
    -1.0336794235569033e+00 7.8458905613204930e-03
    -1.0268504120403723e+00 7.8541679109112132e-03
    -9.4835176447475955e-01 7.9201036080404942e-03
    -8.6937561127994167e-01 8.0138359074584092e-03
    -8.1199794294115013e-01 8.3328022944528686e-03
    -7.0359754473029190e-01 8.7842696520755558e-03
    -6.1562605028536133e-01 1.1333275426960183e-02
    -4.0191847623425020e-01 1.2921153034336899e-02
    -3.3821759846501054e-01 1.8651188047187357e-02
    -2.2047927592204922e-01 1.3310256968080306e-02
    -3.2592500092368831e-01 9.7677227447073248e-03
    -5.0310240825802133e-01 8.6301538859502383e-03
    -6.4126044106199787e-01 8.1337082307961425e-03
    -7.6233315057180395e-01 7.9919101867330922e-03
    -8.2327260234856459e-01 7.9620540755588210e-03
    -8.4036580681601791e-01 7.8933202317827359e-03
    -8.9309520635766915e-01 7.8603931440504125e-03
    -9.3582925660375027e-01 7.8640313729626769e-03
    -9.2962225170452828e-01 7.8933202317827359e-03
    -8.9309520635766915e-01 7.8994633724369309e-03
    -8.8712019959006139e-01 7.9201036080404942e-03
    -8.6937561127994167e-01 7.9059731710801433e-03
    -8.8117568522701195e-01 7.9716077147026672e-03
    -8.3464316536059047e-01 7.9716077147026672e-03
    -8.3464316536059047e-01 8.0627147609871816e-03
    -7.8971888288079750e-01 8.1492906144157093e-03
    -7.5691258852437304e-01 8.1989373522683220e-03
    -7.4075498561801711e-01 8.2164798440306375e-03
    -7.3540215292764277e-01 8.2164798440306375e-03
    -7.3540215292764277e-01 8.1818972232510726e-03
    -7.4612400506071030e-01 8.0627147609871816e-03
    -7.8971888288079750e-01 7.9441214985675433e-03
    -8.5188865805003267e-01 7.9620540755588210e-03
    -8.4036580681601791e-01 8.0026678134276011e-03
    -8.1762356087188282e-01 7.8994633724369309e-03
    -8.8712019959006139e-01 7.8680219022060106e-03
    -9.2345045140295379e-01 7.8571057605466236e-03
    -9.4207218407083859e-01 7.8603931440504125e-03
    -9.3582925660375027e-01 7.8438253097550172e-03
    -1.0133339220532849e+00 7.8446856330232368e-03
    -1.0200688900954387e+00 7.8458905613204930e-03
    -1.0268504120403723e+00 7.8493362753914442e-03
    -9.6102387014105517e-01 7.8821240272367952e-03
    -9.0513927571050357e-01 7.9201036080404942e-03
    -8.6937561127994167e-01 8.0498533289682390e-03
    -7.9525620552903120e-01 8.6016537688661139e-03
    -6.4640573604111407e-01 9.7087942356251858e-03
    -5.0826502273256347e-01 1.2921153034336899e-02
    -3.3821759846501054e-01 1.8050123787121852e-02
    -2.2861497842960624e-01 1.2406803588500683e-02
    -3.5618207653079775e-01 8.8517291410407997e-03
    -6.0540551459668124e-01 8.3760380386262087e-03
    -6.9310328008367195e-01 8.0627147609871816e-03
    -7.8971888288079750e-01 7.9201036080404942e-03
    -8.6937561127994167e-01 7.9277300937825208e-03
    -8.6351881269859609e-01 7.8640313729626769e-03
    -9.2962225170452828e-01 7.8821240272367952e-03
    -9.0513927571050357e-01 7.8680219022060106e-03
    -9.2345045140295379e-01 7.8875412351978799e-03
    -8.9910134775393047e-01 7.8821240272367952e-03
    -9.0513927571050357e-01 7.9201036080404942e-03
    -8.6937561127994167e-01 7.9620540755588210e-03
    -8.4036580681601791e-01 8.0498533289682390e-03
    -7.9525620552903120e-01 8.1653510144374698e-03
    -7.5150970677579298e-01 8.3760380386262087e-03
    -6.9310328008367195e-01 8.4947801821095310e-03
    -6.6706527158519047e-01 8.3541284064396377e-03
    -6.9834427688930012e-01 8.3985432851639112e-03
    -6.8787406675009721e-01 8.4216567374779134e-03
    -6.8265614878628911e-01 8.3328022944528686e-03
    -7.0359754473029190e-01 8.2531074190242294e-03
    -7.2474307533947868e-01 8.1653510144374698e-03
    -7.5150970677579298e-01 8.0760135526625094e-03
    -7.8420230937691415e-01 8.0897558031197189e-03
    -7.7870596422745109e-01 7.9620540755588210e-03
    -8.4036580681601791e-01 7.9128523030147484e-03
    -8.7526103040466119e-01 7.8821240272367952e-03
    -9.0513927571050357e-01 7.8493362753914442e-03
    -9.6102387014105517e-01 7.8541679109112132e-03
    -9.4835176447475955e-01 7.8474405709950922e-03
    -9.6741792204684540e-01 7.8433092516400609e-03
    -1.0066445913694329e+00 7.8458905613204930e-03
    -9.7385168109635323e-01 7.8603931440504125e-03
    -9.3582925660375027e-01 7.8770664082188496e-03
    -9.1120965222226991e-01 8.0138359074584092e-03
    -8.1199794294115013e-01 8.4453915066567686e-03
    -6.7744903724755035e-01 9.2476545519158803e-03
    -5.5439995252462593e-01 1.2741187043078866e-02
    -3.4426518632954817e-01 1.7507484665559115e-02
    -2.3652495839563306e-01 1.0636737998067412e-02
    -4.4008622942335202e-01 8.6016537688661139e-03
    -6.4640573604111407e-01 8.1653510144374698e-03
    -7.5150970677579298e-01 7.9128523030147484e-03
    -8.7526103040466119e-01 7.8875412351978799e-03
    -8.9910134775393047e-01 7.8875412351978799e-03
    -8.9910134775393047e-01 7.8680219022060106e-03
    -9.2345045140295379e-01 7.8770664082188496e-03
    -9.1120965222226991e-01 7.8541679109112132e-03
    -9.4835176447475955e-01 7.8770664082188496e-03
    -9.1120965222226991e-01 7.9716077147026672e-03
    -8.3464316536059047e-01 7.9528933050870866e-03
    -8.4611411222664934e-01 8.0760135526625094e-03
    -7.8420230937691415e-01 8.1818972232510726e-03
    -7.4612400506071030e-01 8.4216567374779134e-03
    -6.8265614878628911e-01 8.6894174415143265e-03
    -6.3098981620003036e-01 8.7842696520755558e-03
    -6.1562605028536133e-01 8.8867974513075782e-03
    -6.0030022518766424e-01 8.6894174415143265e-03
    -6.3098981620003036e-01 8.6594020929601761e-03
    -6.3612197163020368e-01 8.5468255320256207e-03
    -6.5671882937302828e-01 8.4947801821095310e-03
    -6.6706527158519047e-01 8.5468255320256207e-03
    -6.5671882937302828e-01 8.3120480846558403e-03
    -7.0886357092818275e-01 8.1818972232510726e-03
    -7.4612400506071030e-01 8.1185963787420920e-03
    -7.6777189594991435e-01 7.9441214985675433e-03
    -8.5188865805003267e-01 7.8770664082188496e-03
    -9.1120965222226991e-01 7.8515784255251790e-03
    -9.5466874101087607e-01 7.8438253097550172e-03
    -1.0133339220532849e+00 7.8438253097550172e-03
    -9.8684153193424473e-01 7.8640313729626769e-03
    -9.2962225170452828e-01 7.8438253097550172e-03
    -9.8684153193424473e-01 7.8493362753914442e-03
    -9.6102387014105517e-01 7.8571057605466236e-03
    -9.4207218407083859e-01 7.9201036080404942e-03
    -8.6937561127994167e-01 8.2164798440306375e-03
    -7.3540215292764277e-01 9.0766001138150153e-03
    -5.7480124892951046e-01 1.1115540139462740e-02
    -4.1296808067805285e-01 1.4784299193103773e-02
    -2.8711892307136960e-01 1.0090325947572603e-02
    -4.7711872361369789e-01 8.4216567374779134e-03
    -6.8265614878628911e-01 8.0897558031197189e-03
    -7.7870596422745109e-01 7.9128523030147484e-03
    -8.7526103040466119e-01 7.8723663317123490e-03
    -9.1731314971178002e-01 7.8493362753914442e-03
    -9.6102387014105517e-01 7.8640313729626769e-03
    -9.2962225170452828e-01 7.8603931440504125e-03
    -9.3582925660375027e-01 7.8571057605466236e-03
    -9.4207218407083859e-01 7.8994633724369309e-03
    -8.8712019959006139e-01 7.9277300937825208e-03
    -8.6351881269859609e-01 8.0138359074584092e-03
    -8.1199794294115013e-01 8.1337082307961425e-03
    -7.6233315057180395e-01 8.3120480846558403e-03
    -7.0886357092818275e-01 8.6894174415143265e-03
    -6.3098981620003036e-01 9.0366143135840703e-03
    -5.7989928939489821e-01 9.2031520290383906e-03
    -5.5950288494418821e-01 9.2933811673260799e-03
    -5.4929421800255140e-01 9.1176618044070956e-03
    -5.6970290810980762e-01 8.8867974513075782e-03
    -6.0030022518766424e-01 8.8175614693187365e-03
    -6.1051394146839322e-01 8.9976716577282768e-03
    -5.8499762582614145e-01 9.1176618044070956e-03
    -5.6970290810980762e-01 8.7518299914497409e-03
    -6.2074237886375316e-01 8.6301538859502383e-03
    -6.4126044106199787e-01 8.2531074190242294e-03
    -7.2474307533947868e-01 8.0897558031197189e-03
    -7.7870596422745109e-01 7.8821240272367952e-03
    -9.0513927571050357e-01 7.8640313729626769e-03
    -9.2962225170452828e-01 7.8541679109112132e-03
    -9.4835176447475955e-01 7.8438253097550172e-03
    -1.0133339220532849e+00 7.8458905613204930e-03
    -9.7385168109635323e-01 7.8640313729626769e-03
    -9.2962225170452828e-01 7.8433092516400627e-03
    -9.9339926779878274e-01 7.8446856330232385e-03
    -9.8032594632548686e-01 7.8994633724369309e-03
    -8.8712019959006139e-01 8.0760135526625094e-03
    -7.8420230937691415e-01 8.7518299914497409e-03
    -6.2074237886375316e-01 1.0309299440345403e-02
    -4.6135821833201368e-01 1.5769837222546556e-02
    -2.6631182064565373e-01 9.4894008682446674e-03
    -5.2882985633297275e-01 8.3328022944528686e-03
    -7.0359754473029190e-01 7.9919101867330922e-03
    -8.2327260234856459e-01 7.9128523030147484e-03
    -8.7526103040466119e-01 7.8571057605466236e-03
    -9.4207218407083859e-01 7.8493362753914442e-03
    -9.6102387014105517e-01 7.8493362753914442e-03
    -9.6102387014105517e-01 7.8603931440504125e-03
    -9.3582925660375027e-01 7.8875412351978799e-03
    -8.9910134775393047e-01 7.9716077147026672e-03
    -8.3464316536059047e-01 7.9201036080404942e-03
    -8.6937561127994167e-01 8.0374234077924857e-03
    -8.0081480245190695e-01 8.2722111616705708e-03
    -7.1943584821615081e-01 8.5204631297462821e-03
    -6.6188763252929728e-01 8.8517291410407997e-03
    -6.0540551459668124e-01 9.0766001138150153e-03
    -5.7480124892951046e-01 9.3886765512847838e-03
    -5.3907169337509320e-01 9.4894008682446674e-03
    -5.2882985633297275e-01 9.4383359150327101e-03
    -5.3395354009382068e-01 9.0366143135840703e-03
    -5.7989928939489821e-01 9.0766001138150153e-03
    -5.7480124892951046e-01 9.1598337489855516e-03
    -5.6460365972637760e-01 9.2031520290383906e-03
    -5.5950288494418821e-01 8.9976716577282768e-03
    -5.8499762582614145e-01 8.9227923313431722e-03
    -5.9519752157254369e-01 8.5738834846043749e-03
    -6.5155836414460400e-01 8.1989373522683220e-03
    -7.4075498561801711e-01 7.9059731710801433e-03
    -8.8117568522701195e-01 7.8723663317123490e-03
    -9.1731314971178002e-01 7.8541679109112132e-03
    -9.4835176447475955e-01 7.8431372549019607e-03 -1.
    7.8458905613204930e-03 -1.0268504120403723e+00
    7.8446856330232385e-03 -9.8032594632548686e-01
    7.8433092516400627e-03 -9.9339926779878274e-01
    7.8431372549019607e-03 -1. 7.8541679109112132e-03
    -9.4835176447475955e-01 7.9716077147026672e-03
    -8.3464316536059047e-01 8.4697612471847129e-03
    -6.7225224203648204e-01 9.4894008682446674e-03
    -5.2882985633297275e-01 1.2921153034336899e-02
    -3.3821759846501054e-01 9.3403737931246292e-03
    -5.4418502281466175e-01 8.1818972232510726e-03
    -7.4612400506071030e-01 7.9716077147026672e-03
    -8.3464316536059047e-01 7.9059731710801433e-03
    -8.8117568522701195e-01 7.8770664082188496e-03
    -9.1120965222226991e-01 7.8515784255251790e-03
    -9.5466874101087607e-01 7.8603931440504125e-03
    -9.3582925660375027e-01 7.8474405709950922e-03
    -9.6741792204684540e-01 7.8994633724369309e-03
    -8.8712019959006139e-01 7.9620540755588210e-03
    -8.4036580681601791e-01 7.9277300937825208e-03
    -8.6351881269859609e-01 8.0138359074584092e-03
    -8.1199794294115013e-01 8.3541284064396377e-03
    -6.9834427688930012e-01 8.7202198188179071e-03
    -6.2586345885058992e-01 9.1598337489855516e-03
    -5.6460365972637760e-01 9.2031520290383906e-03
    -5.5950288494418821e-01 9.3886765512847838e-03
    -5.3907169337509320e-01 9.6515604991818590e-03
    -5.1341827622303504e-01 9.6515604991818590e-03
    -5.1341827622303504e-01 9.5419230783289708e-03
    -5.2369991729570431e-01 9.2476545519158803e-03
    -5.5439995252462593e-01 9.3403737931246292e-03
    -5.4418502281466175e-01 9.2933811673260799e-03
    -5.4929421800255140e-01 9.2031520290383906e-03
    -5.5950288494418821e-01 9.0366143135840703e-03
    -5.7989928939489821e-01 8.6016537688661139e-03
    -6.4640573604111407e-01 8.1818972232510726e-03
    -7.4612400506071030e-01 7.9815583199927629e-03
    -8.2894561823368551e-01 7.8994633724369309e-03
    -8.8712019959006139e-01 7.8640313729626769e-03
    -9.2962225170452828e-01 7.8433092516400609e-03
    -1.0066445913694329e+00 7.8515784255251790e-03
    -9.5466874101087607e-01 7.8458905613204930e-03
    -9.7385168109635323e-01 7.8458905613204930e-03
    -1.0268504120403723e+00 7.8433092516400609e-03
    -1.0066445913694329e+00 7.8571057605466236e-03
    -9.4207218407083859e-01 7.9716077147026672e-03
    -8.3464316536059047e-01 8.3328022944528686e-03
    -7.0359754473029190e-01 9.3403737931246292e-03
    -5.4418502281466175e-01 1.1222320114059846e-02
    -4.0745940414127885e-01 9.3403737931246292e-03
    -5.4418502281466175e-01 8.1653510144374698e-03
    -7.5150970677579298e-01 8.0026678134276011e-03
    -8.1762356087188282e-01 7.8994633724369309e-03
    -8.8712019959006139e-01 7.8515784255251790e-03
    -9.5466874101087607e-01 7.8458905613204930e-03
    -9.7385168109635323e-01 7.8493362753914442e-03
    -9.6102387014105517e-01 7.8770664082188496e-03
    -9.1120965222226991e-01 7.9620540755588210e-03
    -8.4036580681601791e-01 7.9441214985675433e-03
    -8.5188865805003267e-01 7.9277300937825208e-03
    -8.6351881269859609e-01 8.1039478701034062e-03
    -7.7322933071864119e-01 8.4216567374779134e-03
    -6.8265614878628911e-01 8.8517291410407997e-03
    -6.0540551459668124e-01 9.1176618044070956e-03
    -5.6970290810980762e-01 9.2476545519158803e-03
    -5.5439995252462593e-01 9.5419230783289708e-03
    -5.2369991729570431e-01 9.4894008682446674e-03
    -5.2882985633297275e-01 9.6515604991818590e-03
    -5.1341827622303504e-01 9.6515604991818590e-03
    -5.1341827622303504e-01 9.3403737931246292e-03
    -5.4418502281466175e-01 9.2476545519158803e-03
    -5.5439995252462593e-01 9.2933811673260799e-03
    -5.4929421800255140e-01 9.1598337489855516e-03
    -5.6460365972637760e-01 8.9227923313431722e-03
    -5.9519752157254369e-01 8.4697612471847129e-03
    -6.7225224203648204e-01 8.1818972232510726e-03
    -7.4612400506071030e-01 8.0254193910867851e-03
    -8.0639520338585591e-01 7.9201036080404942e-03
    -8.6937561127994167e-01 7.8723663317123490e-03
    -9.1731314971178002e-01 7.8603931440504125e-03
    -9.3582925660375027e-01 7.8493362753914442e-03
    -9.6102387014105517e-01 7.8515784255251790e-03
    -9.5466874101087607e-01 7.8438253097550172e-03
    -1.0133339220532849e+00 7.8541679109112150e-03
    -1.0544610528076002e+00 7.8571057605466236e-03
    -9.4207218407083859e-01 7.9441214985675433e-03
    -8.5188865805003267e-01 8.2164798440306375e-03
    -7.3540215292764277e-01 8.9976716577282768e-03
    -5.8499762582614145e-01 1.2102488923167299e-02
    -3.6788360369097950e-01 9.2476545519158803e-03
    -5.5439995252462593e-01 8.1818972232510726e-03
    -7.4612400506071030e-01 7.9716077147026672e-03
    -8.3464316536059047e-01 7.8933202317827359e-03
    -8.9309520635766915e-01 7.8680219022060106e-03
    -9.2345045140295379e-01 7.8474405709950922e-03
    -9.6741792204684540e-01 7.8994633724369309e-03
    -8.8712019959006139e-01 7.8770664082188496e-03
    -9.1120965222226991e-01 8.0138359074584092e-03
    -8.1199794294115013e-01 7.9059731710801433e-03
    -8.8117568522701195e-01 8.0374234077924857e-03
    -8.0081480245190695e-01 8.2722111616705708e-03
    -7.1943584821615081e-01 8.4697612471847129e-03
    -6.7225224203648204e-01 8.7202198188179071e-03
    -6.2586345885058992e-01 8.9976716577282768e-03
    -5.8499762582614145e-01 9.2476545519158803e-03
    -5.5439995252462593e-01 9.4383359150327101e-03
    -5.3395354009382068e-01 9.4894008682446674e-03
    -5.2882985633297275e-01 9.5419230783289708e-03
    -5.2369991729570431e-01 9.7087942356251858e-03
    -5.0826502273256347e-01 9.5419230783289708e-03
    -5.2369991729570431e-01 9.3403737931246292e-03
    -5.4418502281466175e-01 9.2031520290383906e-03
    -5.5950288494418821e-01 9.0766001138150153e-03
    -5.7480124892951046e-01 8.7842696520755558e-03
    -6.1562605028536133e-01 8.3985432851639112e-03
    -6.8787406675009721e-01 8.1989373522683220e-03
    -7.4075498561801711e-01 8.0374234077924857e-03
    -8.0081480245190695e-01 7.9441214985675433e-03
    -8.5188865805003267e-01 7.9201036080404942e-03
    -8.6937561127994167e-01 7.9059731710801433e-03
    -8.8117568522701195e-01 7.8723663317123490e-03
    -9.1731314971178002e-01 7.8458905613204930e-03
    -9.7385168109635323e-01 7.8458905613204930e-03
    -1.0268504120403723e+00 7.8458905613204930e-03
    -1.0268504120403723e+00 7.8433092516400609e-03
    -1.0066445913694329e+00 7.8723663317123490e-03
    -9.1731314971178002e-01 8.1989373522683220e-03
    -7.4075498561801711e-01 9.0366143135840703e-03
    -5.7989928939489821e-01 1.1568741611749912e-02
    -3.9073233258228179e-01 9.3403737931246292e-03
    -5.4418502281466175e-01 8.2918546152246850e-03
    -7.1414284285428498e-01 7.9059731710801433e-03
    -8.8117568522701195e-01 7.8994633724369309e-03
    -8.8712019959006139e-01 7.8515784255251790e-03
    -9.5466874101087607e-01 7.8515784255251790e-03
    -9.5466874101087607e-01 7.8875412351978799e-03
    -8.9910134775393047e-01 7.8541679109112132e-03
    -9.4835176447475955e-01 7.9357349392405394e-03
    -8.5769002787023574e-01 7.8821240272367952e-03
    -9.0513927571050357e-01 8.0760135526625094e-03
    -7.8420230937691415e-01 8.3120480846558403e-03
    -7.0886357092818275e-01 8.4947801821095310e-03
    -6.6706527158519047e-01 8.8867974513075782e-03
    -6.0030022518766424e-01 9.0366143135840703e-03
    -5.7989928939489821e-01 9.2031520290383906e-03
    -5.5950288494418821e-01 9.5419230783289708e-03
    -5.2369991729570431e-01 9.5419230783289708e-03
    -5.2369991729570431e-01 9.7087942356251858e-03
    -5.0826502273256347e-01 1.0090325947572603e-02
    -4.7711872361369789e-01 9.4383359150327101e-03
    -5.3395354009382068e-01 9.5419230783289708e-03
    -5.2369991729570431e-01 9.2031520290383906e-03
    -5.5950288494418821e-01 8.9597409248028601e-03
    -5.9009684435208243e-01 8.5738834846043749e-03
    -6.5155836414460400e-01 8.4453915066567686e-03
    -6.7744903724755035e-01 8.2345334849928554e-03
    -7.3006501344597252e-01 8.0498533289682390e-03
    -7.9525620552903120e-01 7.9277300937825208e-03
    -8.6351881269859609e-01 7.8875412351978799e-03
    -8.9910134775393047e-01 7.9059731710801433e-03
    -8.8117568522701195e-01 7.8933202317827359e-03
    -8.9309520635766915e-01 7.8458905613204930e-03
    -9.7385168109635323e-01 7.8438253097550172e-03
    -9.8684153193424473e-01 7.8433092516400609e-03
    -1.0066445913694329e+00 7.8458905613204930e-03
    -9.7385168109635323e-01 7.8723663317123490e-03
    -9.1731314971178002e-01 8.1185963787420920e-03
    -7.6777189594991435e-01 9.2031520290383906e-03
    -5.5950288494418821e-01 1.2569952963930672e-02
    -3.5025216619694238e-01 9.7087942356251858e-03
    -5.0826502273256347e-01 8.2531074190242294e-03
    -7.2474307533947868e-01 7.9815583199927629e-03
    -8.2894561823368551e-01 7.8723663317123490e-03
    -9.1731314971178002e-01 7.8541679109112132e-03
    -9.4835176447475955e-01 7.8571057605466236e-03
    -9.4207218407083859e-01 7.8603931440504125e-03
    -9.3582925660375027e-01 7.8933202317827359e-03
    -8.9309520635766915e-01 7.9528933050870866e-03
    -8.4611411222664934e-01 7.8994633724369309e-03
    -8.8712019959006139e-01 8.0760135526625094e-03
    -7.8420230937691415e-01 8.2722111616705708e-03
    -7.1943584821615081e-01 8.4453915066567686e-03
    -6.7744903724755035e-01 8.8517291410407997e-03
    -6.0540551459668124e-01 9.2031520290383906e-03
    -5.5950288494418821e-01 9.3886765512847838e-03
    -5.3907169337509320e-01 9.6515604991818590e-03
    -5.1341827622303504e-01 9.6515604991818590e-03
    -5.1341827622303504e-01 9.7087942356251858e-03
    -5.0826502273256347e-01 9.7677227447073248e-03
    -5.0310240825802133e-01 9.3886765512847838e-03
    -5.3907169337509320e-01 9.2933811673260799e-03
    -5.4929421800255140e-01 9.0366143135840703e-03
    -5.7989928939489821e-01 8.9227923313431722e-03
    -5.9519752157254369e-01 8.6594020929601761e-03
    -6.3612197163020368e-01 8.3541284064396377e-03
    -6.9834427688930012e-01 8.2345334849928554e-03
    -7.3006501344597252e-01 8.0760135526625094e-03
    -7.8420230937691415e-01 7.9441214985675433e-03
    -8.5188865805003267e-01 7.8994633724369309e-03
    -8.8712019959006139e-01 7.9059731710801433e-03
    -8.8117568522701195e-01 7.8933202317827359e-03
    -8.9309520635766915e-01 7.8474405709950922e-03
    -9.6741792204684540e-01 7.8474405709950922e-03
    -1.0336794235569033e+00 7.8446856330232368e-03
    -1.0200688900954387e+00 7.8433092516400609e-03
    -1.0066445913694329e+00 7.8571057605466236e-03
    -9.4207218407083859e-01 7.9716077147026672e-03
    -8.3464316536059047e-01 9.0366143135840703e-03
    -5.7989928939489821e-01 1.2251157119368477e-02
    -3.6205820294822399e-01 9.8284142820297179e-03
    -4.9792959773196915e-01 8.4453915066567686e-03
    -6.7744903724755035e-01 7.9716077147026672e-03
    -8.3464316536059047e-01 7.8680219022060106e-03
    -9.2345045140295379e-01 7.8438253097550172e-03
    -1.0133339220532849e+00 7.8433092516400627e-03
    -9.9339926779878274e-01 7.8541679109112132e-03
    -9.4835176447475955e-01 7.8723663317123490e-03
    -9.1731314971178002e-01 7.8994633724369309e-03
    -8.8712019959006139e-01 7.8933202317827359e-03
    -8.9309520635766915e-01 7.9716077147026672e-03
    -8.3464316536059047e-01 8.2164798440306375e-03
    -7.3540215292764277e-01 8.4947801821095310e-03
    -6.6706527158519047e-01 8.7202198188179071e-03
    -6.2586345885058992e-01 9.1598337489855516e-03
    -5.6460365972637760e-01 9.5419230783289708e-03
    -5.2369991729570431e-01 9.6515604991818590e-03
    -5.1341827622303504e-01 9.6515604991818590e-03
    -5.1341827622303504e-01 9.5959570839585125e-03
    -5.1856297884173153e-01 9.5959570839585125e-03
    -5.1856297884173153e-01 9.3403737931246292e-03
    -5.4418502281466175e-01 9.2476545519158803e-03
    -5.5439995252462593e-01 9.1176618044070956e-03
    -5.6970290810980762e-01 8.8517291410407997e-03
    -6.0540551459668124e-01 8.6016537688661139e-03
    -6.4640573604111407e-01 8.3120480846558403e-03
    -7.0886357092818275e-01 8.1989373522683220e-03
    -7.4075498561801711e-01 7.9815583199927629e-03
    -8.2894561823368551e-01 7.9201036080404942e-03
    -8.6937561127994167e-01 7.9128523030147484e-03
    -8.7526103040466119e-01 7.9201036080404942e-03
    -8.6937561127994167e-01 7.8723663317123490e-03
    -9.1731314971178002e-01 7.8433092516400627e-03
    -9.9339926779878274e-01 7.8431372549019607e-03 -1.
    7.8446856330232368e-03 -1.0200688900954387e+00
    7.8474405709950922e-03 -9.6741792204684540e-01
    7.8770664082188496e-03 -9.1120965222226991e-01
    7.9620540755588210e-03 -8.4036580681601791e-01
    9.0366143135840703e-03 -5.7989928939489821e-01
    1.3980591541594653e-02 -3.0692490702242570e-01
    9.8284142820297179e-03 -4.9792959773196915e-01
    8.4697612471847129e-03 -6.7225224203648204e-01
    8.0026678134276011e-03 -8.1762356087188282e-01
    7.8603931440504125e-03 -9.3582925660375027e-01
    7.8458905613204930e-03 -9.7385168109635323e-01
    7.8446856330232385e-03 -9.8032594632548686e-01
    7.8458905613204930e-03 -9.7385168109635323e-01
    7.8571057605466236e-03 -9.4207218407083859e-01
    7.8994633724369309e-03 -8.8712019959006139e-01
    7.9201036080404942e-03 -8.6937561127994167e-01
    8.0138359074584092e-03 -8.1199794294115013e-01
    8.1492906144157093e-03 -7.5691258852437304e-01
    8.4697612471847129e-03 -6.7225224203648204e-01
    8.8867974513075782e-03 -6.0030022518766424e-01
    9.0366143135840703e-03 -5.7989928939489821e-01
    9.3886765512847838e-03 -5.3907169337509320e-01
    9.4383359150327101e-03 -5.3395354009382068e-01
    9.3403737931246292e-03 -5.4418502281466175e-01
    9.3886765512847838e-03 -5.3907169337509320e-01
    9.3886765512847838e-03 -5.3907169337509320e-01
    9.3403737931246292e-03 -5.4418502281466175e-01
    9.2933811673260799e-03 -5.4929421800255140e-01
    9.1176618044070956e-03 -5.6970290810980762e-01
    8.9976716577282768e-03 -5.8499762582614145e-01
    8.5468255320256207e-03 -6.5671882937302828e-01
    8.3985432851639112e-03 -6.8787406675009721e-01
    8.1185963787420920e-03 -7.6777189594991435e-01
    7.9815583199927629e-03 -8.2894561823368551e-01
    7.8994633724369309e-03 -8.8712019959006139e-01
    7.8994633724369309e-03 -8.8712019959006139e-01
    7.9277300937825208e-03 -8.6351881269859609e-01
    7.8515784255251790e-03 -9.5466874101087607e-01
    7.8446856330232385e-03 -9.8032594632548686e-01
    7.8438253097550172e-03 -1.0133339220532849e+00
    7.8446856330232368e-03 -1.0200688900954387e+00
    7.8603931440504125e-03 -9.3582925660375027e-01
    7.8723663317123490e-03 -9.1731314971178002e-01
    8.0897558031197189e-03 -7.7870596422745109e-01
    9.0766001138150153e-03 -5.7480124892951046e-01
    1.6150900599579864e-02 -2.5910964703630607e-01
    9.6515604991818590e-03 -5.1341827622303504e-01
    8.7842696520755558e-03 -6.1562605028536133e-01
    8.2918546152246850e-03 -7.1414284285428498e-01
    7.8875412351978799e-03 -8.9910134775393047e-01
    7.8446856330232385e-03 -9.8032594632548686e-01
    7.8438253097550172e-03 -1.0133339220532849e+00
    7.8431372549019607e-03 -1. 7.8515784255251790e-03
    -9.5466874101087607e-01 7.8821240272367952e-03
    -9.0513927571050357e-01 7.8821240272367952e-03
    -9.0513927571050357e-01 7.9815583199927629e-03
    -8.2894561823368551e-01 8.0498533289682390e-03
    -7.9525620552903120e-01 8.4453915066567686e-03
    -6.7744903724755035e-01 8.7842696520755558e-03
    -6.1562605028536133e-01 8.9227923313431722e-03
    -5.9519752157254369e-01 8.9597409248028601e-03
    -5.9009684435208243e-01 9.1598337489855516e-03
    -5.6460365972637760e-01 9.1176618044070956e-03
    -5.6970290810980762e-01 9.0766001138150153e-03
    -5.7480124892951046e-01 9.0366143135840703e-03
    -5.7989928939489821e-01 9.0766001138150153e-03
    -5.7480124892951046e-01 9.0766001138150153e-03
    -5.7480124892951046e-01 8.9597409248028601e-03
    -5.9009684435208243e-01 8.8175614693187365e-03
    -6.1051394146839322e-01 8.4947801821095310e-03
    -6.6706527158519047e-01 8.1492906144157093e-03
    -7.5691258852437304e-01 8.0374234077924857e-03
    -8.0081480245190695e-01 8.0254193910867851e-03
    -8.0639520338585591e-01 7.8994633724369309e-03
    -8.8712019959006139e-01 7.8994633724369309e-03
    -8.8712019959006139e-01 7.9128523030147484e-03
    -8.7526103040466119e-01 7.8541679109112132e-03
    -9.4835176447475955e-01 7.8431372549019607e-03 -1.
    7.8438253097550172e-03 -9.8684153193424473e-01
    7.8433092516400609e-03 -1.0066445913694329e+00
    7.8515784255251790e-03 -9.5466874101087607e-01
    7.8933202317827359e-03 -8.9309520635766915e-01
    8.0026678134276011e-03 -8.1762356087188282e-01
    8.8867974513075782e-03 -6.0030022518766424e-01
    1.7014526667715805e-02 -2.4423169902168218e-01
    1.0161011459222687e-02 -4.7188140965429864e-01
    8.8517291410407997e-03 -6.0540551459668124e-01
    8.3328022944528686e-03 -7.0359754473029190e-01
    8.0498533289682390e-03 -7.9525620552903120e-01
    7.8603931440504125e-03 -9.3582925660375027e-01
    7.8474405709950922e-03 -9.6741792204684540e-01
    7.8433092516400627e-03 -9.9339926779878274e-01
    7.8446856330232385e-03 -9.8032594632548686e-01
    7.8770664082188496e-03 -9.1120965222226991e-01
    7.8680219022060106e-03 -9.2345045140295379e-01
    7.9528933050870866e-03 -8.4611411222664934e-01
    8.0627147609871816e-03 -7.8971888288079750e-01
    8.3328022944528686e-03 -7.0359754473029190e-01
    8.5468255320256207e-03 -6.5671882937302828e-01
    8.7842696520755558e-03 -6.1562605028536133e-01
    8.7842696520755558e-03 -6.1562605028536133e-01
    8.8517291410407997e-03 -6.0540551459668124e-01
    8.9227923313431722e-03 -5.9519752157254369e-01
    8.8175614693187365e-03 -6.1051394146839322e-01
    8.9976716577282768e-03 -5.8499762582614145e-01
    8.9227923313431722e-03 -5.9519752157254369e-01
    8.8517291410407997e-03 -6.0540551459668124e-01
    8.7842696520755558e-03 -6.1562605028536133e-01
    8.6016537688661139e-03 -6.4640573604111407e-01
    8.3985432851639112e-03 -6.8787406675009721e-01
    8.1337082307961425e-03 -7.6233315057180395e-01
    8.1039478701034062e-03 -7.7322933071864119e-01
    8.0026678134276011e-03 -8.1762356087188282e-01
    7.8875412351978799e-03 -8.9910134775393047e-01
    7.9277300937825208e-03 -8.6351881269859609e-01
    7.9128523030147484e-03 -8.7526103040466119e-01
    7.8770664082188496e-03 -9.1120965222226991e-01
    7.8433092516400609e-03 -1.0066445913694329e+00
    7.8438253097550172e-03 -9.8684153193424473e-01
    7.8515784255251790e-03 -9.5466874101087607e-01
    7.8723663317123490e-03 -9.1731314971178002e-01
    7.9357349392405394e-03 -8.5769002787023574e-01
    8.0760135526625094e-03 -7.8420230937691415e-01
    9.2031520290383906e-03 -5.5950288494418821e-01
    1.7014526667715805e-02 -2.4423169902168218e-01
    1.1448657957572153e-02 -3.9634344021992335e-01
    9.2031520290383906e-03 -5.5950288494418821e-01
    8.5468255320256207e-03 -6.5671882937302828e-01
    8.0374234077924857e-03 -8.0081480245190695e-01
    7.9128523030147484e-03 -8.7526103040466119e-01
    7.8474405709950922e-03 -9.6741792204684540e-01
    7.8446856330232385e-03 -9.8032594632548686e-01
    7.8438253097550172e-03 -1.0133339220532849e+00
    7.8433092516400609e-03 -1.0066445913694329e+00
    7.8438253097550172e-03 -9.8684153193424473e-01
    7.9059731710801433e-03 -8.8117568522701195e-01
    7.9528933050870866e-03 -8.4611411222664934e-01
    8.2164798440306375e-03 -7.3540215292764277e-01
    8.2531074190242294e-03 -7.2474307533947868e-01
    8.4947801821095310e-03 -6.6706527158519047e-01
    8.5468255320256207e-03 -6.5671882937302828e-01
    8.6594020929601761e-03 -6.3612197163020368e-01
    8.7842696520755558e-03 -6.1562605028536133e-01
    8.5738834846043749e-03 -6.5155836414460400e-01
    8.6594020929601761e-03 -6.3612197163020368e-01
    8.6301538859502383e-03 -6.4126044106199787e-01
    8.5204631297462821e-03 -6.6188763252929728e-01
    8.4453915066567686e-03 -6.7744903724755035e-01
    8.3120480846558403e-03 -7.0886357092818275e-01
    8.1818972232510726e-03 -7.4612400506071030e-01
    8.0627147609871816e-03 -7.8971888288079750e-01
    8.0627147609871816e-03 -7.8971888288079750e-01
    8.0138359074584092e-03 -8.1199794294115013e-01
    7.9201036080404942e-03 -8.6937561127994167e-01
    7.9528933050870866e-03 -8.4611411222664934e-01
    7.8770664082188496e-03 -9.1120965222226991e-01
    7.8723663317123490e-03 -9.1731314971178002e-01
    7.8438253097550172e-03 -1.0133339220532849e+00
    7.8571057605466236e-03 -9.4207218407083859e-01
    7.8640313729626769e-03 -9.2962225170452828e-01
    7.8821240272367952e-03 -9.0513927571050357e-01
    7.9277300937825208e-03 -8.6351881269859609e-01
    8.0897558031197189e-03 -7.7870596422745109e-01
    9.5419230783289708e-03 -5.2369991729570431e-01
    1.7014526667715805e-02 -2.4423169902168218e-01
    1.2741187043078866e-02 -3.4426518632954817e-01
    9.9553802460786347e-03 -4.8754991337583775e-01
    8.8867974513075782e-03 -6.0030022518766424e-01
    8.1185963787420920e-03 -7.6777189594991435e-01
    7.9357349392405394e-03 -8.5769002787023574e-01
    7.8994633724369309e-03 -8.8712019959006139e-01
    7.8458905613204930e-03 -9.7385168109635323e-01
    7.8431372549019607e-03 -1. 7.8515784255251773e-03
    -1.0474837574980442e+00 7.8438253097550172e-03
    -9.8684153193424473e-01 7.8493362753914442e-03
    -9.6102387014105517e-01 7.9441214985675433e-03
    -8.5188865805003267e-01 8.0498533289682390e-03
    -7.9525620552903120e-01 8.1492906144157093e-03
    -7.5691258852437304e-01 8.2722111616705708e-03
    -7.1943584821615081e-01 8.2918546152246850e-03
    -7.1414284285428498e-01 8.3120480846558403e-03
    -7.0886357092818275e-01 8.4453915066567686e-03
    -6.7744903724755035e-01 8.4453915066567686e-03
    -6.7744903724755035e-01 8.3985432851639112e-03
    -6.8787406675009721e-01 8.4216567374779134e-03
    -6.8265614878628911e-01 8.2722111616705708e-03
    -7.1943584821615081e-01 8.1989373522683220e-03
    -7.4075498561801711e-01 8.1185963787420920e-03
    -7.6777189594991435e-01 8.0498533289682390e-03
    -7.9525620552903120e-01 8.0254193910867851e-03
    -8.0639520338585591e-01 8.0498533289682390e-03
    -7.9525620552903120e-01 7.9441214985675433e-03
    -8.5188865805003267e-01 7.9277300937825208e-03
    -8.6351881269859609e-01 7.9201036080404942e-03
    -8.6937561127994167e-01 7.8515784255251790e-03
    -9.5466874101087607e-01 7.8571057605466236e-03
    -9.4207218407083859e-01 7.8458905613204930e-03
    -9.7385168109635323e-01 7.8770664082188496e-03
    -9.1120965222226991e-01 7.8640313729626769e-03
    -9.2962225170452828e-01 7.9201036080404942e-03
    -8.6937561127994167e-01 8.0760135526625094e-03
    -7.8420230937691415e-01 8.1989373522683220e-03
    -7.4075498561801711e-01 1.1448657957572153e-02
    -3.9634344021992335e-01 1.5417144935771756e-02
    -2.7337354679158199e-01 1.4499023164320227e-02
    -2.9382126412463505e-01 1.0309299440345403e-02
    -4.6135821833201368e-01 8.8867974513075782e-03
    -6.0030022518766424e-01 8.4697612471847129e-03
    -6.7225224203648204e-01 7.9919101867330922e-03
    -8.2327260234856459e-01 7.8640313729626769e-03
    -9.2962225170452828e-01 7.8493362753914442e-03
    -9.6102387014105517e-01 7.8603931440504125e-03
    -9.3582925660375027e-01 7.8431372549019607e-03 -1.
    7.8433092516400609e-03 -1.0066445913694329e+00
    7.8458905613204930e-03 -1.0268504120403723e+00
    7.8474405709950922e-03 -9.6741792204684540e-01
    7.9059731710801433e-03 -8.8117568522701195e-01
    7.9201036080404942e-03 -8.6937561127994167e-01
    8.0374234077924857e-03 -8.0081480245190695e-01
    8.1653510144374698e-03 -7.5150970677579298e-01
    8.1337082307961425e-03 -7.6233315057180395e-01
    8.0627147609871816e-03 -7.8971888288079750e-01
    8.1818972232510726e-03 -7.4612400506071030e-01
    8.1337082307961425e-03 -7.6233315057180395e-01
    8.1653510144374698e-03 -7.5150970677579298e-01
    8.0374234077924857e-03 -8.0081480245190695e-01
    7.9815583199927629e-03 -8.2894561823368551e-01
    7.9716077147026672e-03 -8.3464316536059047e-01
    7.9716077147026672e-03 -8.3464316536059047e-01
    7.9357349392405394e-03 -8.5769002787023574e-01
    7.9441214985675433e-03 -8.5188865805003267e-01
    7.9128523030147484e-03 -8.7526103040466119e-01
    7.9277300937825208e-03 -8.6351881269859609e-01
    7.8770664082188496e-03 -9.1120965222226991e-01
    7.8446856330232385e-03 -9.8032594632548686e-01
    7.8723663317123490e-03 -9.1731314971178002e-01
    7.8680219022060106e-03 -9.2345045140295379e-01
    7.8875412351978799e-03 -8.9910134775393047e-01
    7.9441214985675433e-03 -8.5188865805003267e-01
    8.0026678134276011e-03 -8.1762356087188282e-01
    8.1337082307961425e-03 -7.6233315057180395e-01
    8.7842696520755558e-03 -6.1562605028536133e-01
    1.2921153034336899e-02 -3.3821759846501054e-01
    1.7507484665559115e-02 -2.3652495839563306e-01
    1.3744170483299543e-02 -3.1333978072025609e-01
    1.1448657957572153e-02 -3.9634344021992335e-01
    9.0366143135840703e-03 -5.7989928939489821e-01
    8.6301538859502383e-03 -6.4126044106199787e-01
    8.2345334849928554e-03 -7.3006501344597252e-01
    7.9357349392405394e-03 -8.5769002787023574e-01
    7.8493362753914442e-03 -9.6102387014105517e-01
    7.8515784255251790e-03 -9.5466874101087607e-01
    7.8541679109112132e-03 -9.4835176447475955e-01
    7.8493362753914442e-03 -1.0405568800837630e+00
    7.8438253097550172e-03 -9.8684153193424473e-01
    7.8541679109112132e-03 -9.4835176447475955e-01
    7.8446856330232385e-03 -9.8032594632548686e-01
    7.8640313729626769e-03 -9.2962225170452828e-01
    7.8933202317827359e-03 -8.9309520635766915e-01
    7.9357349392405394e-03 -8.5769002787023574e-01
    7.9201036080404942e-03 -8.6937561127994167e-01
    7.9528933050870866e-03 -8.4611411222664934e-01
    7.9716077147026672e-03 -8.3464316536059047e-01
    7.9528933050870866e-03 -8.4611411222664934e-01
    7.9716077147026672e-03 -8.3464316536059047e-01
    7.9277300937825208e-03 -8.6351881269859609e-01
    7.9201036080404942e-03 -8.6937561127994167e-01
    7.9128523030147484e-03 -8.7526103040466119e-01
    7.9128523030147484e-03 -8.7526103040466119e-01
    7.8933202317827359e-03 -8.9309520635766915e-01
    7.8994633724369309e-03 -8.8712019959006139e-01
    7.9128523030147484e-03 -8.7526103040466119e-01
    7.9201036080404942e-03 -8.6937561127994167e-01
    7.8603931440504125e-03 -9.3582925660375027e-01
    7.8474405709950922e-03 -9.6741792204684540e-01
    7.8541679109112132e-03 -9.4835176447475955e-01
    7.8680219022060106e-03 -9.2345045140295379e-01
    7.8994633724369309e-03 -8.8712019959006139e-01
    7.9815583199927629e-03 -8.2894561823368551e-01
    8.1989373522683220e-03 -7.4075498561801711e-01
    8.3760380386262087e-03 -6.9310328008367195e-01
    9.6515604991818590e-03 -5.1341827622303504e-01
    1.3310256968080306e-02 -3.2592500092368831e-01
    1.6564233346771248e-02 -2.5175440748900674e-01
    1.4784299193103773e-02 -2.8711892307136960e-01
    1.3110573305544548e-02 -3.3210558207753577e-01
    9.8284142820297179e-03 -4.9792959773196915e-01
    8.8517291410407997e-03 -6.0540551459668124e-01
    8.4453915066567686e-03 -6.7744903724755035e-01
    8.1653510144374698e-03 -7.5150970677579298e-01
    7.9441214985675433e-03 -8.5188865805003267e-01
    7.9528933050870866e-03 -8.4611411222664934e-01
    7.8770664082188496e-03 -9.1120965222226991e-01
    7.8458905613204930e-03 -1.0268504120403723e+00
    7.8821240272367952e-03 -1.1048023512348792e+00
    7.8680219022060106e-03 -1.0828951336595789e+00
    7.8821240272367952e-03 -1.1048023512348792e+00
    7.8680219022060106e-03 -1.0828951336595789e+00
    7.8438253097550172e-03 -9.8684153193424473e-01
    7.8821240272367952e-03 -9.0513927571050357e-01
    7.8994633724369309e-03 -8.8712019959006139e-01
    7.8821240272367952e-03 -9.0513927571050357e-01
    7.9620540755588210e-03 -8.4036580681601791e-01
    7.8875412351978799e-03 -8.9910134775393047e-01
    7.9277300937825208e-03 -8.6351881269859609e-01
    7.8821240272367952e-03 -9.0513927571050357e-01
    7.8640313729626769e-03 -9.2962225170452828e-01
    7.8770664082188496e-03 -9.1120965222226991e-01
    7.8770664082188496e-03 -9.1120965222226991e-01
    7.8821240272367952e-03 -9.0513927571050357e-01
    7.9128523030147484e-03 -8.7526103040466119e-01
    7.9441214985675433e-03 -8.5188865805003267e-01
    7.8933202317827359e-03 -8.9309520635766915e-01
    7.8433092516400627e-03 -9.9339926779878274e-01
    7.8458905613204930e-03 -9.7385168109635323e-01
    7.8821240272367952e-03 -9.0513927571050357e-01
    7.9620540755588210e-03 -8.4036580681601791e-01
    8.0138359074584092e-03 -8.1199794294115013e-01
    8.1653510144374698e-03 -7.5150970677579298e-01
    8.3120480846558403e-03 -7.0886357092818275e-01
    8.7842696520755558e-03 -6.1562605028536133e-01
    1.1115540139462740e-02 -4.1296808067805285e-01
    1.8050123787121852e-02 -2.2861497842960624e-01
    1.6564233346771248e-02 -2.5175440748900674e-01
    1.3980591541594653e-02 -3.0692490702242570e-01
    1.2741187043078866e-02 -3.4426518632954817e-01
    1.0913595774210522e-02 -4.2389562394532920e-01
    9.3403737931246292e-03 -5.4418502281466175e-01
    8.5204631297462821e-03 -6.6188763252929728e-01
    8.3120480846558403e-03 -7.0886357092818275e-01
    8.1337082307961425e-03 -7.6233315057180395e-01
    7.9357349392405394e-03 -8.5769002787023574e-01
    7.9128523030147484e-03 -8.7526103040466119e-01
    7.8493362753914442e-03 -9.6102387014105517e-01
    7.8438253097550172e-03 -1.0133339220532849e+00
    7.8723663317123490e-03 -1.0901402648748688e+00
    7.8994633724369292e-03 -1.1272429603813559e+00
    7.9059731710801450e-03 -1.1348474733984248e+00
    7.8640313729626769e-03 -1.0757057484009542e+00
    7.8493362753914442e-03 -1.0405568800837630e+00
    7.8433092516400609e-03 -1.0066445913694329e+00
    7.8458905613204930e-03 -9.7385168109635323e-01
    7.8571057605466236e-03 -9.4207218407083859e-01
    7.8515784255251790e-03 -9.5466874101087607e-01
    7.8723663317123490e-03 -9.1731314971178002e-01
    7.8541679109112132e-03 -9.4835176447475955e-01
    7.8541679109112132e-03 -9.4835176447475955e-01
    7.8723663317123490e-03 -9.1731314971178002e-01
    7.8994633724369309e-03 -8.8712019959006139e-01
    7.8933202317827359e-03 -8.9309520635766915e-01
    7.8994633724369309e-03 -8.8712019959006139e-01
    7.8541679109112132e-03 -9.4835176447475955e-01
    7.8515784255251790e-03 -9.5466874101087607e-01
    7.8438253097550172e-03 -1.0133339220532849e+00
    7.8603931440504125e-03 -9.3582925660375027e-01
    7.9128523030147484e-03 -8.7526103040466119e-01
    7.9919101867330922e-03 -8.2327260234856459e-01
    8.1818972232510726e-03 -7.4612400506071030e-01
    8.2918546152246850e-03 -7.1414284285428498e-01
    8.4453915066567686e-03 -6.7744903724755035e-01
    9.9553802460786347e-03 -4.8754991337583775e-01
    1.4231703056790990e-02 -3.0042088406305484e-01
    1.9321736938871879e-02 -2.1209125149788172e-01
    1.9321736938871879e-02 -2.1209125149788172e-01
    1.3744170483299543e-02 -3.1333978072025609e-01
    1.3521113719393921e-02 -3.1967136409428010e-01
    1.2741187043078866e-02 -3.4426518632954817e-01
    1.0913595774210522e-02 -4.2389562394532920e-01
    8.9227923313431722e-03 -5.9519752157254369e-01
    8.6894174415143265e-03 -6.3098981620003036e-01
    8.2918546152246850e-03 -7.1414284285428498e-01
    8.3541284064396377e-03 -6.9834427688930012e-01
    8.0026678134276011e-03 -8.1762356087188282e-01
    7.8875412351978799e-03 -8.9910134775393047e-01
    7.8458905613204930e-03 -9.7385168109635323e-01
    7.8640313729626769e-03 -1.0757057484009542e+00
    7.8640313729626769e-03 -1.0757057484009542e+00
    7.8994633724369292e-03 -1.1272429603813559e+00
    7.8875412351978817e-03 -1.1122216672215293e+00
    7.8821240272367952e-03 -1.1048023512348792e+00
    7.9059731710801450e-03 -1.1348474733984248e+00
    7.8640313729626769e-03 -1.0757057484009542e+00
    7.8438253097550172e-03 -1.0133339220532849e+00
    7.8515784255251773e-03 -1.0474837574980442e+00
    7.8515784255251790e-03 -9.5466874101087607e-01
    7.8446856330232385e-03 -9.8032594632548686e-01
    7.8571057605466236e-03 -9.4207218407083859e-01
    7.8541679109112132e-03 -9.4835176447475955e-01
    7.8603931440504125e-03 -9.3582925660375027e-01
    7.8680219022060106e-03 -9.2345045140295379e-01
    7.8458905613204930e-03 -9.7385168109635323e-01
    7.8474405709950922e-03 -9.6741792204684540e-01
    7.8438253097550172e-03 -9.8684153193424473e-01
    7.8474405709950922e-03 -9.6741792204684540e-01
    7.8821240272367952e-03 -9.0513927571050357e-01
    8.1185963787420920e-03 -7.6777189594991435e-01
    8.2722111616705708e-03 -7.1943584821615081e-01
    8.2722111616705708e-03 -7.1943584821615081e-01
    8.4453915066567686e-03 -6.7744903724755035e-01
    9.6515604991818590e-03 -5.1341827622303504e-01
    1.1693824851987250e-02 -3.8508307335434838e-01
    1.6150900599579864e-02 -2.5910964703630607e-01
    2.1916708772517331e-02 -1.8505830254940131e-01
    2.0932636189741304e-02 -1.9442398845107403e-01
    1.8050123787121852e-02 -2.2861497842960624e-01
    1.5417144935771756e-02 -2.7337354679158199e-01
    1.3980591541594653e-02 -3.0692490702242570e-01
    1.2741187043078866e-02 -3.4426518632954817e-01
    1.0636737998067412e-02 -4.4008622942335202e-01
    9.2933811673260799e-03 -5.4929421800255140e-01
    8.7518299914497409e-03 -6.2074237886375316e-01
    8.3328022944528686e-03 -7.0359754473029190e-01
    8.2345334849928554e-03 -7.3006501344597252e-01
    7.9620540755588210e-03 -8.4036580681601791e-01
    7.8541679109112132e-03 -9.4835176447475955e-01
    7.8433092516400609e-03 -1.0066445913694329e+00
    7.8474405709950922e-03 -1.0336794235569033e+00
    7.8875412351978817e-03 -1.1122216672215293e+00
    7.8933202317827359e-03 -1.1197014527469284e+00
    7.9128523030147502e-03 -1.1425163068641000e+00
    7.8994633724369292e-03 -1.1272429603813559e+00
    7.8821240272367952e-03 -1.1048023512348792e+00
    7.9059731710801450e-03 -1.1348474733984248e+00
    7.8875412351978817e-03 -1.1122216672215293e+00
    7.8541679109112150e-03 -1.0544610528076002e+00
    7.8603931440504107e-03 -1.0685709951291045e+00
    7.8433092516400609e-03 -1.0066445913694329e+00
    7.8474405709950922e-03 -9.6741792204684540e-01
    7.8433092516400609e-03 -1.0066445913694329e+00
    7.8438253097550172e-03 -9.8684153193424473e-01
    7.8474405709950922e-03 -9.6741792204684540e-01
    7.8458905613204930e-03 -9.7385168109635323e-01
    7.8571057605466236e-03 -9.4207218407083859e-01
    7.8821240272367952e-03 -9.0513927571050357e-01
    7.9441214985675433e-03 -8.5188865805003267e-01
    8.1653510144374698e-03 -7.5150970677579298e-01
    8.2722111616705708e-03 -7.1943584821615081e-01
    8.3985432851639112e-03 -6.8787406675009721e-01
    9.4894008682446674e-03 -5.2882985633297275e-01
    1.1115540139462740e-02 -4.1296808067805285e-01
    1.2741187043078866e-02 -3.4426518632954817e-01
    2.0075997852302425e-02 -2.0341905108624311e-01
    2.6061939634699959e-02 -1.5404159684748153e-01
    2.3062782199577747e-02 -1.7526187135109578e-01
    2.0075997852302425e-02 -2.0341905108624311e-01
    1.6564233346771248e-02 -2.5175440748900674e-01
    1.5089554099427737e-02 -2.8030595529069408e-01
    1.5417144935771756e-02 -2.7337354679158199e-01
    1.3521113719393921e-02 -3.1967136409428010e-01
    1.1222320114059846e-02 -4.0745940414127885e-01
    9.4383359150327101e-03 -5.3395354009382068e-01
    8.6301538859502383e-03 -6.4126044106199787e-01
    8.3120480846558403e-03 -7.0886357092818275e-01
    8.2531074190242294e-03 -7.2474307533947868e-01
    7.9716077147026672e-03 -8.3464316536059047e-01
    7.8680219022060106e-03 -9.2345045140295379e-01
    7.8438253097550172e-03 -9.8684153193424473e-01
    7.8571057605466253e-03 -1.0614897848685507e+00
    7.8770664082188496e-03 -1.0974422818735368e+00
    7.8994633724369292e-03 -1.1272429603813559e+00
    7.9201036080404925e-03 -1.1502508087703840e+00
    7.8994633724369292e-03 -1.1272429603813559e+00
    7.8994633724369292e-03 -1.1272429603813559e+00
    7.8821240272367952e-03 -1.1048023512348792e+00
    7.8770664082188496e-03 -1.0974422818735368e+00
    7.8680219022060106e-03 -1.0828951336595789e+00
    7.8933202317827359e-03 -1.1197014527469284e+00
    7.8640313729626769e-03 -1.0757057484009542e+00
    7.8438253097550172e-03 -1.0133339220532849e+00
    7.8446856330232385e-03 -9.8032594632548686e-01
    7.8493362753914442e-03 -9.6102387014105517e-01
    7.8438253097550172e-03 -9.8684153193424473e-01
    7.8603931440504125e-03 -9.3582925660375027e-01
    7.9201036080404942e-03 -8.6937561127994167e-01
    7.9919101867330922e-03 -8.2327260234856459e-01
    8.1653510144374698e-03 -7.5150970677579298e-01
    8.4947801821095310e-03 -6.6706527158519047e-01
    9.2476545519158803e-03 -5.5439995252462593e-01
    1.0550705236281328e-02 -4.4543540318737396e-01
    1.2569952963930672e-02 -3.5025216619694238e-01
    1.7014526667715805e-02 -2.4423169902168218e-01
    2.1916708772517331e-02 -1.8505830254940131e-01
    2.6061939634699959e-02 -1.5404159684748153e-01
    3.9543084336243470e-02 -1.0016708449412667e-01
    2.6061939634699959e-02 -1.5404159684748153e-01
    1.8651188047187357e-02 -2.2047927592204922e-01
    1.8651188047187357e-02 -2.2047927592204922e-01
    1.6150900599579864e-02 -2.5910964703630607e-01
    1.5769837222546556e-02 -2.6631182064565373e-01
    1.3521113719393921e-02 -3.1967136409428010e-01
    1.1012703431425132e-02 -4.1844626448875294e-01
    9.3403737931246292e-03 -5.4418502281466175e-01
    8.5204631297462821e-03 -6.6188763252929728e-01
    8.1492906144157093e-03 -7.5691258852437304e-01
    8.0498533289682390e-03 -7.9525620552903120e-01
    7.9128523030147484e-03 -8.7526103040466119e-01
    7.8515784255251790e-03 -9.5466874101087607e-01
    7.8433092516400609e-03 -1.0066445913694329e+00
    7.8474405709950922e-03 -1.0336794235569033e+00
    7.8770664082188496e-03 -1.0974422818735368e+00
    7.9059731710801450e-03 -1.1348474733984248e+00
    7.8933202317827359e-03 -1.1197014527469284e+00
    7.8723663317123490e-03 -1.0901402648748688e+00
    7.8680219022060106e-03 -1.0828951336595789e+00
    7.8821240272367952e-03 -1.1048023512348792e+00
    7.8933202317827359e-03 -1.1197014527469284e+00
    7.8640313729626769e-03 -1.0757057484009542e+00
    7.8446856330232368e-03 -1.0200688900954387e+00
    7.8474405709950922e-03 -9.6741792204684540e-01
    7.8571057605466236e-03 -9.4207218407083859e-01
    7.8603931440504125e-03 -9.3582925660375027e-01
    7.8770664082188496e-03 -9.1120965222226991e-01
    8.0138359074584092e-03 -8.1199794294115013e-01
    7.9919101867330922e-03 -8.2327260234856459e-01
    8.1337082307961425e-03 -7.6233315057180395e-01
    8.3760380386262087e-03 -6.9310328008367195e-01
    9.8909411963770937e-03 -4.9274572946852108e-01
    1.0233967706163020e-02 -4.6662826262869134e-01
    1.1693824851987250e-02 -3.8508307335434838e-01
    1.4499023164320227e-02 -2.9382126412463505e-01
    1.7507484665559115e-02 -2.3652495839563306e-01
    2.4420137436311905e-02 -1.6495721976846453e-01
    3.9543084336243470e-02 -1.0016708449412667e-01
    4.8349405380426133e-02 -8.1649658092772609e-02
    4.8349405380426133e-02 -8.1649658092772609e-02
    2.8102521050711243e-02 -1.4237369936287483e-01
    2.1916708772517331e-02 -1.8505830254940131e-01
    1.9321736938871879e-02 -2.1209125149788172e-01
    1.7507484665559115e-02 -2.3652495839563306e-01
    1.4499023164320227e-02 -2.9382126412463505e-01
    1.4499023164320227e-02 -2.9382126412463505e-01
    1.1115540139462740e-02 -4.1296808067805285e-01
    9.3886765512847838e-03 -5.3907169337509320e-01
    8.5738834846043749e-03 -6.5155836414460400e-01
    8.2345334849928554e-03 -7.3006501344597252e-01
    8.0138359074584092e-03 -8.1199794294115013e-01
    7.9528933050870866e-03 -8.4611411222664934e-01
    7.8515784255251790e-03 -9.5466874101087607e-01
    7.8433092516400627e-03 -9.9339926779878274e-01
    7.8433092516400609e-03 -1.0066445913694329e+00
    7.8438253097550172e-03 -1.0133339220532849e+00
    7.8571057605466253e-03 -1.0614897848685507e+00
    7.8723663317123490e-03 -1.0901402648748688e+00
    7.8640313729626769e-03 -1.0757057484009542e+00
    7.8474405709950922e-03 -1.0336794235569033e+00
    7.8431372549019607e-03 -1. 7.8446856330232368e-03
    -1.0200688900954387e+00 7.8515784255251790e-03
    -9.5466874101087607e-01 7.8541679109112132e-03
    -9.4835176447475955e-01 7.8680219022060106e-03
    -9.2345045140295379e-01 7.9716077147026672e-03
    -8.3464316536059047e-01 7.9716077147026672e-03
    -8.3464316536059047e-01 8.1653510144374698e-03
    -7.5150970677579298e-01 8.2918546152246850e-03
    -7.1414284285428498e-01 8.4697612471847129e-03
    -6.7225224203648204e-01 9.7087942356251858e-03
    -5.0826502273256347e-01 9.7677227447073248e-03
    -5.0310240825802133e-01 1.0550705236281328e-02
    -4.4543540318737396e-01 1.3980591541594653e-02
    -3.0692490702242570e-01 1.8050123787121852e-02
    -2.2861497842960624e-01 2.1916708772517331e-02
    -1.8505830254940131e-01 2.6061939634699959e-02
    -1.5404159684748153e-01 4.8349405380426133e-02
    -8.1649658092772609e-02 6.8262708292815277e-02
    -5.7639041770423498e-02 1. 0. 4.8349405380426133e-02
    -8.1649658092772609e-02 3.0732899495003914e-02
    -1.2974982402692051e-01 2.3062782199577747e-02
    -1.7526187135109578e-01 1.7507484665559115e-02
    -2.3652495839563306e-01 1.6564233346771248e-02
    -2.5175440748900674e-01 1.5417144935771756e-02
    -2.7337354679158199e-01 1.3980591541594653e-02
    -3.0692490702242570e-01 1.1448657957572153e-02
    -3.9634344021992335e-01 9.5959570839585125e-03
    -5.1856297884173153e-01 8.7842696520755558e-03
    -6.1562605028536133e-01 8.3760380386262087e-03
    -6.9310328008367195e-01 8.2531074190242294e-03
    -7.2474307533947868e-01 8.1185963787420920e-03
    -7.6777189594991435e-01 8.0760135526625094e-03
    -7.8420230937691415e-01 7.9357349392405394e-03
    -8.5769002787023574e-01 7.8875412351978799e-03
    -8.9910134775393047e-01 7.8603931440504125e-03
    -9.3582925660375027e-01 7.8541679109112132e-03
    -9.4835176447475955e-01 7.8723663317123490e-03
    -9.1731314971178002e-01 7.8680219022060106e-03
    -9.2345045140295379e-01 7.8723663317123490e-03
    -9.1731314971178002e-01 7.9128523030147484e-03
    -8.7526103040466119e-01 7.9357349392405394e-03
    -8.5769002787023574e-01 7.9357349392405394e-03
    -8.5769002787023574e-01 7.9815583199927629e-03
    -8.2894561823368551e-01 8.1337082307961425e-03
    -7.6233315057180395e-01 8.2722111616705708e-03
    -7.1943584821615081e-01 8.3328022944528686e-03
    -7.0359754473029190e-01 8.7202198188179071e-03
    -6.2586345885058992e-01 9.3403737931246292e-03
    -5.4418502281466175e-01 9.5959570839585125e-03
    -5.1856297884173153e-01 9.8284142820297179e-03
    -4.9792959773196915e-01 1.2569952963930672e-02
    -3.5025216619694238e-01 1.5417144935771756e-02
    -2.7337354679158199e-01 1.9321736938871879e-02
    -2.1209125149788172e-01 3.4302726039563657e-02
    -1.1585688927269844e-01 4.8349405380426133e-02
    -8.1649658092772609e-02 4.8349405380426133e-02
    -8.1649658092772609e-02 6.8262708292815277e-02
    -5.7639041770423498e-02 1. 0. 6.8262708292815277e-02
    -5.7639041770423498e-02 4.8349405380426133e-02
    -8.1649658092772609e-02 3.0732899495003914e-02
    -1.2974982402692051e-01 2.0932636189741304e-02
    -1.9442398845107403e-01 2.1916708772517331e-02
    -1.8505830254940131e-01 1.7507484665559115e-02
    -2.3652495839563306e-01 1.5417144935771756e-02
    -2.7337354679158199e-01 1.3521113719393921e-02
    -3.1967136409428010e-01 1.1824233592006041e-02
    -3.7939345531966401e-01 1.0309299440345403e-02
    -4.6135821833201368e-01 9.4383359150327101e-03
    -5.3395354009382068e-01 8.4453915066567686e-03
    -6.7744903724755035e-01 8.1653510144374698e-03
    -7.5150970677579298e-01 8.1818972232510726e-03
    -7.4612400506071030e-01 8.2164798440306375e-03
    -7.3540215292764277e-01 8.0498533289682390e-03
    -7.9525620552903120e-01 8.0760135526625094e-03
    -7.8420230937691415e-01 8.1039478701034062e-03
    -7.7322933071864119e-01 8.0254193910867851e-03
    -8.0639520338585591e-01 8.0897558031197189e-03
    -7.7870596422745109e-01 8.1492906144157093e-03
    -7.5691258852437304e-01 8.1337082307961425e-03
    -7.6233315057180395e-01 8.1337082307961425e-03
    -7.6233315057180395e-01 8.1337082307961425e-03
    -7.6233315057180395e-01 8.3985432851639112e-03
    -6.8787406675009721e-01 8.6594020929601761e-03
    -6.3612197163020368e-01 8.9597409248028601e-03
    -5.9009684435208243e-01 9.4894008682446674e-03
    -5.2882985633297275e-01 9.8284142820297179e-03
    -4.9792959773196915e-01 9.9553802460786347e-03
    -4.8754991337583775e-01 1.0913595774210522e-02
    -4.2389562394532920e-01 1.3521113719393921e-02
    -3.1967136409428010e-01 1.4499023164320227e-02
    -2.9382126412463505e-01 1.7014526667715805e-02
    -2.4423169902168218e-01 2.8102521050711243e-02
    -1.4237369936287483e-01 3.9543084336243470e-02
    -1.0016708449412667e-01 1. 0. 1. 0. 6.8262708292815277e-02
    -5.7639041770423498e-02 1. 0. 6.8262708292815277e-02
    -5.7639041770423498e-02 6.8262708292815277e-02
    -5.7639041770423498e-02 3.9543084336243470e-02
    -1.0016708449412667e-01 2.6061939634699959e-02
    -1.5404159684748153e-01 2.4420137436311905e-02
    -1.6495721976846453e-01 2.4420137436311905e-02
    -1.6495721976846453e-01 2.0075997852302425e-02
    -2.0341905108624311e-01 1.8651188047187357e-02
    -2.2047927592204922e-01 1.6150900599579864e-02
    -2.5910964703630607e-01 1.3744170483299543e-02
    -3.1333978072025609e-01 1.2251157119368477e-02
    -3.6205820294822399e-01 1.1824233592006041e-02
    -3.7939345531966401e-01 1.0161011459222687e-02
    -4.7188140965429864e-01 9.4383359150327101e-03
    -5.3395354009382068e-01 8.9227923313431722e-03
    -5.9519752157254369e-01 8.9976716577282768e-03
    -5.8499762582614145e-01 9.0766001138150153e-03
    -5.7480124892951046e-01 9.0766001138150153e-03
    -5.7480124892951046e-01 8.6894174415143265e-03
    -6.3098981620003036e-01 8.9227923313431722e-03
    -5.9519752157254369e-01 8.8175614693187365e-03
    -6.1051394146839322e-01 8.7842696520755558e-03
    -6.1562605028536133e-01 8.9597409248028601e-03
    -5.9009684435208243e-01 9.3403737931246292e-03
    -5.4418502281466175e-01 9.4894008682446674e-03
    -5.2882985633297275e-01 1.0233967706163020e-02
    -4.6662826262869134e-01 1.0818019086377622e-02
    -4.2931774420607882e-01 1.0467544448861018e-02
    -4.5076296542197858e-01 1.0913595774210522e-02
    -4.2389562394532920e-01 1.3310256968080306e-02
    -3.2592500092368831e-01 1.3110573305544548e-02
    -3.3210558207753577e-01 1.6564233346771248e-02
    -2.5175440748900674e-01 1.8050123787121852e-02
    -2.2861497842960624e-01 2.0932636189741304e-02
    -1.9442398845107403e-01 3.4302726039563657e-02
    -1.1585688927269844e-01 1. 0. 1. 0. 1. 0.</input_scale>
  <output_scale>
    1.0263157831995111e+00 2.5000005960464471e-02</output_scale>
  <inv_output_scale>
    9.7435898031552004e-01 -2.4358980315520085e-02</inv_output_scale>
  <weights>
    <_>
      -2.5136829217738421e-01 6.9991446818548256e-02
      4.5684530211154442e-02 2.0354355227657175e-02
      -2.9290085353423072e-02 2.1515282774981024e-02
      -1.8368708646801971e-02 4.9958133863653720e-02
      -5.1389246282134586e-02 -6.6149316343577080e-03
      2.2396889937485842e-02 -4.3004739949293824e-02
      1.6606880902787058e-02 8.1276252577465440e-03
      -4.0295692764401182e-02 2.2041907224734248e-02
      -2.0414606323897244e-02 -9.8026181434825582e-03
      5.3584500713297213e-04 2.0744567871196953e-02
      1.4721303465724230e-02 2.8181819184605834e-02
      2.0948482888104292e-02 2.9879741451695669e-03
      1.9170817216789957e-02 -4.5595660151864031e-02
      8.2568185249927827e-03 2.1269376636929668e-02
      2.3134751570004719e-02 2.0974154203498727e-02
      -3.4314790992764944e-02 8.5489309946100711e-03
      -1.5311315156769761e-01 2.4076695778587280e-02
      -3.2377234685654642e-02 2.8461054051096422e-02
      3.0322189695980998e-02 1.1735738505421383e-02
      6.9283438015992306e-03 7.7247874839298236e-02
      -1.2414507167041185e-01 -1.1484316316934629e-01
      -5.6324235795048465e-02 -4.7962539538348760e-02
      4.2311914092660101e-02 -1.7917950406884656e-02
      2.8586737363557980e-02 3.8558709403652039e-02
      2.3892855929668833e-02 -1.2963965850290349e-02
      -1.9282038316585287e-02 -3.7306078835337236e-02
      -1.8132149792142394e-02 2.2924697742291618e-02
      1.3762940329586288e-02 -3.2057435035892555e-02
      8.2414122911368941e-03 -2.9496805679590832e-02
      9.0841733361494790e-03 -9.2298419381640542e-03
      3.1830305093774630e-02 -2.4784637170458680e-02
      -9.4226413484764932e-03 -3.6745154013769495e-02
      -3.2544436048452877e-02 1.4043746796047470e-02
      -4.2515275560093713e-02 1.3634120212224798e-01
      -3.0326973154244690e-02 -1.6193725852990601e-02
      4.9907208035056556e-02 3.7593114045864094e-02
      -1.2123368723192274e-02 -3.2750011273254727e-02
      -3.2796441346531799e-02 -1.9473305731091000e-02
      -4.3980946048886818e-02 -2.2976996103059932e-02
      2.7707104684871444e-02 4.5271453774019546e-02
      -4.5514062233316288e-01 -1.2083041819811059e-01
      -1.2456423104660169e-01 -2.3294430310626096e-02
      8.2425803692615845e-02 -1.1337424337709127e-02
      5.4534697449375433e-02 7.7528578102380508e-02
      2.8804217327182132e-02 -1.5536064220408513e-01
      -1.7352811575949416e-02 -7.9503089878567801e-02
      -1.6814208615244061e-02 4.9084509179108615e-02
      1.6051012650324025e-03 -4.5303071350397288e-02
      2.9022847927217877e-03 -6.1313871465593466e-02
      9.2538806052185812e-02 -9.7490937466651481e-02
      6.6776740691220665e-02 -1.8716391660534619e-02
      -3.0260632966492501e-03 -9.4414382063692362e-02
      -3.1236170441408268e-02 8.2817181858474993e-03
      -1.3086282102148705e-01 1.3453485296878512e-01
      -5.3517024212507473e-02 -1.2997920958690233e-02
      1.0607816259694726e-01 1.2371579368900248e-01
      -8.1162903893810284e-02 -6.1962102772945456e-02
      -6.5717765121650493e-02 -1.4312734715685959e-02
      -9.3871546176162751e-02 -3.0742963864758426e-02
      1.0753407239246911e-01 9.2037724333105170e-02
      -1.2023837773188936e-01 -5.4672171833488936e-02
      -1.9035380939308250e-02 2.4879219787852624e-02
      -5.0076783943607765e-03 2.9213919286957216e-02
      -1.8268954536902447e-02 2.3914707890720605e-02
      -3.1332255125652186e-02 -2.8237141509556826e-03
      1.9462382079156813e-02 -2.8950070563893010e-02
      3.2221715072031212e-02 1.2134431822517881e-02
      -2.6591309260942025e-02 2.5101618593500002e-02
      -3.0622674974197905e-02 -1.3555056873177089e-02
      9.7684802527636693e-04 1.6249997525483825e-02
      1.2299975781692049e-02 2.6676007309622718e-02
      3.3325804571575565e-02 -8.6502975597645294e-03
      2.9373458993983224e-02 -2.9218069623436534e-02
      -2.4971719353674919e-02 -7.9946444726617771e-02
      2.7474413277519601e-02 1.8023012308323080e-02
      9.0953570504801566e-03 1.2422479898099303e-02
      4.5824514857805915e-03 2.1361478019195277e-02
      -5.0960776724532392e-02 4.1597053063001821e-02
      -1.3428922037597945e-02 7.7085397412448419e-03
      2.7032342190762268e-02 3.7456436211398464e-02
      1.8807864028090697e-02 -1.2126935890675069e-02
      -3.9889020600930442e-02 -1.7944057584940921e-02
      9.8043720819589106e-03 -9.5356260493408944e-03
      -1.0859090788978063e-02 2.2038796113307779e-02
      1.7636714209749917e-03 -2.2453245181643798e-03
      -5.6856780250468073e-04 -1.6986742555384765e-02
      -1.2756563687286185e-02 1.2354884886019407e-02
      2.0552412717962480e-03 -9.4226881339156705e-03
      9.3700846453928146e-03 -1.4768212302595994e-02
      1.0319118250195203e-03 2.6029597577003634e-02
      1.3301120259571675e-02 -7.3109603097446588e-03
      -9.4801283566230635e-03 -2.8713620046490894e-03
      -7.7614536202952975e-03 -8.2626821898205000e-03
      -2.1693977762011967e-02 3.8437806195760552e-03
      8.9617439105952931e-03 -1.5890582841230872e-03
      8.7552253777599016e-03 4.1902398383731401e-03
      -7.6673111661991239e-04 4.9785601135481456e-03
      -3.2765543588275728e-02 2.9982931731543021e-02
      -1.4938023560820891e-02 -4.9559449850135242e-03
      2.7603119690837181e-02 3.6695460991448457e-02
      -2.4066951974690727e-02 2.2884603321027413e-02
      -4.5559397519830645e-03 -3.3852228336636585e-02
      5.0538966136386056e-04 -3.1718863873766313e-03
      -1.1212119813130235e-02 1.9399069716280217e-02
      -2.1966948074772083e-03 -5.0054352114490596e-03
      5.8629911837320518e-03 -1.3341193957207561e-02
      -3.9990894325425659e-03 1.0075409955099647e-02
      -4.8512371119821150e-03 -1.6638815225717144e-02
      2.0179261235229169e-03 -1.1066885753892235e-02
      9.7470409999341953e-04 2.1446213832736708e-02
      7.7775190641405688e-03 -1.3796437625795955e-02
      -1.9243089790261128e-03 -3.1110132104636402e-03
      -1.5971617468607861e-02 -7.2917564173581358e-03
      4.1090137749055081e-02 1.7835065862295524e-02
      1.5153512348478256e-02 4.0874230750406054e-03
      -8.8876071959829248e-03 -2.1791104529151343e-02
      -2.7352513462011218e-03 1.4543751469405536e-02
      -1.7339555858112525e-02 1.9732655998090331e-02
      -2.1736136237524739e-02 1.7186879444652465e-03
      4.6397198561869281e-02 4.1498862385218230e-02
      -1.0113055846168648e-01 1.3009269618518933e-02
      3.6156755188271238e-02 1.2037025974024344e-02
      -3.7030962839490885e-03 7.2654428858624229e-03
      -2.6724868908946334e-02 3.3099285703879017e-02
      -6.8670099919241152e-03 -1.0990006598511825e-02
      1.2576998216016483e-02 -2.1869121587106369e-02
      9.3943369170229780e-03 1.6315982501565046e-02
      -1.1215470943378903e-02 -1.1566854218679503e-03
      -6.9237236193720039e-03 -1.5973060616735882e-02
      7.5103720759688948e-03 5.3131012448047875e-02
      1.2247571160971837e-02 -4.6306467070344037e-03
      5.9515377414498718e-03 8.0977582669201492e-03
      -2.2206282252593920e-03 -1.5760214029432746e-02
      3.3889043642075220e-02 1.9536654607065260e-02
      3.1003801250585411e-02 8.3100655318003782e-03
      -1.9652884265940876e-02 -5.5635656258805039e-02
      -8.4194852440954444e-03 2.7815120554858842e-02
      -4.0274478984920474e-02 2.8641197710139739e-02
      -7.5641295777132299e-03 3.4675575278835555e-03
      3.9733324876939828e-03 4.9184495002174852e-02
      5.1255267423201988e-02 1.7337516852228844e-02
      2.1563673055468680e-02 -6.9408035822997836e-03
      -1.1431739995996603e-02 -4.5511329562346881e-02
      2.5533483475365520e-03 2.5370275025692317e-03
      3.7507424762428201e-02 -1.0773762828623516e-02
      -5.9862000618080783e-04 6.8202538698920500e-03
      -4.5195502030896478e-02 3.3854637543912634e-03
      2.6490102123977333e-02 -4.3162148565549070e-02
      3.9236378705073856e-02 3.0610464881916368e-03
      1.0072107968704610e-02 -2.5965230461420397e-02
      -5.3533816298973616e-03 -4.3385176593753037e-02
      -4.1174168669900243e-02 1.8862854025144319e-02
      -4.0685056773381523e-02 2.2252439470270405e-02
      -2.9359214713240652e-02 3.2712665573613131e-02
      4.9528310638084858e-03 -6.6755117592440291e-03
      -2.8297509259735440e-02 -2.6465692949795151e-02
      -1.7711872831512522e-02 7.1674470923415393e-03
      5.5008056370483577e-03 -3.2521951321656008e-03
      4.0881064739436337e-03 2.7105479942560332e-03
      -8.7382768143579401e-03 -4.0384576771972915e-02
      2.5375973591877737e-02 -6.5496106701366718e-03
      -4.8808772975546949e-02 -4.9082823903919624e-02
      3.9046376620165704e-02 -5.4465801953482856e-02
      2.1410340043620777e-02 4.6173611455081883e-03
      3.1426836142830192e-02 -1.7999568433897849e-02
      -2.0238958495382490e-02 -8.6498486934976932e-03
      -3.5475438717211247e-02 6.9741184054419349e-03
      1.2068966648116523e-02 -4.1041791813335622e-02
      3.7063642565040918e-02 -7.2264659232647776e-03
      1.3201726595755477e-02 1.8007926658790360e-02
      7.2726206724929672e-03 -4.0420448145109283e-02
      -3.4325109419804406e-02 -2.2135771701417575e-02
      -3.6177952380501699e-02 1.5178509105645079e-02
      -6.2522086504691612e-02 7.2457360048081509e-02
      -2.4980434554263065e-02 -1.6238168884859294e-02
      5.3632361286085818e-02 8.3059134390791281e-02
      -1.6145080339207349e-02 -2.9384311793659117e-02
      5.1716538330612884e-03 1.4832248249190498e-04
      -4.0471197964243602e-02 -1.7166198057231036e-02
      4.1816247639549678e-02 1.5212852462977917e-03
      -8.1886912756738039e-02 2.0899502368056544e-02
      4.3710459367698448e-02 -5.1115594785099226e-04
      -1.9521504544471841e-02 -2.4217227994233533e-02
      -1.1500485916826375e-02 1.5481579968813686e-02
      9.4109814331741985e-03 8.2016377241373121e-03
      1.1760954748703895e-02 5.0185591222735920e-03
      -2.9313030711361935e-02 3.5704421838335856e-03
      -2.4546015834816218e-03 -1.1982050168792871e-02
      2.1450312438295951e-02 4.3239455345630510e-03
      -3.0024030357597056e-02 5.7734714598202310e-04
      -6.4436387435005543e-03 -9.8653741726234066e-03
      -2.2452471179580234e-02 2.1873519570315428e-02
      -8.2175283913911105e-03 1.1784437451853974e-02
      -2.3146953470434790e-02 1.2752667502421522e-02
      1.4908811497328606e-02 4.7591826378937290e-03
      -3.8061081643786902e-02 -2.8141816110328642e-02
      3.3159514684061614e-02 1.8397138877603282e-02
      -1.5441063239067677e-02 3.1852781067843908e-02
      1.0558419764691185e-02 1.0635460216596561e-02
      -2.3626181539378881e-02 -2.0388366470285666e-02
      1.0647709981873379e+00 2.4238571836456495e-02
      5.7285243158175576e-02 5.8179920146948033e-02
      3.8713854048392426e-03 4.5761059891897944e-02
      -6.3244955804706487e-02 5.3430741657568670e-02
      -5.1081758732503715e-02 5.6917979729498476e-02
      -1.3222258445787682e-02 5.2845143781372783e-02
      3.7144626531325803e-02 3.4975443280764552e-02
      4.5921298195011069e-02 4.8071233884462654e-02
      -2.7647247994529597e-02 -3.0953293570463655e-02
      -7.9854067615076671e-02 1.0715487777065645e-01
      2.1874849652434174e-02 4.5864966960324396e-02
      2.3929552613465528e-02 4.3476177501071455e-03
      4.6722807091472932e-02 1.6683528423947620e-02
      -4.5931801523962458e-02 -8.2627198457483952e-02
      7.1357883642491460e-02 -2.1412924988545891e-02
      -3.5279049896402730e-02 -3.3929716979277436e-02
      8.7291755173602673e-02 7.7502505093664853e-02
      -1.8399484922112255e-02 2.1924860989329730e-02
      -1.3413074191397634e-02 -2.8050562694791049e-02
      -3.0237581845517891e-02 1.5202610366512912e-02
      -4.0648031032377407e-01 2.0744925330378174e-02
      6.7201808693483245e-02 -1.4058287265645938e-02
      -9.4042156337822494e-03 -1.0377862544659491e-02
      -6.2991971392897181e-03 -2.5310170867499041e-02
      3.3246122702719184e-02 4.2033566852651028e-02
      1.4486774525952262e-02 3.6995560510077775e-02
      -9.0386975823297574e-03 -1.8578597765461703e-02
      3.0570198233385523e-02 8.6966756833565841e-03
      3.9398754839065128e-03 2.5373992775096631e-02
      -4.5126124104573374e-02 6.8407280205209087e-02
      -2.9515005001243780e-02 1.0585908069683531e-02
      -8.4471055905079098e-03 1.1689753578128185e-02
      1.1780010001754833e-02 3.4791254756014862e-03
      -2.4597295185374577e-03 -3.3606783054408285e-02
      3.0123858620770571e-03 1.0194798686002662e-02
      1.4841993786612153e-02 -3.3890422789888214e-02
      4.1141154499039455e-02 1.8775944325517658e-04
      2.3529937896546668e-02 -1.3121518441547802e-02
      -1.4555635674615361e-03 1.3237577415926937e-02
      -2.2830022596435420e-02 6.6622462550365042e-03
      -1.5145910645036750e-01 6.7312033574607383e-02
      1.4099919130181152e-01 4.6381351412467367e-02
      -5.1058772082436178e-02 3.3355991085293378e-02
      -4.9270146506122700e-02 1.5679821578247686e-02
      -4.6850530489127004e-02 1.0241739626598113e-01
      5.4517521883694048e-02 -9.4180805600455465e-04
      2.9815088404634840e-02 -2.3454989851150614e-02
      -8.2599958992987069e-02 4.7335535641187504e-02
      -2.5993007044423162e-02 3.0627866037677063e-02
      -1.2376238068546783e-01 1.4271869313465813e-01
      -3.2910992656940356e-02 3.4494486014941969e-02
      2.3753147945888790e-02 6.4543255202228547e-02
      4.1297334841039944e-02 -2.4766999725617179e-02
      1.5510865192467924e-01 -1.3026486075159072e-01
      5.4001732423487915e-02 4.2924252021719012e-02
      -4.8941658796343858e-02 -1.1215599838481323e-01
      1.7069215568400101e-01 5.7370635990326595e-02
      -2.9227016737017785e-02 3.1997755802489161e-02
      4.8270794546491788e-02 4.3096964988099860e-02
      -5.7514248516016664e-02 3.9571648304401220e-02
      -3.9501230265993625e-01 -2.3126917183752239e-02
      3.9527895916775094e-02 -8.3723311804187583e-03
      -2.2357400798714126e-02 3.8619727365741220e-03
      -7.3309550911747423e-03 -2.7624660911550546e-02
      2.9636636333083489e-02 6.1317038472604495e-02
      1.5500380816388350e-02 3.2733612706615407e-02
      9.8380985451651057e-03 -1.6055211540766008e-02
      2.0157501008140434e-02 1.9574808452520712e-03
      -1.0887458931321387e-02 2.2569899469980587e-02
      -4.9876253115753180e-02 4.2502502258046811e-02
      -2.7493165907103354e-02 -4.1526493972294468e-03
      8.3900872025088700e-03 3.1439034576999564e-02
      1.1425055538181047e-02 -1.7980951370329103e-02
      -2.7300319906352906e-02 -1.1991610837850854e-02
      1.7517554903705303e-02 1.3111974827627552e-02
      -1.8030437942765896e-02 -7.6929537255850347e-02
      9.3455625913598572e-02 1.9118519647755818e-02
      1.7788737517944190e-02 -7.0593617560036001e-03
      7.9628284253353571e-03 1.7814772625178343e-02
      -2.9366683835707237e-02 -2.9892673021468263e-02
      -5.3600341594450185e-01 1.7413625296866300e-01
      2.0896796374940346e-01 -5.9946526488673267e-03
      -7.0520730327798417e-02 -2.9659612189067409e-02
      -5.0137132293499802e-02 1.0735517354252398e-02
      -4.4890976006577814e-02 1.4181887382908243e-01
      4.7136445329456336e-02 5.2061625758249436e-03
      -2.3605565780294914e-02 4.6177044236620694e-04
      -6.9391554374720082e-02 4.2364874752520931e-02
      -1.5783947360397666e-02 5.9116517600768317e-03
      -8.8867527189992898e-02 1.1290425787193897e-01
      -5.8573521422542480e-03 4.8103644610098514e-02
      1.8555067393932995e-02 -4.6308782920144792e-03
      3.2443899845953320e-02 -1.1421473758197161e-01
      -1.5917976562095931e-01 5.7539486804827261e-02
      4.3102053991921928e-02 4.0525089877806959e-02
      -4.3156053098814089e-02 -2.2727228896526435e-02
      7.0630131353762102e-02 6.3671835461639181e-02
      -9.5899375298630837e-02 9.8512822136529191e-02
      4.4851580202780399e-02 2.8237916868252836e-02
      9.1320530129672204e-03 1.1942633578159111e-01
      -8.7950341898383622e-03 1.7966073782731415e-01
      7.0130943127534012e-02 -9.1647906420502540e-04
      -3.5030640010248519e-02 -5.5115153793792622e-02
      -3.7262006136281757e-02 9.1317602856094728e-03
      -4.6518294902376606e-02 1.5133611722739654e-01
      2.3065098535187248e-02 1.8469090433377310e-02
      -1.0320634763752433e-02 4.2136411430991425e-03
      -8.6524313958658519e-02 1.6566693101512722e-02
      1.5553174299575506e-02 1.7364146824503112e-03
      -1.3623350189956104e-01 1.0303034924845568e-01
      -3.6895379624279716e-03 1.6947282587741537e-02
      -1.5348667990649377e-02 2.1352868411128701e-02
      7.7645139099612156e-03 -8.7053260131233143e-02
      -5.7927436429326198e-02 2.2681640167769506e-02
      3.6467170036846172e-02 1.7435797682913722e-02
      -1.5089058803752551e-02 8.2751520683672031e-02
      1.4471004009231783e-01 4.8704083112083393e-02
      -7.4844707932032628e-02 8.7650007134852922e-02
      5.1957826699520801e-02 2.0822495381606996e-02
      -1.7334318561158850e-02 4.8514638800230069e-02
      -5.5389045604224607e-01 1.5275471138307523e-01
      1.9310240556796449e-01 3.0779578199772374e-02
      -7.3421221030334771e-02 8.2622031776553775e-03
      -5.9185106455107293e-02 -6.0810150796905974e-03
      -3.1699748565337492e-02 1.2105832382295413e-01
      4.6707079515644540e-02 1.0832203298844004e-02
      5.1732748153683165e-02 -9.1633923633161023e-03
      -8.5258365414473777e-02 4.8925282428923710e-02
      -3.8284466462019127e-02 1.3314576920216018e-02
      -1.0097005467520219e-01 1.0129900455944910e-01
      -9.4911001302944234e-03 4.3771715943385046e-02
      2.9059790713682129e-02 4.7109322507780459e-02
      4.3726783869497361e-02 -1.1930068803489417e-01
      -4.9921240135557383e-02 6.7851444262890031e-03
      6.3042532648198632e-02 4.8295354669703576e-02
      -8.9095035576466974e-02 -4.2062770728595225e-02
      8.1786569464555842e-02 7.1633328093271678e-02
      -5.4313101694919395e-02 8.9835782938070152e-02
      9.2456808197865281e-02 3.6515692577266466e-02
      -6.2836495631369227e-02 6.2139291199151583e-02
      -2.4055192667331149e-01 1.5911514018056622e-01
      2.7501945699810804e-01 1.3107233753297839e-01
      -1.1347282080929062e-01 7.5876726193110894e-02
      -9.2616688002880032e-02 2.9052172185762934e-02
      -7.6336357771901495e-02 1.6537936618976115e-01
