<?xml version="1.0"?>
<opencv_storage>
<shapeML type_id="opencv-ml-ann-mlp">
  <layer_sizes type_id="opencv-matrix">
    <rows>1</rows>
    <cols>3</cols>
    <dt>i</dt>
    <data>
      1600 40 1</data></layer_sizes>
  <activation_function>SIGMOID_SYM</activation_function>
  <f_param1>5.9999999999999998e-01</f_param1>
  <f_param2>1.</f_param2>
  <min_val>-9.4999999999999996e-01</min_val>
  <max_val>9.4999999999999996e-01</max_val>
  <min_val1>-9.7999999999999998e-01</min_val1>
  <max_val1>9.7999999999999998e-01</max_val1>
  <training_params>
    <train_method>BACKPROP</train_method>
    <dw_scale>1.0000000000000001e-01</dw_scale>
    <moment_scale>1.0000000000000001e-01</moment_scale>
    <term_criteria><epsilon>9.9999999747524271e-07</epsilon>
      <iterations>4000</iterations></term_criteria></training_params>
  <input_scale>
    2.7363472633654948e-02 -1.4638501094227999e-01
    4.7059974210363342e-02 -8.3918135829668894e-02
    4.7059974210363342e-02 -8.3918135829668894e-02
    4.7059974210363342e-02 -8.3918135829668894e-02 1. 0. 1. 0. 1. 0. 1.
    0. 1. 0. 1. 0. 3.3394219916503591e-02 -1.1909826683508273e-01
    2.3782552342007025e-02 -1.6963778593599416e-01
    2.3782552342007025e-02 -1.6963778593599416e-01
    1.7064123251250275e-02 -2.4343224778007383e-01
    1.8175124013325394e-02 -2.2687130324325755e-01
    1.7064123251250275e-02 -2.4343224778007383e-01
    1.3641197749745950e-02 -3.1622776601683794e-01
    1.2440390279069046e-02 -3.5494260376644549e-01
    1.2798092438437705e-02 -3.4232659844072882e-01
    1.0020398201425140e-02 -4.8245064067700760e-01
    1.0020398201425140e-02 -4.8245064067700760e-01
    1.0167548487649704e-02 -4.7140452079103173e-01
    1.0324876106624333e-02 -4.6028730894916170e-01
    1.1079146225116151e-02 -4.1488690933913980e-01
    1.4143913321502060e-02 -3.0265996338319096e-01
    1.7064123251250275e-02 -2.4343224778007383e-01
    2.1348693966792939e-02 -1.9034674690672027e-01
    2.3782552342007025e-02 -1.6963778593599416e-01 1. 0.
    4.7059974210363342e-02 -8.3918135829668894e-02 1. 0. 1. 0.
    3.3394219916503591e-02 -1.1909826683508273e-01 1. 0.
    3.3394219916503591e-02 -1.1909826683508273e-01 1. 0. 1. 0. 1. 0. 1.
    0. 1. 0. 2.7363472633654948e-02 -1.4638501094227999e-01 1. 0. 1. 0.
    1. 0. 1. 0. 1. 0. 1. 0. 3.3394219916503591e-02
    -1.1909826683508273e-01 2.3782552342007025e-02
    -1.6963778593599416e-01 2.1348693966792939e-02
    -1.9034674690672027e-01 1.7064123251250275e-02
    -2.4343224778007383e-01 1.5376944134571116e-02
    -2.7420424855354092e-01 1.3641197749745950e-02
    -3.1622776601683794e-01 1.1079146225116151e-02
    -4.1488690933913980e-01 9.8825249891749522e-03
    -4.9343516379516900e-01 8.6101461825240800e-03
    -6.4485780150232797e-01 8.3485549791258978e-03
    -6.9970231765611113e-01 8.0891702097165893e-03
    -7.7893618033424783e-01 7.9867924255991717e-03
    -8.2604657324903319e-01 8.0891702097165893e-03
    -7.7893618033424783e-01 8.3952005258507382e-03
    -6.8864127390370045e-01 8.3485549791258978e-03
    -6.9970231765611113e-01 8.3044989725049225e-03
    -7.1081865331091088e-01 8.3952005258507382e-03
    -6.8864127390370045e-01 8.8778828354084700e-03
    -6.0158520751823830e-01 1.0020398201425140e-02
    -4.8245064067700760e-01 1.0869056127933079e-02
    -4.2640143271122083e-01 1.2798092438437705e-02
    -3.4232659844072882e-01 1.6148128739625425e-02
    -2.5916052767440806e-01 2.1348693966792939e-02
    -1.9034674690672027e-01 2.7363472633654948e-02
    -1.4638501094227999e-01 3.3394219916503591e-02
    -1.1909826683508273e-01 3.3394219916503591e-02
    -1.1909826683508273e-01 2.3782552342007025e-02
    -1.6963778593599416e-01 3.3394219916503591e-02
    -1.1909826683508273e-01 3.3394219916503591e-02
    -1.1909826683508273e-01 1. 0. 1. 0. 1. 0. 1. 0.
    4.7059974210363342e-02 -8.3918135829668894e-02 1. 0. 1. 0. 1. 0. 1.
    0. 3.3394219916503591e-02 -1.1909826683508273e-01
    2.3782552342007025e-02 -1.6963778593599416e-01
    2.1348693966792939e-02 -1.9034674690672027e-01
    1.7064123251250275e-02 -2.4343224778007383e-01
    1.4143913321502060e-02 -3.0265996338319096e-01
    1.2798092438437705e-02 -3.4232659844072882e-01
    1.0674346983396470e-02 -4.3779751788545662e-01
    8.9545148777423200e-03 -5.9081012497551599e-01
    8.4445509879379696e-03 -6.7763092717893847e-01
    8.1196380019763290e-03 -7.6739096221475578e-01
    7.9465969393053334e-03 -8.5023030189770343e-01
    7.9867924255991717e-03 -8.2604657324903319e-01
    7.8664452921850779e-03 -9.2582009977255153e-01
    7.8757491928847425e-03 -9.1287092917527690e-01
    7.8587171782336356e-03 -9.3892435657427742e-01
    7.8757491928847425e-03 -9.1287092917527690e-01
    7.9132976736502134e-03 -8.7488976377909000e-01
    7.8991541455018226e-03 -8.8741196746494255e-01
    7.8448637829541343e-03 -1.0212037714663722e+00
    7.8479359834960107e-03 -9.6562540999728885e-01
    7.8448637829541361e-03 -9.7923649318693240e-01
    8.0891702097165893e-03 -7.7893618033424783e-01
    9.0355109760477063e-03 -5.8004189342739820e-01
    1.0869056127933079e-02 -4.2640143271122083e-01
    1.3641197749745950e-02 -3.1622776601683794e-01
    1.8175124013325394e-02 -2.2687130324325755e-01
    1.8175124013325394e-02 -2.2687130324325755e-01
    2.1348693966792939e-02 -1.9034674690672027e-01
    2.1348693966792939e-02 -1.9034674690672027e-01
    2.3782552342007025e-02 -1.6963778593599416e-01
    2.3782552342007025e-02 -1.6963778593599416e-01 1. 0. 1. 0. 1. 0. 1.
    0. 4.7059974210363342e-02 -8.3918135829668894e-02 1. 0. 1. 0. 1. 0.
    2.3782552342007025e-02 -1.6963778593599416e-01
    2.3782552342007025e-02 -1.6963778593599416e-01
    2.1348693966792939e-02 -1.9034674690672027e-01
    1.9559599062228879e-02 -2.0927403192454677e-01
    1.6148128739625425e-02 -2.5916052767440806e-01
    1.1822371383113157e-02 -3.7947331922020555e-01
    1.0020398201425140e-02 -4.8245064067700760e-01
    8.3044989725049225e-03 -7.1081865331091088e-01
    8.1521749080421570e-03 -7.5592894601845462e-01
    7.9291021584854057e-03 -8.6249779073594746e-01
    7.8587171782336356e-03 -9.3892435657427742e-01
    7.8448637829541361e-03 -9.7923649318693240e-01
    7.8433290350605582e-03 -1.0070176299560269e+00
    7.8664452921850779e-03 -9.2582009977255153e-01
    7.8866455800206559e-03 -1.1110243021644484e+00
    7.8757491928847425e-03 -1.0954451150103324e+00
    7.9291021584854040e-03 -1.1594232596778307e+00
    7.9291021584854040e-03 -1.1594232596778307e+00
    7.8866455800206559e-03 -1.1110243021644484e+00
    7.9291021584854040e-03 -1.1594232596778307e+00
    7.8991541455018226e-03 -1.1268723396380222e+00
    7.8757491928847425e-03 -1.0954451150103324e+00
    7.8448637829541343e-03 -1.0212037714663722e+00
    7.8991541455018226e-03 -8.8741196746494255e-01
    8.4445509879379696e-03 -6.7763092717893847e-01
    9.0355109760477063e-03 -5.8004189342739820e-01
    1.0493412741648247e-02 -4.4908871313907184e-01
    1.7064123251250275e-02 -2.4343224778007383e-01
    1.9559599062228879e-02 -2.0927403192454677e-01
    2.3782552342007025e-02 -1.6963778593599416e-01
    2.1348693966792939e-02 -1.9034674690672027e-01
    2.3782552342007025e-02 -1.6963778593599416e-01
    2.3782552342007025e-02 -1.6963778593599416e-01 1. 0. 1. 0. 1. 0.
    2.3782552342007025e-02 -1.6963778593599416e-01
    3.3394219916503591e-02 -1.1909826683508273e-01 1. 0.
    2.3782552342007025e-02 -1.6963778593599416e-01
    2.3782552342007025e-02 -1.6963778593599416e-01
    2.1348693966792939e-02 -1.9034674690672027e-01
    1.7064123251250275e-02 -2.4343224778007383e-01
    1.4716771567578694e-02 -2.8867513459481287e-01
    1.2798092438437705e-02 -3.4232659844072882e-01
    9.5171299374710479e-03 -5.2610428080915128e-01
    8.2237401757072632e-03 -7.3323557510676651e-01
    8.0341922033097223e-03 -8.0229555708575417e-01
    7.9867924255991717e-03 -8.2604657324903319e-01
    7.8664452921850779e-03 -9.2582009977255153e-01
    7.8448637829541343e-03 -1.0212037714663722e+00
    7.8757491928847425e-03 -1.0954451150103324e+00
    7.8866455800206559e-03 -1.1110243021644484e+00
    7.9465969393053351e-03 -1.1761519176251569e+00
    8.0891702097165893e-03 -1.2838022231434825e+00
    7.9658148559784772e-03 -1.1932010784269858e+00
    8.0341922033097205e-03 -1.2464234547582247e+00
    7.9867924255991735e-03 -1.2105854952787560e+00
    7.9867924255991735e-03 -1.2105854952787560e+00
    7.9465969393053351e-03 -1.1761519176251569e+00
    7.9658148559784772e-03 -1.1932010784269858e+00
    8.0095700424241238e-03 -1.2283207764360913e+00
    7.8525510594511932e-03 -1.0502100630210076e+00
    7.8448637829541343e-03 -1.0212037714663722e+00
    7.8433290350605582e-03 -9.9303127398441549e-01
    7.9132976736502134e-03 -8.7488976377909000e-01
    8.4445509879379696e-03 -6.7763092717893847e-01
    9.3077035915910579e-03 -5.4772255750516607e-01
    1.1079146225116151e-02 -4.1488690933913980e-01
    1.5376944134571116e-02 -2.7420424855354092e-01
    1.6148128739625425e-02 -2.5916052767440806e-01
    1.9559599062228879e-02 -2.0927403192454677e-01
    2.3782552342007025e-02 -1.6963778593599416e-01
    2.3782552342007025e-02 -1.6963778593599416e-01 1. 0. 1. 0.
    2.7363472633654948e-02 -1.4638501094227999e-01
    2.3782552342007025e-02 -1.6963778593599416e-01
    1.9559599062228879e-02 -2.0927403192454677e-01
    1.8175124013325394e-02 -2.2687130324325755e-01
    1.9559599062228879e-02 -2.0927403192454677e-01
    1.8175124013325394e-02 -2.2687130324325755e-01
    1.2440390279069046e-02 -3.5494260376644549e-01
    1.0493412741648247e-02 -4.4908871313907184e-01
    8.8778828354084700e-03 -6.0158520751823830e-01
    8.1196380019763290e-03 -7.6739096221475578e-01
    7.8991541455018226e-03 -8.8741196746494255e-01
    7.8448637829541361e-03 -9.7923649318693240e-01
    7.8448637829541361e-03 -9.7923649318693240e-01
    7.9132976736502134e-03 -8.7488976377909000e-01
    7.8433290350605582e-03 -1.0070176299560269e+00
    7.8433290350605582e-03 -1.0070176299560269e+00
    7.9465969393053351e-03 -1.1761519176251569e+00
    7.9465969393053351e-03 -1.1761519176251569e+00
    8.0341922033097205e-03 -1.2464234547582247e+00
    8.0095700424241238e-03 -1.2283207764360913e+00
    7.9132976736502152e-03 -1.1430011430017146e+00
    8.0095700424241238e-03 -1.2283207764360913e+00
    8.0891702097165893e-03 -1.2838022231434825e+00
    7.9867924255991735e-03 -1.2105854952787560e+00
    7.9867924255991735e-03 -1.2105854952787560e+00
    7.9465969393053351e-03 -1.1761519176251569e+00
    7.9291021584854040e-03 -1.1594232596778307e+00
    7.9867924255991735e-03 -1.2105854952787560e+00
    7.8587171782336356e-03 -1.0650485238752996e+00
    7.8525510594511932e-03 -1.0502100630210076e+00
    7.9465969393053334e-03 -8.5023030189770343e-01
    8.0891702097165893e-03 -7.7893618033424783e-01
    9.1211575445516498e-03 -5.6927504255331107e-01
    1.0167548487649704e-02 -4.7140452079103173e-01
    1.6148128739625425e-02 -2.5916052767440806e-01
    1.8175124013325394e-02 -2.2687130324325755e-01
    1.9559599062228879e-02 -2.0927403192454677e-01
    1.8175124013325394e-02 -2.2687130324325755e-01
    3.3394219916503591e-02 -1.1909826683508273e-01 1. 0.
    2.1348693966792939e-02 -1.9034674690672027e-01
    2.3782552342007025e-02 -1.6963778593599416e-01
    1.9559599062228879e-02 -2.0927403192454677e-01
    1.6148128739625425e-02 -2.5916052767440806e-01
    1.4716771567578694e-02 -2.8867513459481287e-01
    1.2798092438437705e-02 -3.4232659844072882e-01
    1.0167548487649704e-02 -4.7140452079103173e-01
    8.3952005258507382e-03 -6.8864127390370045e-01
    8.0341922033097223e-03 -8.0229555708575417e-01
    7.8479359834960107e-03 -9.6562540999728885e-01
    7.8525510594511915e-03 -9.5219045713904649e-01
    7.8525510594511915e-03 -9.5219045713904649e-01
    7.8448637829541361e-03 -9.7923649318693240e-01
    7.8664452921850779e-03 -9.2582009977255153e-01
    7.9291021584854040e-03 -1.1594232596778307e+00
    7.9658148559784772e-03 -1.1932010784269858e+00
    7.9465969393053351e-03 -1.1761519176251569e+00
    8.0341922033097205e-03 -1.2464234547582247e+00
    7.9658148559784772e-03 -1.1932010784269858e+00
    7.9658148559784772e-03 -1.1932010784269858e+00
    7.9658148559784772e-03 -1.1932010784269858e+00
    8.0341922033097205e-03 -1.2464234547582247e+00
    7.9132976736502152e-03 -1.1430011430017146e+00
    7.9132976736502152e-03 -1.1430011430017146e+00
    7.8448637829541361e-03 -9.7923649318693240e-01
    7.9658148559784772e-03 -1.1932010784269858e+00
    8.0341922033097205e-03 -1.2464234547582247e+00
    8.0095700424241238e-03 -1.2283207764360913e+00
    8.0341922033097205e-03 -1.2464234547582247e+00
    7.9867924255991735e-03 -1.2105854952787560e+00
    7.8664452921850779e-03 -1.0801234497346435e+00
    7.9291021584854057e-03 -8.6249779073594746e-01
    8.0341922033097223e-03 -8.0229555708575417e-01
    8.6101461825240800e-03 -6.4485780150232797e-01
    1.0324876106624333e-02 -4.6028730894916170e-01
    1.5376944134571116e-02 -2.7420424855354092e-01
    1.7064123251250275e-02 -2.4343224778007383e-01
    1.8175124013325394e-02 -2.2687130324325755e-01
    1.5376944134571116e-02 -2.7420424855354092e-01 1. 0.
    2.7363472633654948e-02 -1.4638501094227999e-01
    1.9559599062228879e-02 -2.0927403192454677e-01
    1.5376944134571116e-02 -2.7420424855354092e-01
    1.4143913321502060e-02 -3.0265996338319096e-01
    1.4716771567578694e-02 -2.8867513459481287e-01
    1.0493412741648247e-02 -4.4908871313907184e-01
    8.2629265106446761e-03 -7.2199487238115545e-01
    7.8757491928847425e-03 -9.1287092917527690e-01
    7.8479359834960107e-03 -9.6562540999728885e-01
    7.8757491928847425e-03 -9.1287092917527690e-01
    7.8479359834960107e-03 -9.6562540999728885e-01
    7.8866455800206559e-03 -1.1110243021644484e+00
    7.8664452921850779e-03 -1.0801234497346435e+00
    7.8866455800206559e-03 -1.1110243021644484e+00
    7.8664452921850779e-03 -1.0801234497346435e+00
    7.9465969393053351e-03 -1.1761519176251569e+00
    7.8433290350605582e-03 -1.0070176299560269e+00
    7.8479359834960107e-03 -1.0355982657941938e+00
    7.8525510594511932e-03 -1.0502100630210076e+00
    7.8525510594511932e-03 -1.0502100630210076e+00
    7.8479359834960107e-03 -1.0355982657941938e+00
    7.8479359834960107e-03 -9.6562540999728885e-01
    7.8587171782336356e-03 -9.3892435657427742e-01
    7.8433290350605582e-03 -9.9303127398441549e-01
    7.8433290350605582e-03 -1.0070176299560269e+00
    7.8525510594511932e-03 -1.0502100630210076e+00
    7.8664452921850779e-03 -1.0801234497346435e+00
    7.9658148559784772e-03 -1.1932010784269858e+00
    7.8664452921850779e-03 -1.0801234497346435e+00
    8.0607077612135161e-03 -1.2649110640673518e+00
    7.8866455800206559e-03 -1.1110243021644484e+00
    7.8448637829541361e-03 -9.7923649318693240e-01
    7.8866455800206559e-03 -9.0007032074081883e-01
    7.9291021584854057e-03 -8.6249779073594746e-01
    8.7366964958348111e-03 -6.2317695284975583e-01
    1.1306503030589039e-02 -4.0323891927275596e-01
    1.4716771567578694e-02 -2.8867513459481287e-01
    1.4143913321502060e-02 -3.0265996338319096e-01
    1.5376944134571116e-02 -2.7420424855354092e-01
    3.3394219916503591e-02 -1.1909826683508273e-01
    2.7363472633654948e-02 -1.4638501094227999e-01
    1.9559599062228879e-02 -2.0927403192454677e-01
    1.3641197749745950e-02 -3.1622776601683794e-01
    1.2116749342216930e-02 -3.6731544334622651e-01
    1.1553357550052653e-02 -3.9144068062940629e-01
    8.1521749080421570e-03 -7.5592894601845462e-01
    7.8757491928847425e-03 -9.1287092917527690e-01
    7.8433290350605582e-03 -1.0070176299560269e+00
    7.8448637829541343e-03 -1.0212037714663722e+00
    7.8664452921850779e-03 -9.2582009977255153e-01
    7.8587171782336356e-03 -9.3892435657427742e-01
    7.8525510594511932e-03 -1.0502100630210076e+00
    7.9132976736502152e-03 -1.1430011430017146e+00
    7.8448637829541343e-03 -1.0212037714663722e+00
    7.8866455800206559e-03 -9.0007032074081883e-01
    7.8525510594511932e-03 -1.0502100630210076e+00
    7.8587171782336356e-03 -9.3892435657427742e-01
    7.8448637829541361e-03 -9.7923649318693240e-01
    7.8479359834960107e-03 -9.6562540999728885e-01
    7.8448637829541361e-03 -9.7923649318693240e-01
    7.8448637829541361e-03 -9.7923649318693240e-01
    7.8587171782336356e-03 -9.3892435657427742e-01
    7.8866455800206559e-03 -9.0007032074081883e-01
    7.8866455800206559e-03 -9.0007032074081883e-01
    7.8479359834960107e-03 -9.6562540999728885e-01
    7.8479359834960107e-03 -1.0355982657941938e+00
    7.8433290350605582e-03 -9.9303127398441549e-01
    7.8479359834960107e-03 -1.0355982657941938e+00
    7.8433290350605582e-03 -9.9303127398441549e-01
    7.9132976736502152e-03 -1.1430011430017146e+00
    7.8866455800206559e-03 -1.1110243021644484e+00
    7.8479359834960107e-03 -1.0355982657941938e+00
    7.8433290350605582e-03 -9.9303127398441549e-01
    7.8525510594511915e-03 -9.5219045713904649e-01
    7.9291021584854057e-03 -8.6249779073594746e-01
    8.9545148777423200e-03 -5.9081012497551599e-01
    1.1553357550052653e-02 -3.9144068062940629e-01
    1.3641197749745950e-02 -3.1622776601683794e-01
    1.5376944134571116e-02 -2.7420424855354092e-01
    1.9559599062228879e-02 -2.0927403192454677e-01
    2.7363472633654948e-02 -1.4638501094227999e-01
    1.7064123251250275e-02 -2.4343224778007383e-01
    1.1822371383113157e-02 -3.7947331922020555e-01
    1.1553357550052653e-02 -3.9144068062940629e-01
    8.8778828354084700e-03 -6.0158520751823830e-01
    7.8757491928847425e-03 -9.1287092917527690e-01
    7.8433290350605582e-03 -9.9303127398441549e-01
    7.8479359834960107e-03 -1.0355982657941938e+00
    7.8991541455018226e-03 -1.1268723396380222e+00
    7.8664452921850779e-03 -1.0801234497346435e+00
    7.8479359834960107e-03 -9.6562540999728885e-01
    7.8587171782336356e-03 -1.0650485238752996e+00
    7.8448637829541361e-03 -9.7923649318693240e-01
    7.8448637829541361e-03 -9.7923649318693240e-01
    7.9465969393053334e-03 -8.5023030189770343e-01
    7.8866455800206559e-03 -9.0007032074081883e-01
    8.0095700424241221e-03 -8.1411958438206022e-01
    7.9658148559784772e-03 -8.3808170984752584e-01
    8.0095700424241221e-03 -8.1411958438206022e-01
    8.0095700424241221e-03 -8.1411958438206022e-01
    8.0341922033097223e-03 -8.0229555708575417e-01
    8.1868504150736342e-03 -7.4454538215407429e-01
    7.9465969393053334e-03 -8.5023030189770343e-01
    7.9465969393053334e-03 -8.5023030189770343e-01
    7.9465969393053334e-03 -8.5023030189770343e-01
    7.8525510594511915e-03 -9.5219045713904649e-01
    7.8479359834960107e-03 -9.6562540999728885e-01
    7.8479359834960107e-03 -1.0355982657941938e+00
    7.8479359834960107e-03 -9.6562540999728885e-01
    7.9465969393053351e-03 -1.1761519176251569e+00
    7.8991541455018226e-03 -1.1268723396380222e+00
    7.8664452921850779e-03 -1.0801234497346435e+00
    7.8757491928847425e-03 -1.0954451150103324e+00
    7.8448637829541361e-03 -9.7923649318693240e-01
    7.8866455800206559e-03 -9.0007032074081883e-01
    7.9658148559784772e-03 -8.3808170984752584e-01
    9.5171299374710479e-03 -5.2610428080915128e-01
    1.1306503030589039e-02 -4.0323891927275596e-01
    1.5376944134571116e-02 -2.7420424855354092e-01
    1.5376944134571116e-02 -2.7420424855354092e-01
    2.1348693966792939e-02 -1.9034674690672027e-01
    1.4716771567578694e-02 -2.8867513459481287e-01
    1.1079146225116151e-02 -4.1488690933913980e-01
    1.0493412741648247e-02 -4.4908871313907184e-01
    7.9132976736502134e-03 -8.7488976377909000e-01
    7.8757491928847425e-03 -9.1287092917527690e-01
    7.8525510594511932e-03 -1.0502100630210076e+00
    7.8757491928847425e-03 -1.0954451150103324e+00
    7.8587171782336356e-03 -1.0650485238752996e+00
    7.8866455800206559e-03 -9.0007032074081883e-01
    7.8448637829541361e-03 -9.7923649318693240e-01
    7.8448637829541361e-03 -9.7923649318693240e-01
    7.8433290350605582e-03 -1.0070176299560269e+00
    7.8991541455018226e-03 -8.8741196746494255e-01
    7.9291021584854057e-03 -8.6249779073594746e-01
    8.1521749080421570e-03 -7.5592894601845462e-01
    8.0607077612135179e-03 -7.9056941504209499e-01
    8.2237401757072632e-03 -7.3323557510676651e-01
    8.3485549791258978e-03 -6.9970231765611113e-01
    8.3952005258507382e-03 -6.8864127390370045e-01
    8.6101461825240800e-03 -6.4485780150232797e-01
    8.5518806108088111e-03 -6.5574385243020006e-01
    8.1521749080421570e-03 -7.5592894601845462e-01
    8.3044989725049225e-03 -7.1081865331091088e-01
    8.3044989725049225e-03 -7.1081865331091088e-01
    7.9867924255991717e-03 -8.2604657324903319e-01
    7.9465969393053334e-03 -8.5023030189770343e-01
    7.8587171782336356e-03 -9.3892435657427742e-01
    7.8433290350605582e-03 -1.0070176299560269e+00
    7.8757491928847425e-03 -1.0954451150103324e+00
    7.8664452921850779e-03 -1.0801234497346435e+00
    7.9132976736502152e-03 -1.1430011430017146e+00
    7.9291021584854040e-03 -1.1594232596778307e+00
    7.8479359834960107e-03 -1.0355982657941938e+00
    7.8587171782336356e-03 -9.3892435657427742e-01
    7.8991541455018226e-03 -8.8741196746494255e-01
    8.3485549791258978e-03 -6.9970231765611113e-01
    9.5171299374710479e-03 -5.2610428080915128e-01
    1.3641197749745950e-02 -3.1622776601683794e-01
    1.5376944134571116e-02 -2.7420424855354092e-01
    2.1348693966792939e-02 -1.9034674690672027e-01
    1.2798092438437705e-02 -3.4232659844072882e-01
    1.0324876106624333e-02 -4.6028730894916170e-01
    8.6101461825240800e-03 -6.4485780150232797e-01
    7.9132976736502134e-03 -8.7488976377909000e-01
    7.8664452921850779e-03 -9.2582009977255153e-01
    7.8525510594511932e-03 -1.0502100630210076e+00
    7.8433290350605582e-03 -9.9303127398441549e-01
    7.8448637829541361e-03 -9.7923649318693240e-01
    7.8448637829541361e-03 -9.7923649318693240e-01
    7.8479359834960107e-03 -9.6562540999728885e-01
    7.8866455800206559e-03 -9.0007032074081883e-01
    7.8757491928847425e-03 -9.1287092917527690e-01
    8.0607077612135179e-03 -7.9056941504209499e-01
    8.2237401757072632e-03 -7.3323557510676651e-01
    8.4967320261437902e-03 -6.6666666666666663e-01
    8.6101461825240800e-03 -6.4485780150232797e-01
    8.9545148777423200e-03 -5.9081012497551599e-01
    9.4093446956475951e-03 -5.3692484417121944e-01
    9.4093446956475951e-03 -5.3692484417121944e-01
    9.8825249891749522e-03 -4.9343516379516900e-01
    9.7531394191879388e-03 -5.0436689513912447e-01
    9.1211575445516498e-03 -5.6927504255331107e-01
    8.7366964958348111e-03 -6.2317695284975583e-01
    8.2629265106446761e-03 -7.2199487238115545e-01
    8.1868504150736342e-03 -7.4454538215407429e-01
    8.1521749080421570e-03 -7.5592894601845462e-01
    7.8525510594511915e-03 -9.5219045713904649e-01
    7.8664452921850779e-03 -9.2582009977255153e-01
    7.9132976736502134e-03 -8.7488976377909000e-01
    7.8664452921850779e-03 -1.0801234497346435e+00
    7.9658148559784772e-03 -1.1932010784269858e+00
    7.9465969393053351e-03 -1.1761519176251569e+00
    7.9132976736502152e-03 -1.1430011430017146e+00
    7.8433290350605582e-03 -9.9303127398441549e-01
    7.8664452921850779e-03 -9.2582009977255153e-01
    8.1521749080421570e-03 -7.5592894601845462e-01
    8.7366964958348111e-03 -6.2317695284975583e-01
    1.2116749342216930e-02 -3.6731544334622651e-01
    1.4143913321502060e-02 -3.0265996338319096e-01
    2.1348693966792939e-02 -1.9034674690672027e-01
    1.2798092438437705e-02 -3.4232659844072882e-01
    1.0020398201425140e-02 -4.8245064067700760e-01
    8.3044989725049225e-03 -7.1081865331091088e-01
    7.8757491928847425e-03 -9.1287092917527690e-01
    7.8448637829541343e-03 -1.0212037714663722e+00
    7.8433290350605582e-03 -1.0070176299560269e+00
    7.8433290350605582e-03 -1.0070176299560269e+00
    7.8587171782336356e-03 -1.0650485238752996e+00
    7.8433290350605582e-03 -1.0070176299560269e+00
    7.8991541455018226e-03 -8.8741196746494255e-01
    7.9291021584854057e-03 -8.6249779073594746e-01
    8.1521749080421570e-03 -7.5592894601845462e-01
    8.3044989725049225e-03 -7.1081865331091088e-01
    8.5518806108088111e-03 -6.5574385243020006e-01
    8.6101461825240800e-03 -6.4485780150232797e-01
    8.8778828354084700e-03 -6.0158520751823830e-01
    9.5171299374710479e-03 -5.2610428080915128e-01
    9.8825249891749522e-03 -4.9343516379516900e-01
    1.0167548487649704e-02 -4.7140452079103173e-01
    1.0324876106624333e-02 -4.6028730894916170e-01
    1.0020398201425140e-02 -4.8245064067700760e-01
    9.4093446956475951e-03 -5.3692484417121944e-01
    8.5518806108088111e-03 -6.5574385243020006e-01
    8.5518806108088111e-03 -6.5574385243020006e-01
    8.6101461825240800e-03 -6.4485780150232797e-01
    8.1868504150736342e-03 -7.4454538215407429e-01
    8.1196380019763290e-03 -7.6739096221475578e-01
    7.9658148559784772e-03 -8.3808170984752584e-01
    7.9291021584854057e-03 -8.6249779073594746e-01
    7.9132976736502152e-03 -1.1430011430017146e+00
    7.9132976736502152e-03 -1.1430011430017146e+00
    7.9867924255991735e-03 -1.2105854952787560e+00
    7.8664452921850779e-03 -1.0801234497346435e+00
    7.8479359834960107e-03 -1.0355982657941938e+00
    7.8479359834960107e-03 -1.0355982657941938e+00
    7.8664452921850779e-03 -9.2582009977255153e-01
    8.4967320261437902e-03 -6.6666666666666663e-01
    9.7531394191879388e-03 -5.0436689513912447e-01
    1.2798092438437705e-02 -3.4232659844072882e-01
    2.1348693966792939e-02 -1.9034674690672027e-01
    1.1306503030589039e-02 -4.0323891927275596e-01
    8.4967320261437902e-03 -6.6666666666666663e-01
    8.0341922033097223e-03 -8.0229555708575417e-01
    7.8433290350605582e-03 -9.9303127398441549e-01
    7.8587171782336356e-03 -1.0650485238752996e+00
    7.8433290350605582e-03 -1.0070176299560269e+00
    7.8479359834960107e-03 -1.0355982657941938e+00
    7.8448637829541361e-03 -9.7923649318693240e-01
    7.8448637829541361e-03 -9.7923649318693240e-01
    7.9658148559784772e-03 -8.3808170984752584e-01
    7.9658148559784772e-03 -8.3808170984752584e-01
    8.0891702097165893e-03 -7.7893618033424783e-01
    8.3044989725049225e-03 -7.1081865331091088e-01
    8.6716919707584810e-03 -6.3400377310685252e-01
    8.7366964958348111e-03 -6.2317695284975583e-01
    9.5171299374710479e-03 -5.2610428080915128e-01
    1.0167548487649704e-02 -4.7140452079103173e-01
    1.0167548487649704e-02 -4.7140452079103173e-01
    1.0493412741648247e-02 -4.4908871313907184e-01
    1.0674346983396470e-02 -4.3779751788545662e-01
    1.0493412741648247e-02 -4.4908871313907184e-01
    1.0324876106624333e-02 -4.6028730894916170e-01
    9.3077035915910579e-03 -5.4772255750516607e-01
    9.0355109760477063e-03 -5.8004189342739820e-01
    8.8778828354084700e-03 -6.0158520751823830e-01
    8.3485549791258978e-03 -6.9970231765611113e-01
    8.3044989725049225e-03 -7.1081865331091088e-01
    8.3952005258507382e-03 -6.8864127390370045e-01
    8.0607077612135179e-03 -7.9056941504209499e-01
    7.8664452921850779e-03 -9.2582009977255153e-01
    7.8448637829541343e-03 -1.0212037714663722e+00
    7.9132976736502152e-03 -1.1430011430017146e+00
    7.9132976736502152e-03 -1.1430011430017146e+00
    7.8587171782336356e-03 -1.0650485238752996e+00
    7.8664452921850779e-03 -1.0801234497346435e+00
    7.8433290350605582e-03 -9.9303127398441549e-01
    8.1868504150736342e-03 -7.4454538215407429e-01
    9.2117713490453956e-03 -5.5850389927429078e-01
    1.2116749342216930e-02 -3.6731544334622651e-01
    1.8175124013325394e-02 -2.2687130324325755e-01
    1.0324876106624333e-02 -4.6028730894916170e-01
    8.2237401757072632e-03 -7.3323557510676651e-01
    7.8866455800206559e-03 -9.0007032074081883e-01
    7.8587171782336356e-03 -1.0650485238752996e+00
    7.8587171782336356e-03 -1.0650485238752996e+00
    7.8433290350605582e-03 -1.0070176299560269e+00
    7.8525510594511932e-03 -1.0502100630210076e+00
    7.8448637829541361e-03 -9.7923649318693240e-01
    7.8525510594511915e-03 -9.5219045713904649e-01
    7.9132976736502134e-03 -8.7488976377909000e-01
    8.2237401757072632e-03 -7.3323557510676651e-01
    8.3952005258507382e-03 -6.8864127390370045e-01
    8.6101461825240800e-03 -6.4485780150232797e-01
    8.8778828354084700e-03 -6.0158520751823830e-01
    9.6315461058725342e-03 -5.1525403992954466e-01
    1.0674346983396470e-02 -4.3779751788545662e-01
    1.1306503030589039e-02 -4.0323891927275596e-01
    1.2440390279069046e-02 -3.5494260376644549e-01
    1.1553357550052653e-02 -3.9144068062940629e-01
    1.1822371383113157e-02 -3.7947331922020555e-01
    1.1553357550052653e-02 -3.9144068062940629e-01
    1.1553357550052653e-02 -3.9144068062940629e-01
    1.1553357550052653e-02 -3.9144068062940629e-01
    1.0167548487649704e-02 -4.7140452079103173e-01
    9.2117713490453956e-03 -5.5850389927429078e-01
    8.9545148777423200e-03 -5.9081012497551599e-01
    8.3044989725049225e-03 -7.1081865331091088e-01
    8.2237401757072632e-03 -7.3323557510676651e-01
    8.2237401757072632e-03 -7.3323557510676651e-01
    7.8991541455018226e-03 -8.8741196746494255e-01
    7.8479359834960107e-03 -9.6562540999728885e-01
    7.8525510594511915e-03 -9.5219045713904649e-01
    7.8991541455018226e-03 -1.1268723396380222e+00
    7.8866455800206559e-03 -1.1110243021644484e+00
    7.8991541455018226e-03 -1.1268723396380222e+00
    7.8664452921850779e-03 -1.0801234497346435e+00
    7.9132976736502134e-03 -8.7488976377909000e-01
    8.8778828354084700e-03 -6.0158520751823830e-01
    1.0674346983396470e-02 -4.3779751788545662e-01
    1.6148128739625425e-02 -2.5916052767440806e-01
    1.0167548487649704e-02 -4.7140452079103173e-01
    8.0891702097165893e-03 -7.7893618033424783e-01
    7.8587171782336356e-03 -9.3892435657427742e-01
    7.8664452921850779e-03 -1.0801234497346435e+00
    7.9132976736502152e-03 -1.1430011430017146e+00
    7.9132976736502152e-03 -1.1430011430017146e+00
    7.8479359834960107e-03 -1.0355982657941938e+00
    7.8433290350605582e-03 -9.9303127398441549e-01
    7.8479359834960107e-03 -9.6562540999728885e-01
    8.0607077612135179e-03 -7.9056941504209499e-01
    8.3044989725049225e-03 -7.1081865331091088e-01
    8.3952005258507382e-03 -6.8864127390370045e-01
    8.8778828354084700e-03 -6.0158520751823830e-01
    9.3077035915910579e-03 -5.4772255750516607e-01
    1.1553357550052653e-02 -3.9144068062940629e-01
    1.4143913321502060e-02 -3.0265996338319096e-01
    1.4143913321502060e-02 -3.0265996338319096e-01
    1.6148128739625425e-02 -2.5916052767440806e-01
    1.4143913321502060e-02 -3.0265996338319096e-01
    1.3195838267236602e-02 -3.2943456373450819e-01
    1.4143913321502060e-02 -3.0265996338319096e-01
    1.6148128739625425e-02 -2.5916052767440806e-01
    1.6148128739625425e-02 -2.5916052767440806e-01
    1.3641197749745950e-02 -3.1622776601683794e-01
    1.1822371383113157e-02 -3.7947331922020555e-01
    9.5171299374710479e-03 -5.2610428080915128e-01
    8.8053552845146921e-03 -6.1237243569579447e-01
    8.2237401757072632e-03 -7.3323557510676651e-01
    8.1868504150736342e-03 -7.4454538215407429e-01
    8.0607077612135179e-03 -7.9056941504209499e-01
    7.8525510594511915e-03 -9.5219045713904649e-01
    7.8587171782336356e-03 -9.3892435657427742e-01
    7.8525510594511915e-03 -9.5219045713904649e-01
    7.8991541455018226e-03 -1.1268723396380222e+00
    7.9658148559784772e-03 -1.1932010784269858e+00
    7.8866455800206559e-03 -1.1110243021644484e+00
    7.8525510594511915e-03 -9.5219045713904649e-01
    8.3952005258507382e-03 -6.8864127390370045e-01
    9.6315461058725342e-03 -5.1525403992954466e-01
    1.6148128739625425e-02 -2.5916052767440806e-01
    9.4093446956475951e-03 -5.3692484417121944e-01
    7.9291021584854057e-03 -8.6249779073594746e-01
    7.8433290350605582e-03 -9.9303127398441549e-01
    7.8664452921850779e-03 -1.0801234497346435e+00
    7.9132976736502152e-03 -1.1430011430017146e+00
    7.8866455800206559e-03 -1.1110243021644484e+00
    7.8587171782336356e-03 -1.0650485238752996e+00
    7.8479359834960107e-03 -9.6562540999728885e-01
    7.9658148559784772e-03 -8.3808170984752584e-01
    8.5518806108088111e-03 -6.5574385243020006e-01
    8.3952005258507382e-03 -6.8864127390370045e-01
    8.6716919707584810e-03 -6.3400377310685252e-01
    1.0020398201425140e-02 -4.8245064067700760e-01
    1.1079146225116151e-02 -4.1488690933913980e-01
    1.2798092438437705e-02 -3.4232659844072882e-01
    1.4143913321502060e-02 -3.0265996338319096e-01
    1.6148128739625425e-02 -2.5916052767440806e-01
    1.7064123251250275e-02 -2.4343224778007383e-01
    1.7064123251250275e-02 -2.4343224778007383e-01
    1.4143913321502060e-02 -3.0265996338319096e-01
    1.5376944134571116e-02 -2.7420424855354092e-01
    1.8175124013325394e-02 -2.2687130324325755e-01
    1.7064123251250275e-02 -2.4343224778007383e-01
    1.5376944134571116e-02 -2.7420424855354092e-01
    1.4716771567578694e-02 -2.8867513459481287e-01
    1.1079146225116151e-02 -4.1488690933913980e-01
    9.1211575445516498e-03 -5.6927504255331107e-01
    8.3485549791258978e-03 -6.9970231765611113e-01
    8.2237401757072632e-03 -7.3323557510676651e-01
    8.0891702097165893e-03 -7.7893618033424783e-01
    7.8757491928847425e-03 -9.1287092917527690e-01
    7.8448637829541361e-03 -9.7923649318693240e-01
    7.8433290350605582e-03 -9.9303127398441549e-01
    7.9291021584854040e-03 -1.1594232596778307e+00
    8.0607077612135161e-03 -1.2649110640673518e+00
    8.0341922033097205e-03 -1.2464234547582247e+00
    7.8525510594511932e-03 -1.0502100630210076e+00
    8.0341922033097223e-03 -8.0229555708575417e-01
    8.7366964958348111e-03 -6.2317695284975583e-01
    1.2798092438437705e-02 -3.4232659844072882e-01
    9.0355109760477063e-03 -5.8004189342739820e-01
    7.8664452921850779e-03 -9.2582009977255153e-01
    7.8587171782336356e-03 -1.0650485238752996e+00
    7.9291021584854040e-03 -1.1594232596778307e+00
    7.8587171782336356e-03 -1.0650485238752996e+00
    7.8991541455018226e-03 -1.1268723396380222e+00
    7.8433290350605582e-03 -9.9303127398441549e-01
    7.8479359834960107e-03 -9.6562540999728885e-01
    8.1196380019763290e-03 -7.6739096221475578e-01
    8.5518806108088111e-03 -6.5574385243020006e-01
    8.4967320261437902e-03 -6.6666666666666663e-01
    9.0355109760477063e-03 -5.8004189342739820e-01
    1.0493412741648247e-02 -4.4908871313907184e-01
    1.2440390279069046e-02 -3.5494260376644549e-01
    1.3641197749745950e-02 -3.1622776601683794e-01
    1.4143913321502060e-02 -3.0265996338319096e-01
    1.5376944134571116e-02 -2.7420424855354092e-01
    1.9559599062228879e-02 -2.0927403192454677e-01
    2.3782552342007025e-02 -1.6963778593599416e-01
    2.3782552342007025e-02 -1.6963778593599416e-01
    1.7064123251250275e-02 -2.4343224778007383e-01
    1.7064123251250275e-02 -2.4343224778007383e-01
    1.7064123251250275e-02 -2.4343224778007383e-01
    1.6148128739625425e-02 -2.5916052767440806e-01
    1.4716771567578694e-02 -2.8867513459481287e-01
    1.1553357550052653e-02 -3.9144068062940629e-01
    9.5171299374710479e-03 -5.2610428080915128e-01
    8.8053552845146921e-03 -6.1237243569579447e-01
    8.3485549791258978e-03 -6.9970231765611113e-01
    8.1196380019763290e-03 -7.6739096221475578e-01
    7.8757491928847425e-03 -9.1287092917527690e-01
    7.9132976736502134e-03 -8.7488976377909000e-01
    7.8525510594511915e-03 -9.5219045713904649e-01
    7.8991541455018226e-03 -1.1268723396380222e+00
    8.0341922033097205e-03 -1.2464234547582247e+00
    8.0607077612135161e-03 -1.2649110640673518e+00
    7.8587171782336356e-03 -1.0650485238752996e+00
    7.8866455800206559e-03 -9.0007032074081883e-01
    8.6101461825240800e-03 -6.4485780150232797e-01
    1.0324876106624333e-02 -4.6028730894916170e-01
    8.8053552845146921e-03 -6.1237243569579447e-01
    7.8664452921850779e-03 -9.2582009977255153e-01
    7.8448637829541343e-03 -1.0212037714663722e+00
    7.8866455800206559e-03 -1.1110243021644484e+00
    7.9291021584854040e-03 -1.1594232596778307e+00
    7.9291021584854040e-03 -1.1594232596778307e+00
    7.8433290350605582e-03 -1.0070176299560269e+00
    7.9291021584854057e-03 -8.6249779073594746e-01
    8.3044989725049225e-03 -7.1081865331091088e-01
    8.4445509879379696e-03 -6.7763092717893847e-01
    8.8053552845146921e-03 -6.1237243569579447e-01
    9.6315461058725342e-03 -5.1525403992954466e-01
    1.0674346983396470e-02 -4.3779751788545662e-01
    1.2798092438437705e-02 -3.4232659844072882e-01
    1.4716771567578694e-02 -2.8867513459481287e-01
    1.5376944134571116e-02 -2.7420424855354092e-01
    1.9559599062228879e-02 -2.0927403192454677e-01
    2.1348693966792939e-02 -1.9034674690672027e-01
    2.3782552342007025e-02 -1.6963778593599416e-01
    2.1348693966792939e-02 -1.9034674690672027e-01
    1.6148128739625425e-02 -2.5916052767440806e-01
    1.6148128739625425e-02 -2.5916052767440806e-01
    1.6148128739625425e-02 -2.5916052767440806e-01
    1.5376944134571116e-02 -2.7420424855354092e-01
    1.4716771567578694e-02 -2.8867513459481287e-01
    1.0674346983396470e-02 -4.3779751788545662e-01
    1.0020398201425140e-02 -4.8245064067700760e-01
    9.0355109760477063e-03 -5.8004189342739820e-01
    8.4445509879379696e-03 -6.7763092717893847e-01
    8.2237401757072632e-03 -7.3323557510676651e-01
    8.0891702097165893e-03 -7.7893618033424783e-01
    7.9291021584854057e-03 -8.6249779073594746e-01
    7.8525510594511915e-03 -9.5219045713904649e-01
    7.8664452921850779e-03 -1.0801234497346435e+00
    8.0607077612135161e-03 -1.2649110640673518e+00
    8.0341922033097205e-03 -1.2464234547582247e+00
    7.8991541455018226e-03 -1.1268723396380222e+00
    7.8587171782336356e-03 -9.3892435657427742e-01
    8.3044989725049225e-03 -7.1081865331091088e-01
    1.0869056127933079e-02 -4.2640143271122083e-01
    8.7366964958348111e-03 -6.2317695284975583e-01
    7.8866455800206559e-03 -9.0007032074081883e-01
    7.8448637829541343e-03 -1.0212037714663722e+00
    7.8525510594511932e-03 -1.0502100630210076e+00
    7.8525510594511932e-03 -1.0502100630210076e+00
    7.9132976736502152e-03 -1.1430011430017146e+00
    7.8866455800206559e-03 -9.0007032074081883e-01
    7.8757491928847425e-03 -9.1287092917527690e-01
    8.3952005258507382e-03 -6.8864127390370045e-01
    8.1868504150736342e-03 -7.4454538215407429e-01
    9.1211575445516498e-03 -5.6927504255331107e-01
    1.0324876106624333e-02 -4.6028730894916170e-01
    1.0869056127933079e-02 -4.2640143271122083e-01
    1.2116749342216930e-02 -3.6731544334622651e-01
    1.3641197749745950e-02 -3.1622776601683794e-01
    1.6148128739625425e-02 -2.5916052767440806e-01
    1.9559599062228879e-02 -2.0927403192454677e-01
    2.1348693966792939e-02 -1.9034674690672027e-01
    1.9559599062228879e-02 -2.0927403192454677e-01
    2.3782552342007025e-02 -1.6963778593599416e-01
    1.7064123251250275e-02 -2.4343224778007383e-01
    1.6148128739625425e-02 -2.5916052767440806e-01
    1.5376944134571116e-02 -2.7420424855354092e-01
    1.4716771567578694e-02 -2.8867513459481287e-01
    1.1822371383113157e-02 -3.7947331922020555e-01
    1.0324876106624333e-02 -4.6028730894916170e-01
    1.0020398201425140e-02 -4.8245064067700760e-01
    9.4093446956475951e-03 -5.3692484417121944e-01
    8.8053552845146921e-03 -6.1237243569579447e-01
    8.4445509879379696e-03 -6.7763092717893847e-01
    8.1868504150736342e-03 -7.4454538215407429e-01
    7.9465969393053334e-03 -8.5023030189770343e-01
    7.8433290350605582e-03 -9.9303127398441549e-01
    7.8991541455018226e-03 -1.1268723396380222e+00
    8.0607077612135161e-03 -1.2649110640673518e+00
    8.1868504150736342e-03 -1.3431014736897025e+00
    8.0095700424241238e-03 -1.2283207764360913e+00
    7.8664452921850779e-03 -9.2582009977255153e-01
    8.3485549791258978e-03 -6.9970231765611113e-01
    1.0869056127933079e-02 -4.2640143271122083e-01
    8.8778828354084700e-03 -6.0158520751823830e-01
    7.9132976736502134e-03 -8.7488976377909000e-01
    7.8991541455018226e-03 -1.1268723396380222e+00
    7.8587171782336356e-03 -1.0650485238752996e+00
    7.8991541455018226e-03 -1.1268723396380222e+00
    7.8664452921850779e-03 -1.0801234497346435e+00
    7.8587171782336356e-03 -9.3892435657427742e-01
    7.8479359834960107e-03 -9.6562540999728885e-01
    8.1196380019763290e-03 -7.6739096221475578e-01
    8.0891702097165893e-03 -7.7893618033424783e-01
    9.1211575445516498e-03 -5.6927504255331107e-01
    1.0674346983396470e-02 -4.3779751788545662e-01
    1.1079146225116151e-02 -4.1488690933913980e-01
    1.2798092438437705e-02 -3.4232659844072882e-01
    1.4143913321502060e-02 -3.0265996338319096e-01
    1.5376944134571116e-02 -2.7420424855354092e-01
    2.1348693966792939e-02 -1.9034674690672027e-01
    1.9559599062228879e-02 -2.0927403192454677e-01
    2.1348693966792939e-02 -1.9034674690672027e-01
    2.7363472633654948e-02 -1.4638501094227999e-01
    1.7064123251250275e-02 -2.4343224778007383e-01
    1.7064123251250275e-02 -2.4343224778007383e-01
    1.5376944134571116e-02 -2.7420424855354092e-01
    1.4143913321502060e-02 -3.0265996338319096e-01
    1.2116749342216930e-02 -3.6731544334622651e-01
    1.0869056127933079e-02 -4.2640143271122083e-01
    9.8825249891749522e-03 -4.9343516379516900e-01
    9.3077035915910579e-03 -5.4772255750516607e-01
    8.7366964958348111e-03 -6.2317695284975583e-01
    8.3485549791258978e-03 -6.9970231765611113e-01
    8.2629265106446761e-03 -7.2199487238115545e-01
    8.0891702097165893e-03 -7.7893618033424783e-01
    7.8448637829541343e-03 -1.0212037714663722e+00
    7.8587171782336356e-03 -1.0650485238752996e+00
    8.0341922033097205e-03 -1.2464234547582247e+00
    8.0341922033097205e-03 -1.2464234547582247e+00
    7.9867924255991735e-03 -1.2105854952787560e+00
    7.8448637829541361e-03 -9.7923649318693240e-01
    8.7366964958348111e-03 -6.2317695284975583e-01
    1.1822371383113157e-02 -3.7947331922020555e-01
    9.3077035915910579e-03 -5.4772255750516607e-01
    7.8991541455018226e-03 -8.8741196746494255e-01
    7.8433290350605582e-03 -1.0070176299560269e+00
    7.9867924255991735e-03 -1.2105854952787560e+00
    7.8866455800206559e-03 -1.1110243021644484e+00
    7.8525510594511932e-03 -1.0502100630210076e+00
    7.8433290350605582e-03 -1.0070176299560269e+00
    7.8866455800206559e-03 -9.0007032074081883e-01
    8.1521749080421570e-03 -7.5592894601845462e-01
    8.1868504150736342e-03 -7.4454538215407429e-01
    8.8778828354084700e-03 -6.0158520751823830e-01
    1.0493412741648247e-02 -4.4908871313907184e-01
    1.1079146225116151e-02 -4.1488690933913980e-01
    1.2440390279069046e-02 -3.5494260376644549e-01
    1.4143913321502060e-02 -3.0265996338319096e-01
    1.5376944134571116e-02 -2.7420424855354092e-01
    1.9559599062228879e-02 -2.0927403192454677e-01
    1.9559599062228879e-02 -2.0927403192454677e-01
    2.1348693966792939e-02 -1.9034674690672027e-01
    2.3782552342007025e-02 -1.6963778593599416e-01
    1.6148128739625425e-02 -2.5916052767440806e-01
    1.5376944134571116e-02 -2.7420424855354092e-01
    1.5376944134571116e-02 -2.7420424855354092e-01
    1.4143913321502060e-02 -3.0265996338319096e-01
    1.3195838267236602e-02 -3.2943456373450819e-01
    1.0674346983396470e-02 -4.3779751788545662e-01
    1.0167548487649704e-02 -4.7140452079103173e-01
    9.2117713490453956e-03 -5.5850389927429078e-01
    8.8053552845146921e-03 -6.1237243569579447e-01
    8.3485549791258978e-03 -6.9970231765611113e-01
    8.2629265106446761e-03 -7.2199487238115545e-01
    8.0341922033097223e-03 -8.0229555708575417e-01
    7.8433290350605582e-03 -9.9303127398441549e-01
    8.0095700424241238e-03 -1.2283207764360913e+00
    8.0607077612135161e-03 -1.2649110640673518e+00
    8.0607077612135161e-03 -1.2649110640673518e+00
    8.0095700424241238e-03 -1.2283207764360913e+00
    7.8991541455018226e-03 -1.1268723396380222e+00
    8.4445509879379696e-03 -6.7763092717893847e-01
    1.1553357550052653e-02 -3.9144068062940629e-01
    9.3077035915910579e-03 -5.4772255750516607e-01
    8.0891702097165893e-03 -7.7893618033424783e-01
    7.8525510594511932e-03 -1.0502100630210076e+00
    7.9867924255991735e-03 -1.2105854952787560e+00
    8.0095700424241238e-03 -1.2283207764360913e+00
    7.9132976736502152e-03 -1.1430011430017146e+00
    7.8479359834960107e-03 -1.0355982657941938e+00
    7.8664452921850779e-03 -9.2582009977255153e-01
    8.0341922033097223e-03 -8.0229555708575417e-01
    8.0891702097165893e-03 -7.7893618033424783e-01
    8.5518806108088111e-03 -6.5574385243020006e-01
    1.0020398201425140e-02 -4.8245064067700760e-01
    1.1306503030589039e-02 -4.0323891927275596e-01
    1.2116749342216930e-02 -3.6731544334622651e-01
    1.3641197749745950e-02 -3.1622776601683794e-01
    1.7064123251250275e-02 -2.4343224778007383e-01
    1.9559599062228879e-02 -2.0927403192454677e-01
    2.3782552342007025e-02 -1.6963778593599416e-01
    2.1348693966792939e-02 -1.9034674690672027e-01
    2.1348693966792939e-02 -1.9034674690672027e-01
    1.5376944134571116e-02 -2.7420424855354092e-01
    1.5376944134571116e-02 -2.7420424855354092e-01
    1.4143913321502060e-02 -3.0265996338319096e-01
    1.4143913321502060e-02 -3.0265996338319096e-01
    1.2116749342216930e-02 -3.6731544334622651e-01
    1.0869056127933079e-02 -4.2640143271122083e-01
    1.0167548487649704e-02 -4.7140452079103173e-01
    9.0355109760477063e-03 -5.8004189342739820e-01
    8.8778828354084700e-03 -6.0158520751823830e-01
    8.4445509879379696e-03 -6.7763092717893847e-01
    8.3952005258507382e-03 -6.8864127390370045e-01
    8.0095700424241221e-03 -8.1411958438206022e-01
    7.8433290350605582e-03 -9.9303127398441549e-01
    7.8664452921850779e-03 -1.0801234497346435e+00
    8.0891702097165893e-03 -1.2838022231434825e+00
    8.0095700424241238e-03 -1.2283207764360913e+00
    8.0095700424241238e-03 -1.2283207764360913e+00
    7.9132976736502152e-03 -1.1430011430017146e+00
    8.3952005258507382e-03 -6.8864127390370045e-01
    1.3641197749745950e-02 -3.1622776601683794e-01
    9.3077035915910579e-03 -5.4772255750516607e-01
    7.9658148559784772e-03 -8.3808170984752584e-01
    7.8448637829541343e-03 -1.0212037714663722e+00
    7.9658148559784772e-03 -1.1932010784269858e+00
    7.9291021584854040e-03 -1.1594232596778307e+00
    7.8866455800206559e-03 -1.1110243021644484e+00
    7.8479359834960107e-03 -1.0355982657941938e+00
    7.8525510594511915e-03 -9.5219045713904649e-01
    8.0891702097165893e-03 -7.7893618033424783e-01
    8.1868504150736342e-03 -7.4454538215407429e-01
    8.7366964958348111e-03 -6.2317695284975583e-01
    9.6315461058725342e-03 -5.1525403992954466e-01
    1.0020398201425140e-02 -4.8245064067700760e-01
    1.2440390279069046e-02 -3.5494260376644549e-01
    1.2440390279069046e-02 -3.5494260376644549e-01
    1.7064123251250275e-02 -2.4343224778007383e-01
    1.7064123251250275e-02 -2.4343224778007383e-01
    1.9559599062228879e-02 -2.0927403192454677e-01
    2.3782552342007025e-02 -1.6963778593599416e-01
    2.1348693966792939e-02 -1.9034674690672027e-01
    1.7064123251250275e-02 -2.4343224778007383e-01
    1.5376944134571116e-02 -2.7420424855354092e-01
    1.3641197749745950e-02 -3.1622776601683794e-01
    1.3641197749745950e-02 -3.1622776601683794e-01
    1.1553357550052653e-02 -3.9144068062940629e-01
    1.1306503030589039e-02 -4.0323891927275596e-01
    9.7531394191879388e-03 -5.0436689513912447e-01
    9.1211575445516498e-03 -5.6927504255331107e-01
    8.7366964958348111e-03 -6.2317695284975583e-01
    8.3952005258507382e-03 -6.8864127390370045e-01
    8.3952005258507382e-03 -6.8864127390370045e-01
    7.9132976736502134e-03 -8.7488976377909000e-01
    7.8479359834960107e-03 -1.0355982657941938e+00
    8.0095700424241238e-03 -1.2283207764360913e+00
    8.1196380019763308e-03 -1.3031167282892082e+00
    8.0607077612135161e-03 -1.2649110640673518e+00
    8.0607077612135161e-03 -1.2649110640673518e+00
    7.8433290350605582e-03 -1.0070176299560269e+00
    8.4967320261437902e-03 -6.6666666666666663e-01
    1.6148128739625425e-02 -2.5916052767440806e-01
    8.7366964958348111e-03 -6.2317695284975583e-01
    8.3485549791258978e-03 -6.9970231765611113e-01
    7.9867924255991717e-03 -8.2604657324903319e-01
    7.9291021584854040e-03 -1.1594232596778307e+00
    7.9867924255991735e-03 -1.2105854952787560e+00
    7.9867924255991735e-03 -1.2105854952787560e+00
    7.8587171782336356e-03 -1.0650485238752996e+00
    7.8433290350605582e-03 -9.9303127398441549e-01
    7.9465969393053334e-03 -8.5023030189770343e-01
    8.0891702097165893e-03 -7.7893618033424783e-01
    8.4967320261437902e-03 -6.6666666666666663e-01
    8.9545148777423200e-03 -5.9081012497551599e-01
    1.0020398201425140e-02 -4.8245064067700760e-01
    1.1553357550052653e-02 -3.9144068062940629e-01
    1.3195838267236602e-02 -3.2943456373450819e-01
    1.3641197749745950e-02 -3.1622776601683794e-01
    1.4716771567578694e-02 -2.8867513459481287e-01
    1.5376944134571116e-02 -2.7420424855354092e-01
    1.6148128739625425e-02 -2.5916052767440806e-01
    1.4716771567578694e-02 -2.8867513459481287e-01
    1.4143913321502060e-02 -3.0265996338319096e-01
    1.4143913321502060e-02 -3.0265996338319096e-01
    1.3641197749745950e-02 -3.1622776601683794e-01
    1.3195838267236602e-02 -3.2943456373450819e-01
    1.1079146225116151e-02 -4.1488690933913980e-01
    9.7531394191879388e-03 -5.0436689513912447e-01
    9.3077035915910579e-03 -5.4772255750516607e-01
    9.2117713490453956e-03 -5.5850389927429078e-01
    8.5518806108088111e-03 -6.5574385243020006e-01
    8.3485549791258978e-03 -6.9970231765611113e-01
    8.2629265106446761e-03 -7.2199487238115545e-01
    7.9132976736502134e-03 -8.7488976377909000e-01
    7.8664452921850779e-03 -1.0801234497346435e+00
    7.9291021584854040e-03 -1.1594232596778307e+00
    8.2237401757072615e-03 -1.3638181696985852e+00
    8.0891702097165893e-03 -1.2838022231434825e+00
    7.9867924255991735e-03 -1.2105854952787560e+00
    7.8866455800206559e-03 -1.1110243021644484e+00
    8.3485549791258978e-03 -6.9970231765611113e-01
    1.5376944134571116e-02 -2.7420424855354092e-01
    9.4093446956475951e-03 -5.3692484417121944e-01
    8.4967320261437902e-03 -6.6666666666666663e-01
    8.0095700424241221e-03 -8.1411958438206022e-01
    7.8525510594511915e-03 -9.5219045713904649e-01
    7.9658148559784772e-03 -1.1932010784269858e+00
    7.9658148559784772e-03 -1.1932010784269858e+00
    7.8525510594511932e-03 -1.0502100630210076e+00
    7.8433290350605582e-03 -9.9303127398441549e-01
    7.9132976736502134e-03 -8.7488976377909000e-01
    8.0095700424241221e-03 -8.1411958438206022e-01
    8.3485549791258978e-03 -6.9970231765611113e-01
    8.7366964958348111e-03 -6.2317695284975583e-01
    9.4093446956475951e-03 -5.3692484417121944e-01
    1.0869056127933079e-02 -4.2640143271122083e-01
    1.2440390279069046e-02 -3.5494260376644549e-01
    1.2798092438437705e-02 -3.4232659844072882e-01
    1.2440390279069046e-02 -3.5494260376644549e-01
    1.3641197749745950e-02 -3.1622776601683794e-01
    1.3195838267236602e-02 -3.2943456373450819e-01
    1.4716771567578694e-02 -2.8867513459481287e-01
    1.3195838267236602e-02 -3.2943456373450819e-01
    1.3195838267236602e-02 -3.2943456373450819e-01
    1.1822371383113157e-02 -3.7947331922020555e-01
    1.1306503030589039e-02 -4.0323891927275596e-01
    1.0493412741648247e-02 -4.4908871313907184e-01
    9.5171299374710479e-03 -5.2610428080915128e-01
    9.1211575445516498e-03 -5.6927504255331107e-01
    8.8778828354084700e-03 -6.0158520751823830e-01
    8.4445509879379696e-03 -6.7763092717893847e-01
    8.3952005258507382e-03 -6.8864127390370045e-01
    8.2237401757072632e-03 -7.3323557510676651e-01
    7.9132976736502134e-03 -8.7488976377909000e-01
    7.8866455800206559e-03 -1.1110243021644484e+00
    7.9658148559784772e-03 -1.1932010784269858e+00
    8.0095700424241238e-03 -1.2283207764360913e+00
    7.9867924255991735e-03 -1.2105854952787560e+00
    7.9132976736502152e-03 -1.1430011430017146e+00
    7.8525510594511932e-03 -1.0502100630210076e+00
    8.3044989725049225e-03 -7.1081865331091088e-01
    1.8175124013325394e-02 -2.2687130324325755e-01
    1.1553357550052653e-02 -3.9144068062940629e-01
    8.8053552845146921e-03 -6.1237243569579447e-01
    8.2237401757072632e-03 -7.3323557510676651e-01
    7.8448637829541361e-03 -9.7923649318693240e-01
    7.8991541455018226e-03 -1.1268723396380222e+00
    8.0095700424241238e-03 -1.2283207764360913e+00
    7.8866455800206559e-03 -1.1110243021644484e+00
    7.9291021584854040e-03 -1.1594232596778307e+00
    7.8587171782336356e-03 -1.0650485238752996e+00
    7.8587171782336356e-03 -9.3892435657427742e-01
    8.1196380019763290e-03 -7.6739096221475578e-01
    8.2629265106446761e-03 -7.2199487238115545e-01
    9.3077035915910579e-03 -5.4772255750516607e-01
    9.2117713490453956e-03 -5.5850389927429078e-01
    1.0324876106624333e-02 -4.6028730894916170e-01
    1.1822371383113157e-02 -3.7947331922020555e-01
    1.2440390279069046e-02 -3.5494260376644549e-01
    1.3195838267236602e-02 -3.2943456373450819e-01
    1.1822371383113157e-02 -3.7947331922020555e-01
    1.2440390279069046e-02 -3.5494260376644549e-01
    1.1822371383113157e-02 -3.7947331922020555e-01
    1.1553357550052653e-02 -3.9144068062940629e-01
    1.0869056127933079e-02 -4.2640143271122083e-01
    9.8825249891749522e-03 -4.9343516379516900e-01
    9.5171299374710479e-03 -5.2610428080915128e-01
    9.0355109760477063e-03 -5.8004189342739820e-01
    8.8053552845146921e-03 -6.1237243569579447e-01
    8.8778828354084700e-03 -6.0158520751823830e-01
    8.4967320261437902e-03 -6.6666666666666663e-01
    8.3485549791258978e-03 -6.9970231765611113e-01
    8.0607077612135179e-03 -7.9056941504209499e-01
    7.8866455800206559e-03 -9.0007032074081883e-01
    7.9867924255991735e-03 -1.2105854952787560e+00
    7.8991541455018226e-03 -1.1268723396380222e+00
    7.9291021584854040e-03 -1.1594232596778307e+00
    7.9658148559784772e-03 -1.1932010784269858e+00
    7.9867924255991735e-03 -1.2105854952787560e+00
    7.8448637829541343e-03 -1.0212037714663722e+00
    8.6101461825240800e-03 -6.4485780150232797e-01
    1.8175124013325394e-02 -2.2687130324325755e-01
    1.3195838267236602e-02 -3.2943456373450819e-01
    9.7531394191879388e-03 -5.0436689513912447e-01
    8.6716919707584810e-03 -6.3400377310685252e-01
    7.8664452921850779e-03 -9.2582009977255153e-01
    7.8587171782336356e-03 -1.0650485238752996e+00
    7.8757491928847425e-03 -1.0954451150103324e+00
    8.0095700424241238e-03 -1.2283207764360913e+00
    8.0341922033097205e-03 -1.2464234547582247e+00
    8.0341922033097205e-03 -1.2464234547582247e+00
    7.8433290350605582e-03 -9.9303127398441549e-01
    7.8991541455018226e-03 -8.8741196746494255e-01
    8.3044989725049225e-03 -7.1081865331091088e-01
    8.5518806108088111e-03 -6.5574385243020006e-01
    8.8053552845146921e-03 -6.1237243569579447e-01
    9.6315461058725342e-03 -5.1525403992954466e-01
    1.0167548487649704e-02 -4.7140452079103173e-01
    1.0493412741648247e-02 -4.4908871313907184e-01
    1.1079146225116151e-02 -4.1488690933913980e-01
    1.1079146225116151e-02 -4.1488690933913980e-01
    1.1079146225116151e-02 -4.1488690933913980e-01
    1.1822371383113157e-02 -3.7947331922020555e-01
    1.1079146225116151e-02 -4.1488690933913980e-01
    9.7531394191879388e-03 -5.0436689513912447e-01
    9.0355109760477063e-03 -5.8004189342739820e-01
    8.8778828354084700e-03 -6.0158520751823830e-01
    8.8053552845146921e-03 -6.1237243569579447e-01
    8.8778828354084700e-03 -6.0158520751823830e-01
    8.6101461825240800e-03 -6.4485780150232797e-01
    8.3952005258507382e-03 -6.8864127390370045e-01
    8.2237401757072632e-03 -7.3323557510676651e-01
    7.8757491928847425e-03 -9.1287092917527690e-01
    7.8448637829541343e-03 -1.0212037714663722e+00
    7.9465969393053351e-03 -1.1761519176251569e+00
    7.8664452921850779e-03 -1.0801234497346435e+00
    7.9291021584854040e-03 -1.1594232596778307e+00
    7.9291021584854040e-03 -1.1594232596778307e+00
    7.8479359834960107e-03 -1.0355982657941938e+00
    7.8448637829541361e-03 -9.7923649318693240e-01
    1.0493412741648247e-02 -4.4908871313907184e-01
    1.4716771567578694e-02 -2.8867513459481287e-01
    1.4716771567578694e-02 -2.8867513459481287e-01
    1.0869056127933079e-02 -4.2640143271122083e-01
    8.8778828354084700e-03 -6.0158520751823830e-01
    8.2629265106446761e-03 -7.2199487238115545e-01
    7.8448637829541361e-03 -9.7923649318693240e-01
    7.9658148559784772e-03 -1.1932010784269858e+00
    7.9465969393053351e-03 -1.1761519176251569e+00
    7.8866455800206559e-03 -1.1110243021644484e+00
    7.9658148559784772e-03 -1.1932010784269858e+00
    7.8991541455018226e-03 -1.1268723396380222e+00
    7.8866455800206559e-03 -1.1110243021644484e+00
    7.8991541455018226e-03 -8.8741196746494255e-01
    8.0341922033097223e-03 -8.0229555708575417e-01
    8.2237401757072632e-03 -7.3323557510676651e-01
    8.5518806108088111e-03 -6.5574385243020006e-01
    9.6315461058725342e-03 -5.1525403992954466e-01
    9.7531394191879388e-03 -5.0436689513912447e-01
    9.6315461058725342e-03 -5.1525403992954466e-01
    9.6315461058725342e-03 -5.1525403992954466e-01
    9.8825249891749522e-03 -4.9343516379516900e-01
    1.0493412741648247e-02 -4.4908871313907184e-01
    9.4093446956475951e-03 -5.3692484417121944e-01
    9.2117713490453956e-03 -5.5850389927429078e-01
    8.9545148777423200e-03 -5.9081012497551599e-01
    8.8053552845146921e-03 -6.1237243569579447e-01
    8.5518806108088111e-03 -6.5574385243020006e-01
    8.7366964958348111e-03 -6.2317695284975583e-01
    8.4445509879379696e-03 -6.7763092717893847e-01
    8.3485549791258978e-03 -6.9970231765611113e-01
    7.9867924255991717e-03 -8.2604657324903319e-01
    7.8479359834960107e-03 -1.0355982657941938e+00
    7.8433290350605582e-03 -9.9303127398441549e-01
    7.8664452921850779e-03 -1.0801234497346435e+00
    7.8991541455018226e-03 -1.1268723396380222e+00
    7.8587171782336356e-03 -1.0650485238752996e+00
    7.8757491928847425e-03 -1.0954451150103324e+00
    7.8448637829541361e-03 -9.7923649318693240e-01
    8.1196380019763290e-03 -7.6739096221475578e-01
    1.1822371383113157e-02 -3.7947331922020555e-01
    1.7064123251250275e-02 -2.4343224778007383e-01
    1.3641197749745950e-02 -3.1622776601683794e-01
    1.2116749342216930e-02 -3.6731544334622651e-01
    9.1211575445516498e-03 -5.6927504255331107e-01
    8.5518806108088111e-03 -6.5574385243020006e-01
    8.0341922033097223e-03 -8.0229555708575417e-01
    7.8525510594511932e-03 -1.0502100630210076e+00
    8.0095700424241238e-03 -1.2283207764360913e+00
    7.9291021584854040e-03 -1.1594232596778307e+00
    7.8479359834960107e-03 -1.0355982657941938e+00
    8.0341922033097205e-03 -1.2464234547582247e+00
    7.8664452921850779e-03 -1.0801234497346435e+00
    7.8757491928847425e-03 -9.1287092917527690e-01
    7.8664452921850779e-03 -9.2582009977255153e-01
    7.9867924255991717e-03 -8.2604657324903319e-01
    8.3044989725049225e-03 -7.1081865331091088e-01
    8.6101461825240800e-03 -6.4485780150232797e-01
    8.7366964958348111e-03 -6.2317695284975583e-01
    9.3077035915910579e-03 -5.4772255750516607e-01
    9.0355109760477063e-03 -5.8004189342739820e-01
    9.0355109760477063e-03 -5.8004189342739820e-01
    9.2117713490453956e-03 -5.5850389927429078e-01
    8.8053552845146921e-03 -6.1237243569579447e-01
    8.5518806108088111e-03 -6.5574385243020006e-01
    8.5518806108088111e-03 -6.5574385243020006e-01
    8.4967320261437902e-03 -6.6666666666666663e-01
    8.3485549791258978e-03 -6.9970231765611113e-01
    8.5518806108088111e-03 -6.5574385243020006e-01
    8.3044989725049225e-03 -7.1081865331091088e-01
    8.0607077612135179e-03 -7.9056941504209499e-01
    7.9132976736502134e-03 -8.7488976377909000e-01
    7.8479359834960107e-03 -1.0355982657941938e+00
    7.8664452921850779e-03 -1.0801234497346435e+00
    7.8991541455018226e-03 -1.1268723396380222e+00
    7.8866455800206559e-03 -1.1110243021644484e+00
    7.8866455800206559e-03 -1.1110243021644484e+00
    7.8587171782336356e-03 -9.3892435657427742e-01
    7.9291021584854057e-03 -8.6249779073594746e-01
    8.6716919707584810e-03 -6.3400377310685252e-01
    1.2440390279069046e-02 -3.5494260376644549e-01
    1.9559599062228879e-02 -2.0927403192454677e-01
    1.6148128739625425e-02 -2.5916052767440806e-01
    1.4716771567578694e-02 -2.8867513459481287e-01
    1.0020398201425140e-02 -4.8245064067700760e-01
    8.9545148777423200e-03 -5.9081012497551599e-01
    8.3044989725049225e-03 -7.1081865331091088e-01
    7.9867924255991717e-03 -8.2604657324903319e-01
    7.8448637829541361e-03 -9.7923649318693240e-01
    7.8757491928847425e-03 -9.1287092917527690e-01
    7.8433290350605582e-03 -9.9303127398441549e-01
    8.0341922033097205e-03 -1.2464234547582247e+00
    8.0891702097165893e-03 -1.2838022231434825e+00
    8.0607077612135161e-03 -1.2649110640673518e+00
    7.9867924255991735e-03 -1.2105854952787560e+00
    7.9291021584854040e-03 -1.1594232596778307e+00
    7.8587171782336356e-03 -9.3892435657427742e-01
    8.1868504150736342e-03 -7.4454538215407429e-01
    8.3485549791258978e-03 -6.9970231765611113e-01
    8.3044989725049225e-03 -7.1081865331091088e-01
    8.5518806108088111e-03 -6.5574385243020006e-01
    8.3044989725049225e-03 -7.1081865331091088e-01
    8.6716919707584810e-03 -6.3400377310685252e-01
    8.2629265106446761e-03 -7.2199487238115545e-01
    8.1521749080421570e-03 -7.5592894601845462e-01
    8.1868504150736342e-03 -7.4454538215407429e-01
    8.1521749080421570e-03 -7.5592894601845462e-01
    8.2237401757072632e-03 -7.3323557510676651e-01
    8.1868504150736342e-03 -7.4454538215407429e-01
    8.0341922033097223e-03 -8.0229555708575417e-01
    7.9132976736502134e-03 -8.7488976377909000e-01
    7.8587171782336356e-03 -1.0650485238752996e+00
    7.8866455800206559e-03 -1.1110243021644484e+00
    7.8587171782336356e-03 -1.0650485238752996e+00
    7.8433290350605582e-03 -9.9303127398441549e-01
    7.8448637829541343e-03 -1.0212037714663722e+00
    7.8448637829541361e-03 -9.7923649318693240e-01
    7.8757491928847425e-03 -9.1287092917527690e-01
    8.1196380019763290e-03 -7.6739096221475578e-01
    9.8825249891749522e-03 -4.9343516379516900e-01
    1.8175124013325394e-02 -2.2687130324325755e-01
    1.9559599062228879e-02 -2.0927403192454677e-01
    1.6148128739625425e-02 -2.5916052767440806e-01
    1.4716771567578694e-02 -2.8867513459481287e-01
    1.1822371383113157e-02 -3.7947331922020555e-01
    9.7531394191879388e-03 -5.0436689513912447e-01
    8.3044989725049225e-03 -7.1081865331091088e-01
    8.0607077612135179e-03 -7.9056941504209499e-01
    7.9658148559784772e-03 -8.3808170984752584e-01
    7.8448637829541361e-03 -9.7923649318693240e-01
    7.8448637829541361e-03 -9.7923649318693240e-01
    7.8991541455018226e-03 -1.1268723396380222e+00
    7.9658148559784772e-03 -1.1932010784269858e+00
    8.1196380019763308e-03 -1.3031167282892082e+00
    8.1521749080421570e-03 -1.3228756555322956e+00
    8.0095700424241238e-03 -1.2283207764360913e+00
    7.9132976736502152e-03 -1.1430011430017146e+00
    7.8525510594511932e-03 -1.0502100630210076e+00
    7.8664452921850779e-03 -9.2582009977255153e-01
    7.9132976736502134e-03 -8.7488976377909000e-01
    7.9658148559784772e-03 -8.3808170984752584e-01
    7.9465969393053334e-03 -8.5023030189770343e-01
    8.0891702097165893e-03 -7.7893618033424783e-01
    7.9867924255991717e-03 -8.2604657324903319e-01
    8.0341922033097223e-03 -8.0229555708575417e-01
    7.9867924255991717e-03 -8.2604657324903319e-01
    8.1521749080421570e-03 -7.5592894601845462e-01
    8.0891702097165893e-03 -7.7893618033424783e-01
    7.9291021584854057e-03 -8.6249779073594746e-01
    7.8448637829541343e-03 -1.0212037714663722e+00
    7.8587171782336356e-03 -1.0650485238752996e+00
    7.9867924255991735e-03 -1.2105854952787560e+00
    7.8991541455018226e-03 -1.1268723396380222e+00
    7.8991541455018226e-03 -1.1268723396380222e+00
    7.8664452921850779e-03 -1.0801234497346435e+00
    7.8448637829541361e-03 -9.7923649318693240e-01
    7.8525510594511915e-03 -9.5219045713904649e-01
    7.8664452921850779e-03 -9.2582009977255153e-01
    8.6101461825240800e-03 -6.4485780150232797e-01
    1.3195838267236602e-02 -3.2943456373450819e-01
    1.8175124013325394e-02 -2.2687130324325755e-01
    2.7363472633654948e-02 -1.4638501094227999e-01
    1.4716771567578694e-02 -2.8867513459481287e-01
    1.4716771567578694e-02 -2.8867513459481287e-01
    1.3641197749745950e-02 -3.1622776601683794e-01
    1.1822371383113157e-02 -3.7947331922020555e-01
    9.0355109760477063e-03 -5.8004189342739820e-01
    8.5518806108088111e-03 -6.5574385243020006e-01
    8.0891702097165893e-03 -7.7893618033424783e-01
    8.2237401757072632e-03 -7.3323557510676651e-01
    7.8587171782336356e-03 -9.3892435657427742e-01
    7.8448637829541343e-03 -1.0212037714663722e+00
    7.8991541455018226e-03 -1.1268723396380222e+00
    8.1868504150736342e-03 -1.3431014736897025e+00
    8.1196380019763308e-03 -1.3031167282892082e+00
    8.1868504150736342e-03 -1.3431014736897025e+00
    7.9867924255991735e-03 -1.2105854952787560e+00
    8.0095700424241238e-03 -1.2283207764360913e+00
    7.9658148559784772e-03 -1.1932010784269858e+00
    7.8664452921850779e-03 -1.0801234497346435e+00
    7.8433290350605582e-03 -9.9303127398441549e-01
    7.8479359834960107e-03 -1.0355982657941938e+00
    7.8866455800206559e-03 -9.0007032074081883e-01
    7.8664452921850779e-03 -9.2582009977255153e-01
    7.9291021584854057e-03 -8.6249779073594746e-01
    7.8991541455018226e-03 -8.8741196746494255e-01
    7.9132976736502134e-03 -8.7488976377909000e-01
    7.8866455800206559e-03 -9.0007032074081883e-01
    7.8664452921850779e-03 -1.0801234497346435e+00
    7.8866455800206559e-03 -1.1110243021644484e+00
    7.9132976736502152e-03 -1.1430011430017146e+00
    7.9132976736502152e-03 -1.1430011430017146e+00
    7.8866455800206559e-03 -1.1110243021644484e+00
    7.8664452921850779e-03 -9.2582009977255153e-01
    7.8866455800206559e-03 -9.0007032074081883e-01
    7.8587171782336356e-03 -9.3892435657427742e-01
    7.8866455800206559e-03 -9.0007032074081883e-01
    8.3044989725049225e-03 -7.1081865331091088e-01
    1.0020398201425140e-02 -4.8245064067700760e-01
    1.5376944134571116e-02 -2.7420424855354092e-01
    1.8175124013325394e-02 -2.2687130324325755e-01
    2.1348693966792939e-02 -1.9034674690672027e-01
    1.8175124013325394e-02 -2.2687130324325755e-01
    1.5376944134571116e-02 -2.7420424855354092e-01
    1.4143913321502060e-02 -3.0265996338319096e-01
    1.4716771567578694e-02 -2.8867513459481287e-01
    1.1306503030589039e-02 -4.0323891927275596e-01
    9.3077035915910579e-03 -5.4772255750516607e-01
    8.6101461825240800e-03 -6.4485780150232797e-01
    8.0095700424241221e-03 -8.1411958438206022e-01
    8.0607077612135179e-03 -7.9056941504209499e-01
    7.8448637829541361e-03 -9.7923649318693240e-01
    7.8991541455018226e-03 -1.1268723396380222e+00
    7.9658148559784772e-03 -1.1932010784269858e+00
    8.0095700424241238e-03 -1.2283207764360913e+00
    8.2629265106446761e-03 -1.3850513878332371e+00
    8.2237401757072615e-03 -1.3638181696985852e+00
    8.2237401757072615e-03 -1.3638181696985852e+00
    8.1868504150736342e-03 -1.3431014736897025e+00
    8.0095700424241238e-03 -1.2283207764360913e+00
    8.1521749080421570e-03 -1.3228756555322956e+00
    8.0607077612135161e-03 -1.2649110640673518e+00
    7.9291021584854040e-03 -1.1594232596778307e+00
    7.9867924255991735e-03 -1.2105854952787560e+00
    7.8525510594511932e-03 -1.0502100630210076e+00
    7.8479359834960107e-03 -9.6562540999728885e-01
    7.8664452921850779e-03 -1.0801234497346435e+00
    7.8587171782336356e-03 -1.0650485238752996e+00
    7.9291021584854040e-03 -1.1594232596778307e+00
    7.9291021584854040e-03 -1.1594232596778307e+00
    7.9132976736502152e-03 -1.1430011430017146e+00
    7.8587171782336356e-03 -1.0650485238752996e+00
    7.8448637829541343e-03 -1.0212037714663722e+00
    7.9291021584854057e-03 -8.6249779073594746e-01
    7.8866455800206559e-03 -9.0007032074081883e-01
    7.8991541455018226e-03 -8.8741196746494255e-01
    8.3952005258507382e-03 -6.8864127390370045e-01
    9.3077035915910579e-03 -5.4772255750516607e-01
    1.0493412741648247e-02 -4.4908871313907184e-01
    1.7064123251250275e-02 -2.4343224778007383e-01
    2.1348693966792939e-02 -1.9034674690672027e-01
    1.9559599062228879e-02 -2.0927403192454677e-01
    1.9559599062228879e-02 -2.0927403192454677e-01
    1.5376944134571116e-02 -2.7420424855354092e-01
    1.6148128739625425e-02 -2.5916052767440806e-01
    1.7064123251250275e-02 -2.4343224778007383e-01
    1.5376944134571116e-02 -2.7420424855354092e-01
    1.2798092438437705e-02 -3.4232659844072882e-01
    9.7531394191879388e-03 -5.0436689513912447e-01
    8.3044989725049225e-03 -7.1081865331091088e-01
    8.0607077612135179e-03 -7.9056941504209499e-01
    8.0607077612135179e-03 -7.9056941504209499e-01
    7.8525510594511915e-03 -9.5219045713904649e-01
    7.8991541455018226e-03 -1.1268723396380222e+00
    7.9867924255991735e-03 -1.2105854952787560e+00
    8.1196380019763308e-03 -1.3031167282892082e+00
    8.3485549791258978e-03 -1.4291792020209930e+00
    8.3952005258507382e-03 -1.4521348601882378e+00
    8.4445509879379696e-03 -1.4757295747452437e+00
    8.2237401757072615e-03 -1.3638181696985852e+00
    8.2237401757072615e-03 -1.3638181696985852e+00
    8.1521749080421570e-03 -1.3228756555322956e+00
    8.1196380019763308e-03 -1.3031167282892082e+00
    8.0095700424241238e-03 -1.2283207764360913e+00
    8.1521749080421570e-03 -1.3228756555322956e+00
    8.0891702097165893e-03 -1.2838022231434825e+00
    7.9658148559784772e-03 -1.1932010784269858e+00
    7.9291021584854040e-03 -1.1594232596778307e+00
    7.9291021584854040e-03 -1.1594232596778307e+00
    8.0095700424241238e-03 -1.2283207764360913e+00
    7.9465969393053351e-03 -1.1761519176251569e+00
    7.8664452921850779e-03 -1.0801234497346435e+00
    7.8433290350605582e-03 -1.0070176299560269e+00
    7.8757491928847425e-03 -9.1287092917527690e-01
    7.9867924255991717e-03 -8.2604657324903319e-01
    8.4445509879379696e-03 -6.7763092717893847e-01
    9.1211575445516498e-03 -5.6927504255331107e-01
    1.0674346983396470e-02 -4.3779751788545662e-01
    1.5376944134571116e-02 -2.7420424855354092e-01
    2.1348693966792939e-02 -1.9034674690672027e-01
    2.1348693966792939e-02 -1.9034674690672027e-01
    4.7059974210363342e-02 -8.3918135829668894e-02
    2.3782552342007025e-02 -1.6963778593599416e-01
    1.7064123251250275e-02 -2.4343224778007383e-01
    1.9559599062228879e-02 -2.0927403192454677e-01
    1.7064123251250275e-02 -2.4343224778007383e-01
    1.8175124013325394e-02 -2.2687130324325755e-01
    1.3641197749745950e-02 -3.1622776601683794e-01
    1.1822371383113157e-02 -3.7947331922020555e-01
    9.4093446956475951e-03 -5.3692484417121944e-01
    8.2237401757072632e-03 -7.3323557510676651e-01
    7.9132976736502134e-03 -8.7488976377909000e-01
    7.8757491928847425e-03 -9.1287092917527690e-01
    7.8525510594511932e-03 -1.0502100630210076e+00
    7.9465969393053351e-03 -1.1761519176251569e+00
    8.0095700424241238e-03 -1.2283207764360913e+00
    8.1868504150736342e-03 -1.3431014736897025e+00
    8.3952005258507382e-03 -1.4521348601882378e+00
    8.4967320261437902e-03 -1.5000000000000000e+00
    8.3952005258507382e-03 -1.4521348601882378e+00
    8.2629265106446761e-03 -1.3850513878332371e+00
    8.3044989725049225e-03 -1.4068285846778443e+00
    8.3952005258507382e-03 -1.4521348601882378e+00
    8.4967320261437902e-03 -1.5000000000000000e+00
    8.2629265106446761e-03 -1.3850513878332371e+00
    8.1868504150736342e-03 -1.3431014736897025e+00
    7.9658148559784772e-03 -1.1932010784269858e+00
    7.9291021584854040e-03 -1.1594232596778307e+00
    7.9465969393053351e-03 -1.1761519176251569e+00
    7.9291021584854040e-03 -1.1594232596778307e+00
    7.8587171782336356e-03 -9.3892435657427742e-01
    7.8448637829541343e-03 -1.0212037714663722e+00
    7.8587171782336356e-03 -9.3892435657427742e-01
    8.0341922033097223e-03 -8.0229555708575417e-01
    9.2117713490453956e-03 -5.5850389927429078e-01
    9.1211575445516498e-03 -5.6927504255331107e-01
    1.0020398201425140e-02 -4.8245064067700760e-01
    1.3641197749745950e-02 -3.1622776601683794e-01
    1.6148128739625425e-02 -2.5916052767440806e-01
    2.3782552342007025e-02 -1.6963778593599416e-01
    3.3394219916503591e-02 -1.1909826683508273e-01
    4.7059974210363342e-02 -8.3918135829668894e-02 1. 0.
    2.3782552342007025e-02 -1.6963778593599416e-01
    1.7064123251250275e-02 -2.4343224778007383e-01
    1.8175124013325394e-02 -2.2687130324325755e-01
    1.8175124013325394e-02 -2.2687130324325755e-01
    1.4716771567578694e-02 -2.8867513459481287e-01
    1.4716771567578694e-02 -2.8867513459481287e-01
    1.1822371383113157e-02 -3.7947331922020555e-01
    9.5171299374710479e-03 -5.2610428080915128e-01
    8.4445509879379696e-03 -6.7763092717893847e-01
    8.0341922033097223e-03 -8.0229555708575417e-01
    7.8525510594511915e-03 -9.5219045713904649e-01
    7.8525510594511932e-03 -1.0502100630210076e+00
    7.9658148559784772e-03 -1.1932010784269858e+00
    8.0891702097165893e-03 -1.2838022231434825e+00
    8.1196380019763308e-03 -1.3031167282892082e+00
    8.1521749080421570e-03 -1.3228756555322956e+00
    8.2629265106446761e-03 -1.3850513878332371e+00
    8.2629265106446761e-03 -1.3850513878332371e+00
    8.3044989725049225e-03 -1.4068285846778443e+00
    8.2237401757072615e-03 -1.3638181696985852e+00
    8.1868504150736342e-03 -1.3431014736897025e+00
    8.3044989725049225e-03 -1.4068285846778443e+00
    8.0607077612135161e-03 -1.2649110640673518e+00
    8.0607077612135161e-03 -1.2649110640673518e+00
    7.9867924255991735e-03 -1.2105854952787560e+00
    7.8525510594511932e-03 -1.0502100630210076e+00
    7.8525510594511932e-03 -1.0502100630210076e+00
    7.8991541455018226e-03 -8.8741196746494255e-01
    8.0095700424241221e-03 -8.1411958438206022e-01
    8.1521749080421570e-03 -7.5592894601845462e-01
    8.8053552845146921e-03 -6.1237243569579447e-01
    8.8053552845146921e-03 -6.1237243569579447e-01
    9.0355109760477063e-03 -5.8004189342739820e-01
    1.2798092438437705e-02 -3.4232659844072882e-01
    1.5376944134571116e-02 -2.7420424855354092e-01
    2.1348693966792939e-02 -1.9034674690672027e-01
    3.3394219916503591e-02 -1.1909826683508273e-01 1. 0.
    4.7059974210363342e-02 -8.3918135829668894e-02 1. 0. 1. 0.
    2.7363472633654948e-02 -1.4638501094227999e-01
    1.9559599062228879e-02 -2.0927403192454677e-01
    1.6148128739625425e-02 -2.5916052767440806e-01
    1.5376944134571116e-02 -2.7420424855354092e-01
    1.5376944134571116e-02 -2.7420424855354092e-01
    1.4716771567578694e-02 -2.8867513459481287e-01
    1.2116749342216930e-02 -3.6731544334622651e-01
    1.0020398201425140e-02 -4.8245064067700760e-01
    8.9545148777423200e-03 -5.9081012497551599e-01
    8.2237401757072632e-03 -7.3323557510676651e-01
    8.0607077612135179e-03 -7.9056941504209499e-01
    7.9658148559784772e-03 -8.3808170984752584e-01
    7.9867924255991717e-03 -8.2604657324903319e-01
    7.8525510594511915e-03 -9.5219045713904649e-01
    7.8587171782336356e-03 -1.0650485238752996e+00
    7.9465969393053351e-03 -1.1761519176251569e+00
    7.9291021584854040e-03 -1.1594232596778307e+00
    7.9132976736502152e-03 -1.1430011430017146e+00
    7.9465969393053351e-03 -1.1761519176251569e+00
    7.9658148559784772e-03 -1.1932010784269858e+00
    7.9291021584854040e-03 -1.1594232596778307e+00
    7.9132976736502152e-03 -1.1430011430017146e+00
    7.9132976736502152e-03 -1.1430011430017146e+00
    7.8664452921850779e-03 -1.0801234497346435e+00
    7.8479359834960107e-03 -9.6562540999728885e-01
    7.9291021584854057e-03 -8.6249779073594746e-01
    8.0341922033097223e-03 -8.0229555708575417e-01
    8.1868504150736342e-03 -7.4454538215407429e-01
    8.3952005258507382e-03 -6.8864127390370045e-01
    8.5518806108088111e-03 -6.5574385243020006e-01
    8.6101461825240800e-03 -6.4485780150232797e-01
    1.1553357550052653e-02 -3.9144068062940629e-01
    1.3641197749745950e-02 -3.1622776601683794e-01
    1.4716771567578694e-02 -2.8867513459481287e-01
    3.3394219916503591e-02 -1.1909826683508273e-01 1. 0. 1. 0.
    4.7059974210363342e-02 -8.3918135829668894e-02 1. 0. 1. 0. 1. 0.
    3.3394219916503591e-02 -1.1909826683508273e-01
    1.9559599062228879e-02 -2.0927403192454677e-01
    2.1348693966792939e-02 -1.9034674690672027e-01
    1.7064123251250275e-02 -2.4343224778007383e-01
    1.6148128739625425e-02 -2.5916052767440806e-01
    1.6148128739625425e-02 -2.5916052767440806e-01
    1.3195838267236602e-02 -3.2943456373450819e-01
    1.0324876106624333e-02 -4.6028730894916170e-01
    1.0020398201425140e-02 -4.8245064067700760e-01
    8.3485549791258978e-03 -6.9970231765611113e-01
    8.0095700424241221e-03 -8.1411958438206022e-01
    8.0341922033097223e-03 -8.0229555708575417e-01
    8.0095700424241221e-03 -8.1411958438206022e-01
    7.8479359834960107e-03 -9.6562540999728885e-01
    7.8525510594511915e-03 -9.5219045713904649e-01
    7.8587171782336356e-03 -9.3892435657427742e-01
    7.8479359834960107e-03 -1.0355982657941938e+00
    7.8433290350605582e-03 -9.9303127398441549e-01
    7.8587171782336356e-03 -9.3892435657427742e-01
    7.8448637829541343e-03 -1.0212037714663722e+00
    7.8448637829541343e-03 -1.0212037714663722e+00
    7.8433290350605582e-03 -1.0070176299560269e+00
    7.9291021584854057e-03 -8.6249779073594746e-01
    8.0891702097165893e-03 -7.7893618033424783e-01
    8.4967320261437902e-03 -6.6666666666666663e-01
    8.4967320261437902e-03 -6.6666666666666663e-01
    8.7366964958348111e-03 -6.2317695284975583e-01
    9.0355109760477063e-03 -5.8004189342739820e-01
    9.8825249891749522e-03 -4.9343516379516900e-01
    1.2116749342216930e-02 -3.6731544334622651e-01
    1.2440390279069046e-02 -3.5494260376644549e-01
    1.4143913321502060e-02 -3.0265996338319096e-01
    2.3782552342007025e-02 -1.6963778593599416e-01
    3.3394219916503591e-02 -1.1909826683508273e-01 1. 0. 1. 0.
    4.7059974210363342e-02 -8.3918135829668894e-02 1. 0. 1. 0. 1. 0.
    3.3394219916503591e-02 -1.1909826683508273e-01
    2.3782552342007025e-02 -1.6963778593599416e-01
    2.3782552342007025e-02 -1.6963778593599416e-01
    2.3782552342007025e-02 -1.6963778593599416e-01
    1.9559599062228879e-02 -2.0927403192454677e-01
    2.3782552342007025e-02 -1.6963778593599416e-01
    1.9559599062228879e-02 -2.0927403192454677e-01
    1.4716771567578694e-02 -2.8867513459481287e-01
    1.3195838267236602e-02 -3.2943456373450819e-01
    1.2116749342216930e-02 -3.6731544334622651e-01
    1.0493412741648247e-02 -4.4908871313907184e-01
    9.0355109760477063e-03 -5.8004189342739820e-01
    8.8053552845146921e-03 -6.1237243569579447e-01
    8.8053552845146921e-03 -6.1237243569579447e-01
    8.7366964958348111e-03 -6.2317695284975583e-01
    8.7366964958348111e-03 -6.2317695284975583e-01
    8.1521749080421570e-03 -7.5592894601845462e-01
    8.2237401757072632e-03 -7.3323557510676651e-01
    8.1196380019763290e-03 -7.6739096221475578e-01
    8.0607077612135179e-03 -7.9056941504209499e-01
    8.0341922033097223e-03 -8.0229555708575417e-01
    8.3044989725049225e-03 -7.1081865331091088e-01
    8.4445509879379696e-03 -6.7763092717893847e-01
    8.8778828354084700e-03 -6.0158520751823830e-01
    9.3077035915910579e-03 -5.4772255750516607e-01
    9.1211575445516498e-03 -5.6927504255331107e-01
    9.5171299374710479e-03 -5.2610428080915128e-01
    1.4143913321502060e-02 -3.0265996338319096e-01
    1.2440390279069046e-02 -3.5494260376644549e-01
    1.5376944134571116e-02 -2.7420424855354092e-01
    1.6148128739625425e-02 -2.5916052767440806e-01
    1.7064123251250275e-02 -2.4343224778007383e-01
    3.3394219916503591e-02 -1.1909826683508273e-01 1. 0. 1. 0. 1. 0.</input_scale>
  <output_scale>
    1.0526315789473684e+00 0.</output_scale>
  <inv_output_scale>
    9.4999999999999996e-01 0.</inv_output_scale>
  <weights>
    <_>
      -2.6025709887647776e-02 -2.1167701642460946e-02
      -1.7139883478456394e-02 -7.7647444418014024e-03
      1.1997420217223519e-02 -2.5687868344556495e-03
      7.5217303679001469e-03 1.2565117511185752e-02
      1.2415652341654000e-03 -3.9789554630967526e-02
      -7.1482939388313503e-03 -1.0250574497536059e-02
      -6.4621419477346878e-03 9.0460174192992723e-03
      2.1049030496804698e-03 -6.7817135893026726e-03
      3.2864311329389721e-03 -1.0905032956639327e-02
      3.8745021432959617e-02 -3.9353063724918320e-02
      1.1236246748454807e-02 -3.8090999729130932e-03
      -2.6578687857226001e-03 -1.5300504925043907e-02
      -6.5916955699930656e-03 2.3642333183236052e-03
      -3.1043736665946758e-02 3.3110962788423959e-02
      -5.8780735442663804e-03 -5.9937844177415552e-03
      1.8490492766181858e-02 2.8519393894943196e-02
      -4.0870375550378854e-02 -6.7189361808116868e-03
      -9.5387852598033240e-03 -2.3036373893244211e-03
      -1.4955881802429190e-02 -8.3154220251753473e-03
      2.0677965839212401e-02 1.4286493244869389e-02
      6.7091429743926748e-02 1.3067910528574872e-02
      1.0779593741828906e-02 6.2661296183516013e-03
      -1.2089159613186346e-02 3.0492040007664167e-03
      -7.2990796183514525e-03 -1.1187089145541330e-02
      -1.2390568883973386e-03 8.9026908321423823e-03
      5.2398020067930028e-03 1.2049422083466000e-02
      6.5119711459072542e-03 -8.0348580577089459e-03
      -2.1289302581095708e-03 6.1972797368024307e-03
      -2.2443953380027930e-03 1.0339638234343975e-02
      -1.0579764289887390e-02 1.0456536463071741e-02
      -1.0529552938067772e-02 4.1385188977301635e-03
      2.1709177696676817e-03 1.2293077510601408e-02
      5.8023504247442055e-03 -3.8228606643027616e-03
      1.0177617022916250e-02 -1.0604773095934513e-02
      6.9196158419948276e-03 5.1713990935096351e-03
      -1.2042986844583669e-02 -9.9615676543540269e-03
      8.2005401691549046e-03 7.3320828157508438e-03
      8.9009495333603906e-03 2.9688432417920903e-03
      1.1999631733727645e-02 7.1814942359656637e-03
      -1.3220050249985633e-02 -1.1514707785870930e-02
      6.2167697196106333e-02 1.3198663397795246e-02
      1.1178798472059553e-02 4.0849672102417191e-03
      -1.1214762898870669e-02 3.8128229997181642e-03
      -4.5755466402586818e-03 -1.1249791137094246e-02
      -1.8858681314697201e-03 9.1516833106270509e-03
      3.3450329651474610e-03 9.7401080109730011e-03
      4.7985757685786029e-03 -7.4468099014833788e-03
      -4.3356467808135333e-04 2.9330955445686104e-03
      -7.2272204951007385e-04 9.7537289524307954e-03
      -1.0568095931784453e-02 1.0314869353695924e-02
      -9.6034779706912592e-03 2.9768440585064824e-03
      6.9305545176605332e-04 1.2104588863691298e-02
      3.5561013121172096e-03 -7.6327069559944374e-04
      9.9014661131720319e-03 -1.0715555382080667e-02
      5.8452071175465713e-03 3.4744528166955925e-03
      -1.1123470479418515e-02 -1.0979394501635932e-02
      8.3805032573711549e-03 4.1962346031645999e-03
      8.1620052793219145e-03 3.1945093964233172e-03
      1.0105329512929372e-02 6.1839564899175093e-03
      -1.3498042257083943e-02 -1.0512223274859577e-02
      6.7442873511576143e-02 1.4194371001942482e-02
      1.1883720958184660e-02 7.1852644593698141e-03
      -1.1100008797547993e-02 4.1575846521812055e-03
      -5.7611037824856015e-03 -1.2174128251902951e-02
      -2.1908053200961784e-03 9.2213343983051747e-03
      6.5788745382528669e-03 1.1546540262846667e-02
      7.0334652170664222e-03 -9.2098378601775301e-03
      -2.5343023556321379e-03 6.6304826648528542e-03
      -2.1173927561679269e-03 1.0816611058007013e-02
      -1.0529203707380598e-02 8.5898211555592123e-03
      -1.0344992116355509e-02 3.2251030642665196e-03
      3.5519869275733034e-03 1.0979575251702111e-02
      7.1801010011333698e-03 -3.2201095515408339e-03
      9.8088936457585811e-03 -1.0745255447928313e-02
      8.1751992059198482e-03 6.6219761836136537e-03
      -1.1527052135453188e-02 -9.3397146356232856e-03
      1.0496156096372207e-02 6.6620690615549188e-03
      9.6535173327063767e-03 3.6272456832711704e-03
      1.2084965533658109e-02 8.7303057878280431e-03
      -1.1592598335227184e-02 -1.1710489589568355e-02
      7.6792128537373156e-04 3.9113966154086634e-04
      1.0223290973327929e-04 -7.4051485516200854e-04
      -1.0613465030639344e-03 1.2195734907036050e-03
      7.8348237475296342e-04 6.2273781643240763e-04
      -6.8533836696241007e-04 -5.6083736816806462e-04
      1.9154761838263633e-04 -5.4979385448701730e-04
      8.3192936768511632e-04 -5.4251001121607728e-04
      -9.5949344330447761e-04 -8.2391837064399703e-04
      9.9710439467748358e-04 2.3306896178115530e-04
      7.2939638117246631e-04 -7.0924623867844069e-04
      -8.1654930446447226e-04 -3.5859610113503105e-04
      -9.0056365953744696e-04 7.2327842410388086e-04
      9.9368987839671113e-04 6.7204190186007920e-04
      -9.6018195820310795e-04 1.1309850430212796e-03
      -1.2108542536666820e-03 -1.2192476459423629e-04
      1.1874979022113809e-03 1.1181620405702841e-03
      -1.1762246172103261e-03 -3.1067637113254138e-04
      -1.0466778412739374e-03 8.7273754851174812e-04
      -1.6315578044241819e-04 9.8650727645104995e-04
      -2.6554248025771376e-04 5.6806831594354706e-04
      1.1936854513403968e-03 -9.7985299091219629e-04
      9.5299997988754779e-04 -1.1058620135187077e-04
      8.2739715686127774e-05 -1.2982753208899678e-04
      2.7265431118780485e-04 1.6522723830615326e-04
      -5.3247321664021130e-04 -3.4666311617651186e-04
      -1.0490767123061790e-03 -9.5807283833550076e-04
      1.0258043785471233e-03 -9.4870741011722861e-04
      6.4008382825744012e-04 -3.6562015021120744e-04
      2.9736090753866085e-04 -1.1645249205592084e-03
      -1.1942211337740234e-03 -8.6104032702435940e-04
      -8.0696502597657363e-04 1.0319883860130696e-03
      5.2700750202510011e-04 8.3612265018103598e-04
      -9.9670973543749576e-04 -2.3272534041554502e-05
      6.4139057102730621e-04 3.7459591871464844e-04
      -7.1691755580176721e-04 1.5291014943650730e-04
      5.4051425519736570e-04 1.0194950219548902e-03
      3.0081275546891325e-04 5.8834438890964340e-04
      1.6306369467748052e-04 7.7891127957786213e-04
      6.1573715273536005e-04 9.7330054844149987e-04
      7.9010807593027301e-04 -8.5758423904020592e-04
      2.1417132932911455e-04 -4.4589068887066364e-04
      1.0531673992642304e-03 7.0344106791488939e-04
      -1.2221909087404568e-03 -5.2110462328643547e-04
      -6.6090793352329108e-04 -1.2487154519535092e-03
      7.8983116539177900e-04 3.6349600499168761e-04
      -3.2422762477708235e-04 4.1901243388493408e-04
      -1.5051485239619305e-04 3.6912922873491875e-04
      5.6773945685285930e-04 9.1961652954561152e-04
      -9.8217938047836096e-04 -1.1970159940137759e-03
      -5.3924562759331861e-04 8.9887411077465434e-04
      -7.0579574587044370e-05 1.1142487605087985e-03
      9.8500512045425633e-04 -4.9897621598470846e-04
      -1.0600403586221406e-03 1.1432539274522358e-03
      1.2253049148512927e-04 1.1305370848161741e-03
      -6.5728282982254285e-04 4.0059460311130991e-04
      9.2982881932916089e-04 6.1660478295609122e-04
      4.1214060191835801e-04 -7.7914438015144359e-04
      8.3075770514120281e-04 1.1795181362592481e-03
      -4.8608309140902954e-04 8.5282263176968077e-04
      -7.5689017161771231e-04 4.8027403922400396e-05
      4.0772759036874194e-04 -4.6343371663136348e-04
      -1.1754081326732825e-03 -5.8776074558593153e-04
      -1.1035781485130803e-03 1.0393442879559069e-03
      9.2847474462864649e-04 8.7719200381428198e-05
      1.1913575355020343e-03 1.0054269022835937e-04
      1.1669726138403044e-03 1.1749618114607111e-03
      -1.0966327674677349e-03 8.9748950716925192e-04
      7.5339654422948161e-04 -8.4335389700268364e-04
      -1.2083424179383251e-03 1.7768227828752472e-04
      -8.2449815704757005e-04 5.3597591412867180e-04
      3.6751369207797856e-04 -5.2179094428158918e-04
      6.2850188883509055e-04 5.9739719318230094e-04
      4.0586548730337238e-05 -1.0767739828352865e-03
      -1.1103604571571129e-03 -6.6534843286577216e-04
      6.4544791569169071e-04 -4.0283631637491260e-05
      -8.0636975642904422e-04 -5.3570582811193366e-04
      7.0260910942869514e-04 -4.0772227051692273e-04
      1.1259865829144567e-04 8.5420735837199284e-04
      8.0691184894229016e-04 -3.7169358946951214e-04
      1.1827157925115568e-03 4.6458360406528642e-04
      -2.3538551820703559e-04 1.0107257608172708e-03
      -5.3371785550389129e-05 8.5173649159594089e-04
      -8.2208636045729875e-04 7.8664292837959005e-04
      -1.0251158980695235e-03 -7.9311856264897829e-04
      -1.8163095432784354e-04 -4.5424165104865669e-04
      -6.9052668885513137e-04 2.7231331035164569e-04
      -1.9745137864939894e-04 -1.2042033415002819e-03
      -4.2370114326528349e-04 -7.5168354486649682e-04
      -1.3905973578284657e-04 -7.2876993766243629e-04
      -9.2233844057529519e-04 -3.1230652460768221e-04
      3.8682755087121688e-04 -9.7104749970257148e-04
      1.1666798307014394e-03 -1.1962887872014325e-03
      -4.7912170696350618e-04 -5.0874273811125339e-04
      8.2933218361980242e-04 -9.1330048336895204e-05
      -1.2024103339129907e-03 1.0902279747378807e-03
      -4.0142924393772806e-04 -1.1171570016267332e-04
      -7.5476455515840406e-04 1.2728724643889733e-05
      -7.2074093756452134e-04 3.3350261602016387e-05
      9.8082535511594062e-04 -6.3964684043723338e-04
      -1.0681281367440597e-03 9.9871683141229532e-04
      3.7352005552683309e-04 -7.9216785643224975e-04
      4.5735486136197723e-04 -6.9156030785048959e-04
      -3.8296215620829834e-04 2.6369489559906249e-04
      -1.2327892210067272e-04 -5.4445116755477902e-04
      -1.1736328915703412e-03 4.8101356643178675e-04
      1.6719124618846644e-04 9.5638603750570399e-04
      -7.9098778333172104e-04 6.9115518188143401e-04
      1.2212955201118506e-03 -8.5916110568997901e-04
      5.3471275473238001e-04 1.1398474865322427e-03
      -3.4947193977220350e-05 8.1121823158411955e-04
      4.5050130443821571e-06 3.6721477247891301e-04
      -1.2144827087108507e-03 -4.8655677123171851e-05
      1.1363885740853200e-03 5.4543291118360968e-04
      -2.2040082782885014e-05 6.3498327426502724e-04
      -6.1081949551003976e-04 2.3331765943376698e-04
      2.3438551184871596e-04 -6.3776585872519641e-04
      -6.0735761181714956e-05 1.1881812765078172e-04
      -1.9249960827784670e-05 -1.1849136417444450e-03
      6.4690445170128576e-04 7.3716294079696374e-04
      -9.0972007357457702e-04 -2.8420634244279538e-04
      8.5392614577734879e-02 1.8780124309558402e-02
      1.6253147687081821e-02 6.2445029622582165e-03
      -1.5195452997093821e-02 4.3335246315007138e-03
      -6.9662961179981870e-03 -1.5534775554672219e-02
      -9.8298299043822653e-04 1.3785732677013338e-02
      6.6382886304967173e-03 1.4196370483137719e-02
      6.4047020823571358e-03 -7.3228405992948765e-03
      -1.5178138255231596e-03 4.3443721018121655e-03
      -2.2902968433068812e-03 1.0309838037140334e-02
      -1.4381846894935622e-02 1.2445287782376638e-02
      -1.4727998718943862e-02 3.5740547241626991e-03
      2.8498928754335669e-03 1.6295859760018350e-02
      4.9488535654511907e-03 -1.6610386300874237e-03
      1.3489362542279820e-02 -1.4031269200836654e-02
      5.5290609298722536e-03 5.4286872980054942e-03
      -1.7519001783896884e-02 -1.4473693477988273e-02
      1.2488090293711550e-02 6.1658924386947334e-03
      8.3316058598558035e-03 1.6375257819894028e-03
      1.6599573677025418e-02 8.1598175907616859e-03
      -1.8395964076988260e-02 -1.4971752403028088e-02
      2.8673867361617478e-01 7.1264938483831364e-02
      5.8692739114042873e-02 2.8524525993486021e-02
      -5.7937107791377465e-02 1.5583687622478548e-02
      -2.6996359711419286e-02 -5.1752048060429885e-02
      -7.9688527550737902e-03 5.7503234651983891e-02
      2.4924279719577867e-02 5.0440518343410824e-02
      2.6591653090846018e-02 -3.8750665814632310e-02
      -6.7160459827956273e-03 2.3998045722376720e-02
      -9.8314331013857840e-03 4.6285311573715793e-02
      -5.7807727055495320e-02 5.9664393100077644e-02
      -5.1186806573392300e-02 1.2728282554453135e-02
      7.1788862241932809e-03 5.9048863923857602e-02
      2.3053740245929773e-02 -1.0266492153105359e-02
      6.1027665382181587e-02 -6.1841979564021175e-02
      2.7859081905575917e-02 2.2367791822463554e-02
      -6.6704451508480020e-02 -6.7087399615464352e-02
      5.7591304338382811e-02 2.9129065713242069e-02
      3.9890919357374190e-02 1.1401212762501663e-02
      5.8952794434062185e-02 3.2988843999176141e-02
      -6.7279091213219330e-02 -5.4244728321545845e-02
      2.5787708552643701e-01 6.3093127517559217e-02
      5.3072348336529435e-02 2.6142928040877443e-02
      -4.9763196003608970e-02 1.4066523349685797e-02
      -2.3367541133098933e-02 -4.5997733858550237e-02
      -6.8249335076242031e-03 6.3740503281642352e-02
      2.1027527449533824e-02 4.6644865279636981e-02
      2.2165186367991765e-02 -3.1540934614927248e-02
      -5.7020822711530729e-03 2.1361771394815741e-02
      -9.5299911403539106e-03 3.9736388934771265e-02
      -6.5110779646048528e-02 6.4504373308267957e-02
      -4.2962301631990912e-02 1.0808027338045758e-02
      8.4322303319132440e-03 5.3780608083083541e-02
      1.9409622360877770e-02 -1.0644315919098576e-02
      5.9831791960486165e-02 -6.0743096537269545e-02
      2.3718806840815745e-02 2.0526600065007259e-02
      -5.8647114082871009e-02 -5.9390188052935111e-02
      6.6083860529422625e-02 2.5852884137857527e-02
      3.4474827941379196e-02 1.0713317525370835e-02
      5.1954822836691041e-02 2.8747638604745544e-02
      -5.9295749909404220e-02 -5.1809606808005317e-02
      7.6499735561004270e-02 3.7588399290249076e-02
      3.0479292372582411e-02 1.2264072708450884e-02
      -3.0142099281168205e-02 6.1894280497231677e-03
      -1.1726582580202000e-02 -2.7588660195730912e-02
      -2.5728423533445785e-03 5.2828013725159738e-02
      9.9478329795782919e-03 2.6295654082998908e-02
      1.1864712237798945e-02 -1.8930897376825597e-02
      -6.9669864254440065e-04 9.0288441830786575e-03
      -3.7550828403394017e-03 2.2377984001367545e-02
      -5.3205339084493840e-02 5.3475175105069918e-02
      -2.8289426059082242e-02 5.4313729216640119e-03
      2.0936903549068956e-03 3.0599518517089350e-02
      9.5470836737783227e-03 -3.9476383220285374e-03
      5.5215624197085471e-02 -5.4027825938745222e-02
      1.1624346916331837e-02 9.6796782206384144e-03
      -3.5453005616455806e-02 -5.4782953056861823e-02
      4.9610566627065235e-02 1.3861105169340866e-02
      1.9220272394822258e-02 3.9093743013998610e-03
      3.0184609692675255e-02 1.5313699962426177e-02
      -3.6278456917824442e-02 -2.7567051421173983e-02
      4.5952438429734088e-01 1.2041116275254925e-01
      9.8669783396858265e-02 5.1981934767210525e-02
      -9.5418120209266225e-02 3.0668885472433405e-02
      -4.7194423217339534e-02 -8.7817955531307126e-02
      -1.6016641541843048e-02 1.1483913594816410e-01
      4.4822872681726682e-02 8.6162787340207048e-02
      4.7399115800431643e-02 -6.3908579230128271e-02
      -1.3663433223294830e-02 4.1212412255192274e-02
      -1.8777107520079859e-02 7.7294000087876499e-02
      -1.1452986682031718e-01 1.1586743216818296e-01
      -8.4002370868113810e-02 2.4264053826102375e-02
      1.7275333607397164e-02 1.0031801105728448e-01
      4.0448825741845142e-02 -2.1091287137489534e-02
      1.0958251299753195e-01 -1.1106352832911266e-01
      4.8419081054336538e-02 4.2110717705006268e-02
      -1.1151238135891131e-01 -1.1597082819680216e-01
      1.1863849795819008e-01 5.3357333929222109e-02
      6.8753123424366860e-02 2.1590236482682486e-02
      9.5922872496343695e-02 6.0924256910603609e-02
      -1.1576401139534685e-01 -9.5364369172920183e-02
      2.5780015163988362e-01 5.4751966463864384e-02
      4.7312295342765341e-02 3.2845041022363207e-02
      -4.7104487226123849e-02 2.2574961117767679e-02
      -3.1809098180726754e-02 -4.7319843406400101e-02
      -1.3806527323345679e-02 4.0971560675558169e-02
      3.0295047407591494e-02 4.3811357969726399e-02
      3.2014474783529714e-02 -4.0114478013033389e-02
      -9.4810806291115695e-03 2.7565440317612201e-02
      -1.4292929279362702e-02 4.3064366385471738e-02
      -4.2448188617301430e-02 4.1166424688335222e-02
      -4.4817403482117414e-02 1.9436154854910584e-02
      1.2183475318289486e-02 4.7483955209972513e-02
      2.7222483210834876e-02 -1.6787310940658030e-02
      4.1445171347008564e-02 -4.0658556593896514e-02
      3.3296299416323949e-02 2.8191250559055598e-02
      -5.2394490901200200e-02 -4.4938358241450295e-02
      4.3654850907595383e-02 3.4837234742605770e-02
      4.0969682292960004e-02 1.6367617509652536e-02
      4.4093808387782672e-02 3.7911767714249450e-02
      -5.4158450608094787e-02 -4.6146064999849898e-02
      1.7725677938540760e-01 3.0857471799381357e-02
      2.4421073148004166e-02 1.2684886812489192e-02
      -1.8779871777364576e-02 5.7162880647212456e-03
      -1.1118266003207273e-02 -2.1290902640503578e-02
      -3.5326103536570141e-03 3.1402268610586155e-02
      8.9631625575535851e-03 1.9577069944858708e-02
      1.0800021185714765e-02 -1.4845326543790654e-02
      -3.0821841004862608e-03 9.9465477447832924e-03
      -3.1752400047044527e-03 1.9400302908235394e-02
      -3.3032902740785679e-02 3.4544120966280192e-02
      -2.0412514599872974e-02 4.3716957552943142e-03
      2.6445687254544690e-03 2.3688023134910589e-02
      9.3527785827634963e-03 -5.5548654806465243e-03
      3.3771141990629826e-02 -3.3382128167814384e-02
      1.0337154109188933e-02 9.8633338721741612e-03
      -2.8965465502221996e-02 -4.0631998562647542e-02
      3.6658875911335299e-02 1.1779201164081890e-02
      1.5360609811376337e-02 5.5083414370751147e-03
      2.4445085460544858e-02 1.2705429862452197e-02
      -2.9953470729256217e-02 -2.1328289425379690e-02
      4.0490745414378010e-01 5.7522554874476280e-02
      5.2642105733556849e-02 4.7240954675018071e-02
      -6.4039684261303520e-02 3.0639175240865357e-02
      -4.4624297676060708e-02 -7.0578810841051873e-02
      -1.9345789371678142e-02 3.9739311216165640e-02
      4.2355145408216374e-02 6.3922058523963626e-02
      4.4636945260291258e-02 -5.4833148642880213e-02
      -1.4279712014060751e-02 3.9992879129865717e-02
      -2.0870526015162011e-02 6.3964867413526180e-02
      -3.9970544830048971e-02 3.9642210843410658e-02
      -6.4669166380587992e-02 2.7679941949269725e-02
      1.7817814254366553e-02 5.1491837347813534e-02
      3.9268807023216196e-02 -2.2883620442408978e-02
      4.0003036452083696e-02 -4.0437363833545639e-02
      4.7060363881877260e-02 4.0311615896567392e-02
      -6.3400998914935031e-02 -4.4158291469370066e-02
      3.9698149969681781e-02 4.9070004297063999e-02
      5.9171987131372998e-02 2.5548047315130128e-02
      4.8734864233501596e-02 5.3017132402165282e-02
      -5.7329023642267399e-02 -5.2534382418680088e-02
      -1.0166295595314909e-01 -5.3897411488169754e-02
      -4.4706367593028540e-02 -5.8997340443166010e-03
      3.1692262465691755e-02 -2.8230678642320647e-03
      5.2847834047374895e-03 2.2346271780903676e-02
      -1.0386420540804708e-04 -2.5099768991723163e-02
      -3.8492207413825768e-03 -2.4325860011585036e-02
      -5.0663205746892198e-03 9.9646193915719824e-03
      -1.8101791936971266e-04 -4.0973231889873882e-03
      1.0679175154768080e-03 -1.5824132218307332e-02
      2.1820942235529450e-02 -2.3900604583168842e-02
      2.0617346071828205e-02 -1.8190612009127470e-04
      -1.6356734957147733e-03 -4.5404259562199706e-02
      -5.2152137665207581e-03 5.7327516895698126e-04
      -2.6777058964425202e-02 2.4995390240286346e-02
      -6.2187093104726712e-03 -5.5534808984204730e-03
      4.2947360165991384e-02 2.9133261837720324e-02
      -2.3097025594172271e-02 -8.5938216424901390e-03
      -1.2906343417470803e-02 -1.2041463431563847e-03
      -4.3405956709200701e-02 -9.1982264638544083e-03
      4.9527530809929811e-02 3.9421077076893601e-02
