<?xml version="1.0"?>
<opencv_storage>
<shapeML type_id="opencv-ml-ann-mlp">
  <layer_sizes type_id="opencv-matrix">
    <rows>1</rows>
    <cols>3</cols>
    <dt>i</dt>
    <data>
      1600 40 1</data></layer_sizes>
  <activation_function>SIGMOID_SYM</activation_function>
  <f_param1>5.9999999999999998e-01</f_param1>
  <f_param2>1.</f_param2>
  <min_val>-9.4999999999999996e-01</min_val>
  <max_val>9.4999999999999996e-01</max_val>
  <min_val1>-9.7999999999999998e-01</min_val1>
  <max_val1>9.7999999999999998e-01</max_val1>
  <training_params>
    <train_method>BACKPROP</train_method>
    <dw_scale>1.0000000000000001e-01</dw_scale>
    <moment_scale>1.0000000000000001e-01</moment_scale>
    <term_criteria><epsilon>9.9999999747524271e-07</epsilon>
      <iterations>4000</iterations></term_criteria></training_params>
  <input_scale>
    2.7456939576074268e-02 -1.4586499149789456e-01
    4.7223078212165127e-02 -8.3624201000709081e-02
    4.7223078212165127e-02 -8.3624201000709081e-02
    4.7223078212165127e-02 -8.3624201000709081e-02 1. 0. 1. 0. 1. 0.
    4.7223078212165127e-02 -8.3624201000709081e-02
    4.7223078212165127e-02 -8.3624201000709081e-02
    4.7223078212165127e-02 -8.3624201000709081e-02
    3.3509129172532327e-02 -1.1867816581938533e-01
    2.3863178957040466e-02 -1.6903085094570330e-01
    2.3863178957040466e-02 -1.6903085094570330e-01
    1.7120161767270561e-02 -2.4253562503633294e-01
    1.8235304010935337e-02 -2.2604178930221930e-01
    1.7120161767270561e-02 -2.4253562503633294e-01
    1.3684060564875008e-02 -3.1501847758722673e-01
    1.2478354962115544e-02 -3.5355339059327373e-01
    1.2837540507679501e-02 -3.4099716973523675e-01
    1.0047256709338800e-02 -4.8038446141526142e-01
    1.0047256709338800e-02 -4.8038446141526142e-01
    1.0195173807164032e-02 -4.6940279403817725e-01
    1.0353300672318620e-02 -4.5834924851410563e-01
    1.1111178091312098e-02 -4.1319693527066864e-01
    1.4188769156600639e-02 -3.0151134457776357e-01
    1.7120161767270561e-02 -2.4253562503633294e-01
    2.1420515062895482e-02 -1.8966081045272040e-01
    2.3863178957040466e-02 -1.6903085094570330e-01 1. 0.
    4.7223078212165127e-02 -8.3624201000709081e-02 1. 0. 1. 0.
    3.3509129172532327e-02 -1.1867816581938533e-01 1. 0.
    3.3509129172532327e-02 -1.1867816581938533e-01 1. 0. 1. 0. 1. 0. 1.
    0. 1. 0. 2.7456939576074268e-02 -1.4586499149789456e-01 1. 0. 1. 0.
    1. 0. 1. 0. 1. 0. 4.7223078212165127e-02 -8.3624201000709081e-02
    2.7456939576074268e-02 -1.4586499149789456e-01
    2.1420515062895482e-02 -1.8966081045272040e-01
    1.9624886028901153e-02 -2.0851441405707474e-01
    1.7120161767270561e-02 -2.4253562503633294e-01
    1.5426589121171381e-02 -2.7317918235407651e-01
    1.3684060564875008e-02 -3.1501847758722673e-01
    1.1111178091312098e-02 -4.1319693527066864e-01
    9.9086457366154793e-03 -4.9130368444051753e-01
    8.6277505602655180e-03 -6.4168894791974795e-01
    8.3634894914617515e-03 -6.9608626079978542e-01
    8.1003573254011339e-03 -7.7459666924148340e-01
    7.9957478370155152e-03 -8.2122993409346845e-01
    8.1003573254011339e-03 -7.7459666924148340e-01
    8.4106654409576379e-03 -6.8511878904467427e-01
    8.3634894914617515e-03 -6.9608626079978542e-01
    8.3189033080770299e-03 -7.0710678118654757e-01
    8.4106654409576379e-03 -6.8511878904467427e-01
    8.8976963528930031e-03 -5.9874081708009175e-01
    1.0047256709338800e-02 -4.8038446141526142e-01
    1.0900114397395523e-02 -4.2465029006520061e-01
    1.2837540507679501e-02 -3.4099716973523675e-01
    1.6200714650802268e-02 -2.5819888974716115e-01
    2.1420515062895482e-02 -1.8966081045272040e-01
    2.7456939576074268e-02 -1.4586499149789456e-01
    3.3509129172532327e-02 -1.1867816581938533e-01
    3.3509129172532327e-02 -1.1867816581938533e-01
    2.3863178957040466e-02 -1.6903085094570330e-01
    3.3509129172532327e-02 -1.1867816581938533e-01
    3.3509129172532327e-02 -1.1867816581938533e-01 1. 0. 1. 0. 1. 0. 1.
    0. 4.7223078212165127e-02 -8.3624201000709081e-02 1. 0. 1. 0. 1. 0.
    4.7223078212165127e-02 -8.3624201000709081e-02
    2.7456939576074268e-02 -1.4586499149789456e-01
    2.1420515062895482e-02 -1.8966081045272040e-01
    1.9624886028901153e-02 -2.0851441405707474e-01
    1.7120161767270561e-02 -2.4253562503633294e-01
    1.4188769156600639e-02 -3.0151134457776357e-01
    1.2837540507679501e-02 -3.4099716973523675e-01
    1.0704483288491539e-02 -4.3598468393751993e-01
    8.9748988116843519e-03 -5.8804284922390182e-01
    8.4605472936563706e-03 -6.7419986246324204e-01
    8.1313692057025187e-03 -7.6316288066020521e-01
    7.9543929856801549e-03 -8.4515425472851646e-01
    7.9957478370155152e-03 -8.2122993409346845e-01
    7.8705130353608540e-03 -9.1986621100779986e-01
    7.8804694125678525e-03 -9.0707486467577891e-01
    7.8621178190672204e-03 -9.3280752040807957e-01
    7.8804694125678525e-03 -9.0707486467577891e-01
    7.9198971311042043e-03 -8.6953870585248250e-01
    7.9051393047681520e-03 -8.8191710368819698e-01
    7.8438938397930192e-03 -1.0139866932482435e+00
    7.8499544115604621e-03 -9.5916630466254393e-01
    7.8461649088479302e-03 -9.7259752515927467e-01
    8.1003573254011339e-03 -7.7459666924148340e-01
    9.0564748108176597e-03 -5.7735026918962584e-01
    1.0900114397395523e-02 -4.2465029006520061e-01
    1.3684060564875008e-02 -3.1501847758722673e-01
    1.8235304010935337e-02 -2.2604178930221930e-01
    1.8235304010935337e-02 -2.2604178930221930e-01
    2.1420515062895482e-02 -1.8966081045272040e-01
    2.1420515062895482e-02 -1.8966081045272040e-01
    2.3863178957040466e-02 -1.6903085094570330e-01
    2.3863178957040466e-02 -1.6903085094570330e-01 1. 0. 1. 0. 1. 0. 1.
    0. 4.7223078212165127e-02 -8.3624201000709081e-02 1. 0. 1. 0. 1. 0.
    2.3863178957040466e-02 -1.6903085094570330e-01
    2.3863178957040466e-02 -1.6903085094570330e-01
    1.9624886028901153e-02 -2.0851441405707474e-01
    1.8235304010935337e-02 -2.2604178930221930e-01
    1.6200714650802268e-02 -2.5819888974716115e-01
    1.1857708957152227e-02 -3.7796447300922725e-01
    1.0047256709338800e-02 -4.8038446141526142e-01
    8.3189033080770299e-03 -7.0710678118654757e-01
    8.1644460983469214e-03 -7.5180941155611236e-01
    7.9363049659613143e-03 -8.5728627601061280e-01
    7.8552689516422202e-03 -9.4590530292691744e-01
    7.8438938397930192e-03 -9.8620623589897649e-01
    7.8431372549019607e-03 -1. 7.8705130353608540e-03
    -9.1986621100779986e-01 7.8804694125678525e-03
    -1.1024448355290235e+00 7.8705130353608540e-03
    -1.0871146130092180e+00 7.9198971311042043e-03
    -1.1500350625790898e+00 7.9198971311042043e-03
    -1.1500350625790898e+00 7.8804694125678525e-03
    -1.1024448355290235e+00 7.9198971311042043e-03
    -1.1500350625790898e+00 7.8920046264698458e-03
    -1.1180339887498947e+00 7.8705130353608540e-03
    -1.0871146130092180e+00 7.8438938397930192e-03
    -1.0139866932482435e+00 7.9051393047681520e-03
    -8.8191710368819698e-01 8.4605472936563706e-03
    -6.7419986246324204e-01 9.0564748108176597e-03
    -5.7735026918962584e-01 1.0522672835293128e-02
    -4.4721359549995793e-01 1.7120161767270561e-02
    -2.4253562503633294e-01 1.9624886028901153e-02
    -2.0851441405707474e-01 2.3863178957040466e-02
    -1.6903085094570330e-01 2.1420515062895482e-02
    -1.8966081045272040e-01 2.3863178957040466e-02
    -1.6903085094570330e-01 2.3863178957040466e-02
    -1.6903085094570330e-01 1. 0. 1. 0. 1. 0. 2.3863178957040466e-02
    -1.6903085094570330e-01 3.3509129172532327e-02
    -1.1867816581938533e-01 1. 0. 2.3863178957040466e-02
    -1.6903085094570330e-01 2.3863178957040466e-02
    -1.6903085094570330e-01 2.1420515062895482e-02
    -1.8966081045272040e-01 1.6200714650802268e-02
    -2.5819888974716115e-01 1.4188769156600639e-02
    -3.0151134457776357e-01 1.2837540507679501e-02
    -3.4099716973523675e-01 9.5411833800805243e-03
    -5.2377121263567050e-01 8.2370818728222817e-03
    -7.2932495748947290e-01 8.0442759853862084e-03
    -7.9772403521746571e-01 7.9957478370155152e-03
    -8.2122993409346845e-01 7.8621178190672204e-03
    -9.3280752040807957e-01 7.8461649088479284e-03
    -1.0281745265969473e+00 7.8804694125678525e-03
    -1.1024448355290235e+00 7.8920046264698458e-03
    -1.1180339887498947e+00 7.9543929856801549e-03
    -1.1832159566199230e+00 8.1003573254011339e-03
    -1.2909944487358056e+00 7.9741948410303239e-03
    -1.2002824526342519e+00 8.0442759853862084e-03
    -1.2535663410560176e+00 7.9957478370155152e-03
    -1.2176857643454877e+00 7.9957478370155152e-03
    -1.2176857643454877e+00 7.9363049659613126e-03
    -1.1664714903095219e+00 7.9543929856801549e-03
    -1.1832159566199230e+00 7.9957478370155152e-03
    -1.2176857643454877e+00 7.8499544115604621e-03
    -1.0425720702853738e+00 7.8438938397930192e-03
    -1.0139866932482435e+00 7.8438938397930192e-03
    -9.8620623589897649e-01 7.9198971311042043e-03
    -8.6953870585248250e-01 8.4605472936563706e-03
    -6.7419986246324204e-01 9.3304771218185364e-03
    -5.4524975680627075e-01 1.1111178091312098e-02
    -4.1319693527066864e-01 1.5426589121171381e-02
    -2.7317918235407651e-01 1.6200714650802268e-02
    -2.5819888974716115e-01 1.9624886028901153e-02
    -2.0851441405707474e-01 2.3863178957040466e-02
    -1.6903085094570330e-01 2.3863178957040466e-02
    -1.6903085094570330e-01 1. 0. 1. 0. 2.7456939576074268e-02
    -1.4586499149789456e-01 2.3863178957040466e-02
    -1.6903085094570330e-01 1.9624886028901153e-02
    -2.0851441405707474e-01 1.8235304010935337e-02
    -2.2604178930221930e-01 1.9624886028901153e-02
    -2.0851441405707474e-01 1.8235304010935337e-02
    -2.2604178930221930e-01 1.2153349589155531e-02
    -3.6586646159020297e-01 1.0353300672318620e-02
    -4.5834924851410563e-01 8.8246067000187361e-03
    -6.0944940022004401e-01 8.1313692057025187e-03
    -7.6316288066020521e-01 7.8920046264698458e-03
    -8.9442719099991586e-01 7.8438938397930192e-03
    -9.8620623589897649e-01 7.8438938397930192e-03
    -9.8620623589897649e-01 7.9051393047681520e-03
    -8.8191710368819698e-01 7.8438938397930192e-03
    -1.0139866932482435e+00 7.8438938397930192e-03
    -1.0139866932482435e+00 7.9363049659613126e-03
    -1.1664714903095219e+00 7.9543929856801549e-03
    -1.1832159566199230e+00 8.0190931358551515e-03
    -1.2354415362426843e+00 7.9957478370155152e-03
    -1.2176857643454877e+00 7.9198971311042043e-03
    -1.1500350625790898e+00 8.0190931358551515e-03
    -1.2354415362426843e+00 8.1003573254011339e-03
    -1.2909944487358056e+00 7.9957478370155152e-03
    -1.2176857643454877e+00 7.9957478370155152e-03
    -1.2176857643454877e+00 7.9543929856801549e-03
    -1.1832159566199230e+00 7.9198971311042043e-03
    -1.1500350625790898e+00 7.9741948410303239e-03
    -1.2002824526342519e+00 7.8552689516422202e-03
    -1.0571882797418488e+00 7.8499544115604621e-03
    -1.0425720702853738e+00 7.9543929856801549e-03
    -8.4515425472851646e-01 8.1003573254011339e-03
    -7.7459666924148340e-01 9.1427120215958491e-03
    -5.6665767217182605e-01 1.0195173807164032e-02
    -4.6940279403817725e-01 1.6200714650802268e-02
    -2.5819888974716115e-01 1.8235304010935337e-02
    -2.2604178930221930e-01 1.9624886028901153e-02
    -2.0851441405707474e-01 1.8235304010935337e-02
    -2.2604178930221930e-01 3.3509129172532327e-02
    -1.1867816581938533e-01 1. 0. 2.1420515062895482e-02
    -1.8966081045272040e-01 2.3863178957040466e-02
    -1.6903085094570330e-01 1.9624886028901153e-02
    -2.0851441405707474e-01 1.6200714650802268e-02
    -2.5819888974716115e-01 1.4763867829157706e-02
    -2.8758784208880117e-01 1.2837540507679501e-02
    -3.4099716973523675e-01 1.0047256709338800e-02
    -4.8038446141526142e-01 8.3634894914617515e-03
    -6.9608626079978542e-01 8.0190931358551515e-03
    -8.0942721340037938e-01 7.8461649088479302e-03
    -9.7259752515927467e-01 7.8552689516422202e-03
    -9.4590530292691744e-01 7.8552689516422202e-03
    -9.4590530292691744e-01 7.8461649088479302e-03
    -9.7259752515927467e-01 7.8705130353608540e-03
    -9.1986621100779986e-01 7.9198971311042043e-03
    -1.1500350625790898e+00 7.9543929856801549e-03
    -1.1832159566199230e+00 7.9363049659613126e-03
    -1.1664714903095219e+00 8.0190931358551515e-03
    -1.2354415362426843e+00 7.9543929856801549e-03
    -1.1832159566199230e+00 7.9543929856801549e-03
    -1.1832159566199230e+00 7.9543929856801549e-03
    -1.1832159566199230e+00 8.0190931358551515e-03
    -1.2354415362426843e+00 7.9051393047681520e-03
    -1.1338934190276817e+00 7.9051393047681520e-03
    -1.1338934190276817e+00 7.8461649088479302e-03
    -9.7259752515927467e-01 7.9543929856801549e-03
    -1.1832159566199230e+00 8.0442759853862084e-03
    -1.2535663410560176e+00 8.0190931358551515e-03
    -1.2354415362426843e+00 8.0442759853862084e-03
    -1.2535663410560176e+00 7.9741948410303239e-03
    -1.2002824526342519e+00 7.8621178190672204e-03
    -1.0720325234540615e+00 7.9363049659613143e-03
    -8.5728627601061280e-01 8.0442759853862084e-03
    -7.9772403521746571e-01 8.6277505602655180e-03
    -6.4168894791974795e-01 1.0353300672318620e-02
    -4.5834924851410563e-01 1.5426589121171381e-02
    -2.7317918235407651e-01 1.7120161767270561e-02
    -2.4253562503633294e-01 1.8235304010935337e-02
    -2.2604178930221930e-01 1.5426589121171381e-02
    -2.7317918235407651e-01 1. 0. 2.7456939576074268e-02
    -1.4586499149789456e-01 1.9624886028901153e-02
    -2.0851441405707474e-01 1.5426589121171381e-02
    -2.7317918235407651e-01 1.4188769156600639e-02
    -3.0151134457776357e-01 1.4763867829157706e-02
    -2.8758784208880117e-01 1.0522672835293128e-02
    -4.4721359549995793e-01 8.2370818728222817e-03
    -7.2932495748947290e-01 7.8705130353608540e-03
    -9.1986621100779986e-01 7.8461649088479302e-03
    -9.7259752515927467e-01 7.8804694125678525e-03
    -9.0707486467577891e-01 7.8499544115604621e-03
    -9.5916630466254393e-01 7.8804694125678525e-03
    -1.1024448355290235e+00 7.8621178190672204e-03
    -1.0720325234540615e+00 7.8804694125678525e-03
    -1.1024448355290235e+00 7.8621178190672204e-03
    -1.0720325234540615e+00 7.9363049659613126e-03
    -1.1664714903095219e+00 7.8431372549019607e-03 -1.
    7.8461649088479284e-03 -1.0281745265969473e+00
    7.8499544115604621e-03 -1.0425720702853738e+00
    7.8499544115604621e-03 -1.0425720702853738e+00
    7.8461649088479284e-03 -1.0281745265969473e+00
    7.8499544115604621e-03 -9.5916630466254393e-01
    7.8621178190672204e-03 -9.3280752040807957e-01
    7.8438938397930192e-03 -9.8620623589897649e-01
    7.8431372549019607e-03 -1. 7.8499544115604621e-03
    -1.0425720702853738e+00 7.8621178190672204e-03
    -1.0720325234540615e+00 7.9741948410303239e-03
    -1.2002824526342519e+00 7.8705130353608540e-03
    -1.0871146130092180e+00 8.0713459754723684e-03
    -1.2720777563426764e+00 7.8804694125678525e-03
    -1.1024448355290235e+00 7.8461649088479302e-03
    -9.7259752515927467e-01 7.8920046264698458e-03
    -8.9442719099991586e-01 7.9363049659613143e-03
    -8.5728627601061280e-01 8.7553930298264783e-03
    -6.2017367294604220e-01 1.1339566996270572e-02
    -4.0160966445124940e-01 1.4763867829157706e-02
    -2.8758784208880117e-01 1.4188769156600639e-02
    -3.0151134457776357e-01 1.5426589121171381e-02
    -2.7317918235407651e-01 3.3509129172532327e-02
    -1.1867816581938533e-01 2.7456939576074268e-02
    -1.4586499149789456e-01 1.9624886028901153e-02
    -2.0851441405707474e-01 1.3684060564875008e-02
    -3.1501847758722673e-01 1.2153349589155531e-02
    -3.6586646159020297e-01 1.1587520211785269e-02
    -3.8987177379235854e-01 8.1644460983469214e-03
    -7.5180941155611236e-01 7.8705130353608540e-03
    -9.1986621100779986e-01 7.8438938397930192e-03
    -1.0139866932482435e+00 7.8461649088479284e-03
    -1.0281745265969473e+00 7.8621178190672204e-03
    -9.3280752040807957e-01 7.8621178190672204e-03
    -9.3280752040807957e-01 7.8499544115604621e-03
    -1.0425720702853738e+00 7.9051393047681520e-03
    -1.1338934190276817e+00 7.8438938397930192e-03
    -1.0139866932482435e+00 7.8920046264698458e-03
    -8.9442719099991586e-01 7.8499544115604621e-03
    -1.0425720702853738e+00 7.8621178190672204e-03
    -9.3280752040807957e-01 7.8461649088479302e-03
    -9.7259752515927467e-01 7.8499544115604621e-03
    -9.5916630466254393e-01 7.8461649088479302e-03
    -9.7259752515927467e-01 7.8461649088479302e-03
    -9.7259752515927467e-01 7.8621178190672204e-03
    -9.3280752040807957e-01 7.8920046264698458e-03
    -8.9442719099991586e-01 7.8920046264698458e-03
    -8.9442719099991586e-01 7.8499544115604621e-03
    -9.5916630466254393e-01 7.8461649088479284e-03
    -1.0281745265969473e+00 7.8438938397930192e-03
    -9.8620623589897649e-01 7.8461649088479284e-03
    -1.0281745265969473e+00 7.8438938397930192e-03
    -9.8620623589897649e-01 7.9198971311042043e-03
    -1.1500350625790898e+00 7.8920046264698458e-03
    -1.1180339887498947e+00 7.8461649088479284e-03
    -1.0281745265969473e+00 7.8438938397930192e-03
    -9.8620623589897649e-01 7.8552689516422202e-03
    -9.4590530292691744e-01 7.9363049659613143e-03
    -8.5728627601061280e-01 8.9748988116843519e-03
    -5.8804284922390182e-01 1.1587520211785269e-02
    -3.8987177379235854e-01 1.3684060564875008e-02
    -3.1501847758722673e-01 1.5426589121171381e-02
    -2.7317918235407651e-01 1.9624886028901153e-02
    -2.0851441405707474e-01 2.7456939576074268e-02
    -1.4586499149789456e-01 1.7120161767270561e-02
    -2.4253562503633294e-01 1.1857708957152227e-02
    -3.7796447300922725e-01 1.1587520211785269e-02
    -3.8987177379235854e-01 8.8976963528930031e-03
    -5.9874081708009175e-01 7.8804694125678525e-03
    -9.0707486467577891e-01 7.8431372549019607e-03 -1.
    7.8499544115604621e-03 -1.0425720702853738e+00
    7.9051393047681520e-03 -1.1338934190276817e+00
    7.8705130353608540e-03 -1.0871146130092180e+00
    7.8499544115604621e-03 -9.5916630466254393e-01
    7.8552689516422202e-03 -1.0571882797418488e+00
    7.8461649088479302e-03 -9.7259752515927467e-01
    7.8461649088479302e-03 -9.7259752515927467e-01
    7.9543929856801549e-03 -8.4515425472851646e-01
    7.8920046264698458e-03 -8.9442719099991586e-01
    8.0190931358551515e-03 -8.0942721340037938e-01
    7.9741948410303239e-03 -8.3313723182848076e-01
    8.0190931358551515e-03 -8.0942721340037938e-01
    8.0190931358551515e-03 -8.0942721340037938e-01
    8.0442759853862084e-03 -7.9772403521746571e-01
    8.1996581998876640e-03 -7.4053163117735465e-01
    7.9543929856801549e-03 -8.4515425472851646e-01
    7.9543929856801549e-03 -8.4515425472851646e-01
    7.9543929856801549e-03 -8.4515425472851646e-01
    7.8552689516422202e-03 -9.4590530292691744e-01
    7.8499544115604621e-03 -9.5916630466254393e-01
    7.8461649088479284e-03 -1.0281745265969473e+00
    7.8499544115604621e-03 -9.5916630466254393e-01
    7.9363049659613126e-03 -1.1664714903095219e+00
    7.9051393047681520e-03 -1.1338934190276817e+00
    7.8705130353608540e-03 -1.0871146130092180e+00
    7.8705130353608540e-03 -1.0871146130092180e+00
    7.8461649088479302e-03 -9.7259752515927467e-01
    7.8920046264698458e-03 -8.9442719099991586e-01
    7.9741948410303239e-03 -8.3313723182848076e-01
    9.5411833800805243e-03 -5.2377121263567050e-01
    1.1339566996270572e-02 -4.0160966445124940e-01
    1.5426589121171381e-02 -2.7317918235407651e-01
    1.5426589121171381e-02 -2.7317918235407651e-01
    2.1420515062895482e-02 -1.8966081045272040e-01
    1.4763867829157706e-02 -2.8758784208880117e-01
    1.1111178091312098e-02 -4.1319693527066864e-01
    1.0522672835293128e-02 -4.4721359549995793e-01
    7.9051393047681520e-03 -8.8191710368819698e-01
    7.8705130353608540e-03 -9.1986621100779986e-01
    7.8552689516422202e-03 -1.0571882797418488e+00
    7.8804694125678525e-03 -1.1024448355290235e+00
    7.8621178190672204e-03 -1.0720325234540615e+00
    7.8920046264698458e-03 -8.9442719099991586e-01
    7.8461649088479302e-03 -9.7259752515927467e-01
    7.8461649088479302e-03 -9.7259752515927467e-01
    7.8431372549019607e-03 -1. 7.9051393047681520e-03
    -8.8191710368819698e-01 7.9363049659613143e-03
    -8.5728627601061280e-01 8.1644460983469214e-03
    -7.5180941155611236e-01 8.0713459754723701e-03
    -7.8611546740277771e-01 8.2370818728222817e-03
    -7.2932495748947290e-01 8.3634894914617515e-03
    -6.9608626079978542e-01 8.4106654409576379e-03
    -6.8511878904467427e-01 8.6277505602655180e-03
    -6.4168894791974795e-01 8.5689458222002086e-03
    -6.5248952041962005e-01 8.1644460983469214e-03
    -7.5180941155611236e-01 8.3189033080770299e-03
    -7.0710678118654757e-01 8.3189033080770299e-03
    -7.0710678118654757e-01 7.9957478370155152e-03
    -8.2122993409346845e-01 7.9543929856801549e-03
    -8.4515425472851646e-01 7.8621178190672204e-03
    -9.3280752040807957e-01 7.8431372549019607e-03 -1.
    7.8705130353608540e-03 -1.0871146130092180e+00
    7.8621178190672204e-03 -1.0720325234540615e+00
    7.9051393047681520e-03 -1.1338934190276817e+00
    7.9363049659613126e-03 -1.1664714903095219e+00
    7.8461649088479284e-03 -1.0281745265969473e+00
    7.8621178190672204e-03 -9.3280752040807957e-01
    7.9051393047681520e-03 -8.8191710368819698e-01
    8.3634894914617515e-03 -6.9608626079978542e-01
    9.5411833800805243e-03 -5.2377121263567050e-01
    1.3684060564875008e-02 -3.1501847758722673e-01
    1.5426589121171381e-02 -2.7317918235407651e-01
    2.1420515062895482e-02 -1.8966081045272040e-01
    1.2837540507679501e-02 -3.4099716973523675e-01
    1.0353300672318620e-02 -4.5834924851410563e-01
    8.6277505602655180e-03 -6.4168894791974795e-01
    7.9051393047681520e-03 -8.8191710368819698e-01
    7.8621178190672204e-03 -9.3280752040807957e-01
    7.8552689516422202e-03 -1.0571882797418488e+00
    7.8431372549019607e-03 -1. 7.8461649088479302e-03
    -9.7259752515927467e-01 7.8461649088479302e-03
    -9.7259752515927467e-01 7.8499544115604621e-03
    -9.5916630466254393e-01 7.8920046264698458e-03
    -8.9442719099991586e-01 7.8804694125678525e-03
    -9.0707486467577891e-01 8.0713459754723701e-03
    -7.8611546740277771e-01 8.2370818728222817e-03
    -7.2932495748947290e-01 8.5132614939603841e-03
    -6.6332495807107994e-01 8.6277505602655180e-03
    -6.4168894791974795e-01 8.9748988116843519e-03
    -5.8804284922390182e-01 9.4327497145561545e-03
    -5.3452248382484868e-01 9.4327497145561545e-03
    -5.3452248382484868e-01 9.9086457366154793e-03
    -4.9130368444051753e-01 9.7785484640703236e-03
    -5.0216920758194472e-01 9.1427120215958491e-03
    -5.6665767217182605e-01 8.7553930298264783e-03
    -6.2017367294604220e-01 8.2768001512751911e-03
    -7.1818484645960767e-01 8.1996581998876640e-03
    -7.4053163117735465e-01 8.1644460983469214e-03
    -7.5180941155611236e-01 7.8552689516422202e-03
    -9.4590530292691744e-01 7.8705130353608540e-03
    -9.1986621100779986e-01 7.9198971311042043e-03
    -8.6953870585248250e-01 7.8621178190672204e-03
    -1.0720325234540615e+00 7.9543929856801549e-03
    -1.1832159566199230e+00 7.9543929856801549e-03
    -1.1832159566199230e+00 7.9198971311042043e-03
    -1.1500350625790898e+00 7.8438938397930192e-03
    -9.8620623589897649e-01 7.8705130353608540e-03
    -9.1986621100779986e-01 8.1644460983469214e-03
    -7.5180941155611236e-01 8.7553930298264783e-03
    -6.2017367294604220e-01 1.2153349589155531e-02
    -3.6586646159020297e-01 1.4188769156600639e-02
    -3.0151134457776357e-01 2.1420515062895482e-02
    -1.8966081045272040e-01 1.2837540507679501e-02
    -3.4099716973523675e-01 1.0047256709338800e-02
    -4.8038446141526142e-01 8.3189033080770299e-03
    -7.0710678118654757e-01 7.8705130353608540e-03
    -9.1986621100779986e-01 7.8461649088479284e-03
    -1.0281745265969473e+00 7.8438938397930192e-03
    -1.0139866932482435e+00 7.8438938397930192e-03
    -1.0139866932482435e+00 7.8552689516422202e-03
    -1.0571882797418488e+00 7.8431372549019607e-03 -1.
    7.9051393047681520e-03 -8.8191710368819698e-01
    7.9363049659613143e-03 -8.5728627601061280e-01
    8.1644460983469214e-03 -7.5180941155611236e-01
    8.3189033080770299e-03 -7.0710678118654757e-01
    8.5689458222002086e-03 -6.5248952041962005e-01
    8.6277505602655180e-03 -6.4168894791974795e-01
    8.8976963528930031e-03 -5.9874081708009175e-01
    9.5411833800805243e-03 -5.2377121263567050e-01
    9.9086457366154793e-03 -4.9130368444051753e-01
    1.0195173807164032e-02 -4.6940279403817725e-01
    1.0353300672318620e-02 -4.5834924851410563e-01
    1.0047256709338800e-02 -4.8038446141526142e-01
    9.4327497145561545e-03 -5.3452248382484868e-01
    8.5689458222002086e-03 -6.5248952041962005e-01
    8.5689458222002086e-03 -6.5248952041962005e-01
    8.6277505602655180e-03 -6.4168894791974795e-01
    8.1996581998876640e-03 -7.4053163117735465e-01
    8.1313692057025187e-03 -7.6316288066020521e-01
    7.9741948410303239e-03 -8.3313723182848076e-01
    7.9363049659613143e-03 -8.5728627601061280e-01
    7.9051393047681520e-03 -1.1338934190276817e+00
    7.9051393047681520e-03 -1.1338934190276817e+00
    7.9741948410303239e-03 -1.2002824526342519e+00
    7.8705130353608540e-03 -1.0871146130092180e+00
    7.8499544115604621e-03 -1.0425720702853738e+00
    7.8461649088479284e-03 -1.0281745265969473e+00
    7.8705130353608540e-03 -9.1986621100779986e-01
    8.5132614939603841e-03 -6.6332495807107994e-01
    9.7785484640703236e-03 -5.0216920758194472e-01
    1.2837540507679501e-02 -3.4099716973523675e-01
    2.1420515062895482e-02 -1.8966081045272040e-01
    1.1339566996270572e-02 -4.0160966445124940e-01
    8.5132614939603841e-03 -6.6332495807107994e-01
    8.0190931358551515e-03 -8.0942721340037938e-01
    7.8431372549019607e-03 -1. 7.8621178190672204e-03
    -1.0720325234540615e+00 7.8438938397930192e-03
    -1.0139866932482435e+00 7.8499544115604621e-03
    -1.0425720702853738e+00 7.8461649088479302e-03
    -9.7259752515927467e-01 7.8461649088479302e-03
    -9.7259752515927467e-01 7.9741948410303239e-03
    -8.3313723182848076e-01 7.9741948410303239e-03
    -8.3313723182848076e-01 8.1003573254011339e-03
    -7.7459666924148340e-01 8.3189033080770299e-03
    -7.0710678118654757e-01 8.6898398157121363e-03
    -6.3091857828659992e-01 8.7553930298264783e-03
    -6.2017367294604220e-01 9.5411833800805243e-03
    -5.2377121263567050e-01 1.0195173807164032e-02
    -4.6940279403817725e-01 1.0195173807164032e-02
    -4.6940279403817725e-01 1.0522672835293128e-02
    -4.4721359549995793e-01 1.0704483288491539e-02
    -4.3598468393751993e-01 1.0522672835293128e-02
    -4.4721359549995793e-01 1.0353300672318620e-02
    -4.5834924851410563e-01 9.3304771218185364e-03
    -5.4524975680627075e-01 9.0564748108176597e-03
    -5.7735026918962584e-01 8.8976963528930031e-03
    -5.9874081708009175e-01 8.3634894914617515e-03
    -6.9608626079978542e-01 8.3189033080770299e-03
    -7.0710678118654757e-01 8.4106654409576379e-03
    -6.8511878904467427e-01 8.0713459754723701e-03
    -7.8611546740277771e-01 7.8705130353608540e-03
    -9.1986621100779986e-01 7.8438938397930192e-03
    -1.0139866932482435e+00 7.9051393047681520e-03
    -1.1338934190276817e+00 7.9051393047681520e-03
    -1.1338934190276817e+00 7.8621178190672204e-03
    -1.0720325234540615e+00 7.8621178190672204e-03
    -1.0720325234540615e+00 7.8438938397930192e-03
    -9.8620623589897649e-01 8.1996581998876640e-03
    -7.4053163117735465e-01 9.2339285670738156e-03
    -5.5595944914256934e-01 1.2153349589155531e-02
    -3.6586646159020297e-01 1.8235304010935337e-02
    -2.2604178930221930e-01 1.0353300672318620e-02
    -4.5834924851410563e-01 8.2370818728222817e-03
    -7.2932495748947290e-01 7.8804694125678525e-03
    -9.0707486467577891e-01 7.8621178190672204e-03
    -1.0720325234540615e+00 7.8621178190672204e-03
    -1.0720325234540615e+00 7.8438938397930192e-03
    -1.0139866932482435e+00 7.8499544115604621e-03
    -1.0425720702853738e+00 7.8461649088479302e-03
    -9.7259752515927467e-01 7.8552689516422202e-03
    -9.4590530292691744e-01 7.9198971311042043e-03
    -8.6953870585248250e-01 8.2370818728222817e-03
    -7.2932495748947290e-01 8.4106654409576379e-03
    -6.8511878904467427e-01 8.6277505602655180e-03
    -6.4168894791974795e-01 8.8976963528930031e-03
    -5.9874081708009175e-01 9.6562668431543919e-03
    -5.1298917604257710e-01 1.0704483288491539e-02
    -4.3598468393751993e-01 1.1339566996270572e-02
    -4.0160966445124940e-01 1.2478354962115544e-02
    -3.5355339059327373e-01 1.1587520211785269e-02
    -3.8987177379235854e-01 1.1857708957152227e-02
    -3.7796447300922725e-01 1.1587520211785269e-02
    -3.8987177379235854e-01 1.1587520211785269e-02
    -3.8987177379235854e-01 1.1587520211785269e-02
    -3.8987177379235854e-01 1.0195173807164032e-02
    -4.6940279403817725e-01 9.2339285670738156e-03
    -5.5595944914256934e-01 8.9748988116843519e-03
    -5.8804284922390182e-01 8.3189033080770299e-03
    -7.0710678118654757e-01 8.2370818728222817e-03
    -7.2932495748947290e-01 8.2370818728222817e-03
    -7.2932495748947290e-01 7.9051393047681520e-03
    -8.8191710368819698e-01 7.8499544115604621e-03
    -9.5916630466254393e-01 7.8552689516422202e-03
    -9.4590530292691744e-01 7.8920046264698458e-03
    -1.1180339887498947e+00 7.8804694125678525e-03
    -1.1024448355290235e+00 7.8920046264698458e-03
    -1.1180339887498947e+00 7.8621178190672204e-03
    -1.0720325234540615e+00 7.9198971311042043e-03
    -8.6953870585248250e-01 8.8976963528930031e-03
    -5.9874081708009175e-01 1.0704483288491539e-02
    -4.3598468393751993e-01 1.6200714650802268e-02
    -2.5819888974716115e-01 1.0195173807164032e-02
    -4.6940279403817725e-01 8.1003573254011339e-03
    -7.7459666924148340e-01 7.8552689516422202e-03
    -9.4590530292691744e-01 7.8705130353608540e-03
    -1.0871146130092180e+00 7.9198971311042043e-03
    -1.1500350625790898e+00 7.9198971311042043e-03
    -1.1500350625790898e+00 7.8461649088479284e-03
    -1.0281745265969473e+00 7.8438938397930192e-03
    -9.8620623589897649e-01 7.8499544115604621e-03
    -9.5916630466254393e-01 8.0713459754723701e-03
    -7.8611546740277771e-01 8.3189033080770299e-03
    -7.0710678118654757e-01 8.4106654409576379e-03
    -6.8511878904467427e-01 8.8976963528930031e-03
    -5.9874081708009175e-01 9.3304771218185364e-03
    -5.4524975680627075e-01 1.1587520211785269e-02
    -3.8987177379235854e-01 1.4188769156600639e-02
    -3.0151134457776357e-01 1.4188769156600639e-02
    -3.0151134457776357e-01 1.6200714650802268e-02
    -2.5819888974716115e-01 1.4188769156600639e-02
    -3.0151134457776357e-01 1.3236910050028106e-02
    -3.2816506165694681e-01 1.4188769156600639e-02
    -3.0151134457776357e-01 1.6200714650802268e-02
    -2.5819888974716115e-01 1.6200714650802268e-02
    -2.5819888974716115e-01 1.3684060564875008e-02
    -3.1501847758722673e-01 1.1857708957152227e-02
    -3.7796447300922725e-01 9.5411833800805243e-03
    -5.2377121263567050e-01 8.8246067000187361e-03
    -6.0944940022004401e-01 8.2370818728222817e-03
    -7.2932495748947290e-01 8.1996581998876640e-03
    -7.4053163117735465e-01 8.0713459754723701e-03
    -7.8611546740277771e-01 7.8552689516422202e-03
    -9.4590530292691744e-01 7.8621178190672204e-03
    -9.3280752040807957e-01 7.8552689516422202e-03
    -9.4590530292691744e-01 7.8920046264698458e-03
    -1.1180339887498947e+00 7.9741948410303239e-03
    -1.2002824526342519e+00 7.8804694125678525e-03
    -1.1024448355290235e+00 7.8552689516422202e-03
    -9.4590530292691744e-01 8.4106654409576379e-03
    -6.8511878904467427e-01 9.6562668431543919e-03
    -5.1298917604257710e-01 1.6200714650802268e-02
    -2.5819888974716115e-01 9.4327497145561545e-03
    -5.3452248382484868e-01 7.9363049659613143e-03
    -8.5728627601061280e-01 7.8431372549019607e-03 -1.
    7.8705130353608540e-03 -1.0871146130092180e+00
    7.9198971311042043e-03 -1.1500350625790898e+00
    7.8920046264698458e-03 -1.1180339887498947e+00
    7.8552689516422202e-03 -1.0571882797418488e+00
    7.8499544115604621e-03 -9.5916630466254393e-01
    7.9741948410303239e-03 -8.3313723182848076e-01
    8.5689458222002086e-03 -6.5248952041962005e-01
    8.4106654409576379e-03 -6.8511878904467427e-01
    8.6898398157121363e-03 -6.3091857828659992e-01
    1.0047256709338800e-02 -4.8038446141526142e-01
    1.1111178091312098e-02 -4.1319693527066864e-01
    1.2837540507679501e-02 -3.4099716973523675e-01
    1.4188769156600639e-02 -3.0151134457776357e-01
    1.6200714650802268e-02 -2.5819888974716115e-01
    1.7120161767270561e-02 -2.4253562503633294e-01
    1.7120161767270561e-02 -2.4253562503633294e-01
    1.4188769156600639e-02 -3.0151134457776357e-01
    1.5426589121171381e-02 -2.7317918235407651e-01
    1.8235304010935337e-02 -2.2604178930221930e-01
    1.7120161767270561e-02 -2.4253562503633294e-01
    1.5426589121171381e-02 -2.7317918235407651e-01
    1.4763867829157706e-02 -2.8758784208880117e-01
    1.1111178091312098e-02 -4.1319693527066864e-01
    9.1427120215958491e-03 -5.6665767217182605e-01
    8.3634894914617515e-03 -6.9608626079978542e-01
    8.2370818728222817e-03 -7.2932495748947290e-01
    8.1003573254011339e-03 -7.7459666924148340e-01
    7.8804694125678525e-03 -9.0707486467577891e-01
    7.8461649088479302e-03 -9.7259752515927467e-01
    7.8438938397930192e-03 -9.8620623589897649e-01
    7.9198971311042043e-03 -1.1500350625790898e+00
    8.0713459754723684e-03 -1.2720777563426764e+00
    8.0190931358551515e-03 -1.2354415362426843e+00
    7.8499544115604621e-03 -1.0425720702853738e+00
    8.0442759853862084e-03 -7.9772403521746571e-01
    8.7553930298264783e-03 -6.2017367294604220e-01
    1.2837540507679501e-02 -3.4099716973523675e-01
    9.0564748108176597e-03 -5.7735026918962584e-01
    7.8705130353608540e-03 -9.1986621100779986e-01
    7.8621178190672204e-03 -1.0720325234540615e+00
    7.9363049659613126e-03 -1.1664714903095219e+00
    7.8621178190672204e-03 -1.0720325234540615e+00
    7.8920046264698458e-03 -1.1180339887498947e+00
    7.8438938397930192e-03 -9.8620623589897649e-01
    7.8499544115604621e-03 -9.5916630466254393e-01
    8.1313692057025187e-03 -7.6316288066020521e-01
    8.5689458222002086e-03 -6.5248952041962005e-01
    8.5132614939603841e-03 -6.6332495807107994e-01
    9.0564748108176597e-03 -5.7735026918962584e-01
    1.0522672835293128e-02 -4.4721359549995793e-01
    1.2478354962115544e-02 -3.5355339059327373e-01
    1.3684060564875008e-02 -3.1501847758722673e-01
    1.4188769156600639e-02 -3.0151134457776357e-01
    1.5426589121171381e-02 -2.7317918235407651e-01
    1.9624886028901153e-02 -2.0851441405707474e-01
    2.3863178957040466e-02 -1.6903085094570330e-01
    2.3863178957040466e-02 -1.6903085094570330e-01
    1.7120161767270561e-02 -2.4253562503633294e-01
    1.7120161767270561e-02 -2.4253562503633294e-01
    1.7120161767270561e-02 -2.4253562503633294e-01
    1.6200714650802268e-02 -2.5819888974716115e-01
    1.4763867829157706e-02 -2.8758784208880117e-01
    1.1587520211785269e-02 -3.8987177379235854e-01
    9.5411833800805243e-03 -5.2377121263567050e-01
    8.8246067000187361e-03 -6.0944940022004401e-01
    8.3634894914617515e-03 -6.9608626079978542e-01
    8.1313692057025187e-03 -7.6316288066020521e-01
    7.8804694125678525e-03 -9.0707486467577891e-01
    7.9198971311042043e-03 -8.6953870585248250e-01
    7.8552689516422202e-03 -9.4590530292691744e-01
    7.8920046264698458e-03 -1.1180339887498947e+00
    8.0442759853862084e-03 -1.2535663410560176e+00
    8.0442759853862084e-03 -1.2535663410560176e+00
    7.8552689516422202e-03 -1.0571882797418488e+00
    7.8920046264698458e-03 -8.9442719099991586e-01
    8.6277505602655180e-03 -6.4168894791974795e-01
    1.0353300672318620e-02 -4.5834924851410563e-01
    8.8246067000187361e-03 -6.0944940022004401e-01
    7.8705130353608540e-03 -9.1986621100779986e-01
    7.8461649088479284e-03 -1.0281745265969473e+00
    7.8920046264698458e-03 -1.1180339887498947e+00
    7.9363049659613126e-03 -1.1664714903095219e+00
    7.9198971311042043e-03 -1.1500350625790898e+00
    7.8431372549019607e-03 -1. 7.9363049659613143e-03
    -8.5728627601061280e-01 8.3189033080770299e-03
    -7.0710678118654757e-01 8.4605472936563706e-03
    -6.7419986246324204e-01 8.8246067000187361e-03
    -6.0944940022004401e-01 9.6562668431543919e-03
    -5.1298917604257710e-01 1.0704483288491539e-02
    -4.3598468393751993e-01 1.2837540507679501e-02
    -3.4099716973523675e-01 1.4763867829157706e-02
    -2.8758784208880117e-01 1.5426589121171381e-02
    -2.7317918235407651e-01 1.9624886028901153e-02
    -2.0851441405707474e-01 2.1420515062895482e-02
    -1.8966081045272040e-01 2.3863178957040466e-02
    -1.6903085094570330e-01 2.1420515062895482e-02
    -1.8966081045272040e-01 1.6200714650802268e-02
    -2.5819888974716115e-01 1.6200714650802268e-02
    -2.5819888974716115e-01 1.6200714650802268e-02
    -2.5819888974716115e-01 1.5426589121171381e-02
    -2.7317918235407651e-01 1.4763867829157706e-02
    -2.8758784208880117e-01 1.0704483288491539e-02
    -4.3598468393751993e-01 1.0047256709338800e-02
    -4.8038446141526142e-01 9.0564748108176597e-03
    -5.7735026918962584e-01 8.4605472936563706e-03
    -6.7419986246324204e-01 8.2370818728222817e-03
    -7.2932495748947290e-01 8.1003573254011339e-03
    -7.7459666924148340e-01 7.9363049659613143e-03
    -8.5728627601061280e-01 7.8552689516422202e-03
    -9.4590530292691744e-01 7.8621178190672204e-03
    -1.0720325234540615e+00 8.0713459754723684e-03
    -1.2720777563426764e+00 8.0190931358551515e-03
    -1.2354415362426843e+00 7.8920046264698458e-03
    -1.1180339887498947e+00 7.8621178190672204e-03
    -9.3280752040807957e-01 8.3189033080770299e-03
    -7.0710678118654757e-01 1.0900114397395523e-02
    -4.2465029006520061e-01 8.7553930298264783e-03
    -6.2017367294604220e-01 7.8920046264698458e-03
    -8.9442719099991586e-01 7.8461649088479284e-03
    -1.0281745265969473e+00 7.8552689516422202e-03
    -1.0571882797418488e+00 7.8552689516422202e-03
    -1.0571882797418488e+00 7.9198971311042043e-03
    -1.1500350625790898e+00 7.8920046264698458e-03
    -8.9442719099991586e-01 7.8804694125678525e-03
    -9.0707486467577891e-01 8.4106654409576379e-03
    -6.8511878904467427e-01 8.1996581998876640e-03
    -7.4053163117735465e-01 9.1427120215958491e-03
    -5.6665767217182605e-01 1.0353300672318620e-02
    -4.5834924851410563e-01 1.0900114397395523e-02
    -4.2465029006520061e-01 1.2153349589155531e-02
    -3.6586646159020297e-01 1.3684060564875008e-02
    -3.1501847758722673e-01 1.6200714650802268e-02
    -2.5819888974716115e-01 1.9624886028901153e-02
    -2.0851441405707474e-01 2.1420515062895482e-02
    -1.8966081045272040e-01 1.9624886028901153e-02
    -2.0851441405707474e-01 2.3863178957040466e-02
    -1.6903085094570330e-01 1.7120161767270561e-02
    -2.4253562503633294e-01 1.6200714650802268e-02
    -2.5819888974716115e-01 1.5426589121171381e-02
    -2.7317918235407651e-01 1.4763867829157706e-02
    -2.8758784208880117e-01 1.1857708957152227e-02
    -3.7796447300922725e-01 1.0353300672318620e-02
    -4.5834924851410563e-01 1.0047256709338800e-02
    -4.8038446141526142e-01 9.4327497145561545e-03
    -5.3452248382484868e-01 8.8246067000187361e-03
    -6.0944940022004401e-01 8.4605472936563706e-03
    -6.7419986246324204e-01 8.1996581998876640e-03
    -7.4053163117735465e-01 7.9543929856801549e-03
    -8.4515425472851646e-01 7.8438938397930192e-03
    -9.8620623589897649e-01 7.8920046264698458e-03
    -1.1180339887498947e+00 8.0713459754723684e-03
    -1.2720777563426764e+00 8.1996581998876640e-03
    -1.3503812097939996e+00 7.9957478370155152e-03
    -1.2176857643454877e+00 7.8705130353608540e-03
    -9.1986621100779986e-01 8.3634894914617515e-03
    -6.9608626079978542e-01 1.0900114397395523e-02
    -4.2465029006520061e-01 8.8976963528930031e-03
    -5.9874081708009175e-01 7.9198971311042043e-03
    -8.6953870585248250e-01 7.9051393047681520e-03
    -1.1338934190276817e+00 7.8621178190672204e-03
    -1.0720325234540615e+00 7.9051393047681520e-03
    -1.1338934190276817e+00 7.8705130353608540e-03
    -1.0871146130092180e+00 7.8621178190672204e-03
    -9.3280752040807957e-01 7.8499544115604621e-03
    -9.5916630466254393e-01 8.1313692057025187e-03
    -7.6316288066020521e-01 8.1003573254011339e-03
    -7.7459666924148340e-01 9.1427120215958491e-03
    -5.6665767217182605e-01 1.0704483288491539e-02
    -4.3598468393751993e-01 1.1111178091312098e-02
    -4.1319693527066864e-01 1.2837540507679501e-02
    -3.4099716973523675e-01 1.4188769156600639e-02
    -3.0151134457776357e-01 1.5426589121171381e-02
    -2.7317918235407651e-01 2.1420515062895482e-02
    -1.8966081045272040e-01 1.9624886028901153e-02
    -2.0851441405707474e-01 2.1420515062895482e-02
    -1.8966081045272040e-01 2.7456939576074268e-02
    -1.4586499149789456e-01 1.7120161767270561e-02
    -2.4253562503633294e-01 1.7120161767270561e-02
    -2.4253562503633294e-01 1.5426589121171381e-02
    -2.7317918235407651e-01 1.4188769156600639e-02
    -3.0151134457776357e-01 1.2153349589155531e-02
    -3.6586646159020297e-01 1.0900114397395523e-02
    -4.2465029006520061e-01 9.9086457366154793e-03
    -4.9130368444051753e-01 9.3304771218185364e-03
    -5.4524975680627075e-01 8.7553930298264783e-03
    -6.2017367294604220e-01 8.3634894914617515e-03
    -6.9608626079978542e-01 8.2768001512751911e-03
    -7.1818484645960767e-01 8.1003573254011339e-03
    -7.7459666924148340e-01 7.8438938397930192e-03
    -1.0139866932482435e+00 7.8552689516422202e-03
    -1.0571882797418488e+00 8.0442759853862084e-03
    -1.2535663410560176e+00 8.0442759853862084e-03
    -1.2535663410560176e+00 7.9957478370155152e-03
    -1.2176857643454877e+00 7.8461649088479302e-03
    -9.7259752515927467e-01 8.7553930298264783e-03
    -6.2017367294604220e-01 1.1857708957152227e-02
    -3.7796447300922725e-01 9.3304771218185364e-03
    -5.4524975680627075e-01 7.9051393047681520e-03
    -8.8191710368819698e-01 7.8431372549019607e-03 -1.
    7.9741948410303239e-03 -1.2002824526342519e+00
    7.8804694125678525e-03 -1.1024448355290235e+00
    7.8552689516422202e-03 -1.0571882797418488e+00
    7.8438938397930192e-03 -1.0139866932482435e+00
    7.8920046264698458e-03 -8.9442719099991586e-01
    8.1644460983469214e-03 -7.5180941155611236e-01
    8.1996581998876640e-03 -7.4053163117735465e-01
    8.8976963528930031e-03 -5.9874081708009175e-01
    1.0522672835293128e-02 -4.4721359549995793e-01
    1.1111178091312098e-02 -4.1319693527066864e-01
    1.2478354962115544e-02 -3.5355339059327373e-01
    1.4188769156600639e-02 -3.0151134457776357e-01
    1.5426589121171381e-02 -2.7317918235407651e-01
    1.9624886028901153e-02 -2.0851441405707474e-01
    1.9624886028901153e-02 -2.0851441405707474e-01
    2.1420515062895482e-02 -1.8966081045272040e-01
    2.3863178957040466e-02 -1.6903085094570330e-01
    1.6200714650802268e-02 -2.5819888974716115e-01
    1.5426589121171381e-02 -2.7317918235407651e-01
    1.5426589121171381e-02 -2.7317918235407651e-01
    1.4188769156600639e-02 -3.0151134457776357e-01
    1.3236910050028106e-02 -3.2816506165694681e-01
    1.0704483288491539e-02 -4.3598468393751993e-01
    1.0195173807164032e-02 -4.6940279403817725e-01
    9.2339285670738156e-03 -5.5595944914256934e-01
    8.8246067000187361e-03 -6.0944940022004401e-01
    8.3634894914617515e-03 -6.9608626079978542e-01
    8.2768001512751911e-03 -7.1818484645960767e-01
    8.0442759853862084e-03 -7.9772403521746571e-01
    7.8438938397930192e-03 -9.8620623589897649e-01
    7.9957478370155152e-03 -1.2176857643454877e+00
    8.0442759853862084e-03 -1.2535663410560176e+00
    8.0713459754723684e-03 -1.2720777563426764e+00
    8.0190931358551515e-03 -1.2354415362426843e+00
    7.8920046264698458e-03 -1.1180339887498947e+00
    8.4605472936563706e-03 -6.7419986246324204e-01
    1.1587520211785269e-02 -3.8987177379235854e-01
    9.3304771218185364e-03 -5.4524975680627075e-01
    8.1003573254011339e-03 -7.7459666924148340e-01
    7.8499544115604621e-03 -1.0425720702853738e+00
    7.9741948410303239e-03 -1.2002824526342519e+00
    7.9957478370155152e-03 -1.2176857643454877e+00
    7.9198971311042043e-03 -1.1500350625790898e+00
    7.8499544115604621e-03 -1.0425720702853738e+00
    7.8705130353608540e-03 -9.1986621100779986e-01
    8.0442759853862084e-03 -7.9772403521746571e-01
    8.1003573254011339e-03 -7.7459666924148340e-01
    8.5689458222002086e-03 -6.5248952041962005e-01
    1.0047256709338800e-02 -4.8038446141526142e-01
    1.1339566996270572e-02 -4.0160966445124940e-01
    1.2153349589155531e-02 -3.6586646159020297e-01
    1.3684060564875008e-02 -3.1501847758722673e-01
    1.7120161767270561e-02 -2.4253562503633294e-01
    1.9624886028901153e-02 -2.0851441405707474e-01
    2.3863178957040466e-02 -1.6903085094570330e-01
    2.1420515062895482e-02 -1.8966081045272040e-01
    2.1420515062895482e-02 -1.8966081045272040e-01
    1.5426589121171381e-02 -2.7317918235407651e-01
    1.5426589121171381e-02 -2.7317918235407651e-01
    1.4188769156600639e-02 -3.0151134457776357e-01
    1.4188769156600639e-02 -3.0151134457776357e-01
    1.2153349589155531e-02 -3.6586646159020297e-01
    1.0900114397395523e-02 -4.2465029006520061e-01
    1.0195173807164032e-02 -4.6940279403817725e-01
    9.0564748108176597e-03 -5.7735026918962584e-01
    8.8976963528930031e-03 -5.9874081708009175e-01
    8.4605472936563706e-03 -6.7419986246324204e-01
    8.4106654409576379e-03 -6.8511878904467427e-01
    8.0190931358551515e-03 -8.0942721340037938e-01
    7.8438938397930192e-03 -9.8620623589897649e-01
    7.8621178190672204e-03 -1.0720325234540615e+00
    8.0713459754723684e-03 -1.2720777563426764e+00
    7.9957478370155152e-03 -1.2176857643454877e+00
    7.9957478370155152e-03 -1.2176857643454877e+00
    7.9051393047681520e-03 -1.1338934190276817e+00
    8.4106654409576379e-03 -6.8511878904467427e-01
    1.3684060564875008e-02 -3.1501847758722673e-01
    9.3304771218185364e-03 -5.4524975680627075e-01
    7.9741948410303239e-03 -8.3313723182848076e-01
    7.8461649088479284e-03 -1.0281745265969473e+00
    7.9741948410303239e-03 -1.2002824526342519e+00
    7.9198971311042043e-03 -1.1500350625790898e+00
    7.8920046264698458e-03 -1.1180339887498947e+00
    7.8499544115604621e-03 -1.0425720702853738e+00
    7.8552689516422202e-03 -9.4590530292691744e-01
    8.1003573254011339e-03 -7.7459666924148340e-01
    8.1996581998876640e-03 -7.4053163117735465e-01
    8.7553930298264783e-03 -6.2017367294604220e-01
    9.6562668431543919e-03 -5.1298917604257710e-01
    1.0047256709338800e-02 -4.8038446141526142e-01
    1.2478354962115544e-02 -3.5355339059327373e-01
    1.2478354962115544e-02 -3.5355339059327373e-01
    1.7120161767270561e-02 -2.4253562503633294e-01
    1.7120161767270561e-02 -2.4253562503633294e-01
    1.9624886028901153e-02 -2.0851441405707474e-01
    2.3863178957040466e-02 -1.6903085094570330e-01
    2.1420515062895482e-02 -1.8966081045272040e-01
    1.7120161767270561e-02 -2.4253562503633294e-01
    1.5426589121171381e-02 -2.7317918235407651e-01
    1.3684060564875008e-02 -3.1501847758722673e-01
    1.3684060564875008e-02 -3.1501847758722673e-01
    1.1587520211785269e-02 -3.8987177379235854e-01
    1.1339566996270572e-02 -4.0160966445124940e-01
    9.7785484640703236e-03 -5.0216920758194472e-01
    9.1427120215958491e-03 -5.6665767217182605e-01
    8.7553930298264783e-03 -6.2017367294604220e-01
    8.4106654409576379e-03 -6.8511878904467427e-01
    8.4106654409576379e-03 -6.8511878904467427e-01
    7.9198971311042043e-03 -8.6953870585248250e-01
    7.8461649088479284e-03 -1.0281745265969473e+00
    7.9957478370155152e-03 -1.2176857643454877e+00
    8.1003573254011339e-03 -1.2909944487358056e+00
    8.0442759853862084e-03 -1.2535663410560176e+00
    8.0713459754723684e-03 -1.2720777563426764e+00
    7.8431372549019607e-03 -1. 8.5132614939603841e-03
    -6.6332495807107994e-01 1.6200714650802268e-02
    -2.5819888974716115e-01 8.6898398157121363e-03
    -6.3091857828659992e-01 8.3189033080770299e-03
    -7.0710678118654757e-01 7.9741948410303239e-03
    -8.3313723182848076e-01 7.9363049659613126e-03
    -1.1664714903095219e+00 7.9957478370155152e-03
    -1.2176857643454877e+00 7.9957478370155152e-03
    -1.2176857643454877e+00 7.8621178190672204e-03
    -1.0720325234540615e+00 7.8438938397930192e-03
    -9.8620623589897649e-01 7.9543929856801549e-03
    -8.4515425472851646e-01 8.1003573254011339e-03
    -7.7459666924148340e-01 8.5132614939603841e-03
    -6.6332495807107994e-01 8.9748988116843519e-03
    -5.8804284922390182e-01 1.0047256709338800e-02
    -4.8038446141526142e-01 1.1587520211785269e-02
    -3.8987177379235854e-01 1.3236910050028106e-02
    -3.2816506165694681e-01 1.3684060564875008e-02
    -3.1501847758722673e-01 1.4763867829157706e-02
    -2.8758784208880117e-01 1.5426589121171381e-02
    -2.7317918235407651e-01 1.6200714650802268e-02
    -2.5819888974716115e-01 1.4763867829157706e-02
    -2.8758784208880117e-01 1.4188769156600639e-02
    -3.0151134457776357e-01 1.4188769156600639e-02
    -3.0151134457776357e-01 1.3684060564875008e-02
    -3.1501847758722673e-01 1.3236910050028106e-02
    -3.2816506165694681e-01 1.1111178091312098e-02
    -4.1319693527066864e-01 9.7785484640703236e-03
    -5.0216920758194472e-01 9.3304771218185364e-03
    -5.4524975680627075e-01 9.2339285670738156e-03
    -5.5595944914256934e-01 8.5689458222002086e-03
    -6.5248952041962005e-01 8.3634894914617515e-03
    -6.9608626079978542e-01 8.2768001512751911e-03
    -7.1818484645960767e-01 7.9198971311042043e-03
    -8.6953870585248250e-01 7.8621178190672204e-03
    -1.0720325234540615e+00 7.9198971311042043e-03
    -1.1500350625790898e+00 8.1996581998876640e-03
    -1.3503812097939996e+00 8.0713459754723684e-03
    -1.2720777563426764e+00 7.9957478370155152e-03
    -1.2176857643454877e+00 7.8920046264698458e-03
    -1.1180339887498947e+00 8.3634894914617515e-03
    -6.9608626079978542e-01 1.5426589121171381e-02
    -2.7317918235407651e-01 9.4327497145561545e-03
    -5.3452248382484868e-01 8.4605472936563706e-03
    -6.7419986246324204e-01 7.9957478370155152e-03
    -8.2122993409346845e-01 7.8499544115604621e-03
    -9.5916630466254393e-01 7.9741948410303239e-03
    -1.2002824526342519e+00 7.9741948410303239e-03
    -1.2002824526342519e+00 7.8552689516422202e-03
    -1.0571882797418488e+00 7.8431372549019607e-03 -1.
    7.9198971311042043e-03 -8.6953870585248250e-01
    8.0190931358551515e-03 -8.0942721340037938e-01
    8.3634894914617515e-03 -6.9608626079978542e-01
    8.7553930298264783e-03 -6.2017367294604220e-01
    9.4327497145561545e-03 -5.3452248382484868e-01
    1.0900114397395523e-02 -4.2465029006520061e-01
    1.2478354962115544e-02 -3.5355339059327373e-01
    1.2837540507679501e-02 -3.4099716973523675e-01
    1.2478354962115544e-02 -3.5355339059327373e-01
    1.3684060564875008e-02 -3.1501847758722673e-01
    1.3236910050028106e-02 -3.2816506165694681e-01
    1.4763867829157706e-02 -2.8758784208880117e-01
    1.3236910050028106e-02 -3.2816506165694681e-01
    1.3236910050028106e-02 -3.2816506165694681e-01
    1.1857708957152227e-02 -3.7796447300922725e-01
    1.1339566996270572e-02 -4.0160966445124940e-01
    1.0522672835293128e-02 -4.4721359549995793e-01
    9.5411833800805243e-03 -5.2377121263567050e-01
    9.1427120215958491e-03 -5.6665767217182605e-01
    8.8976963528930031e-03 -5.9874081708009175e-01
    8.4605472936563706e-03 -6.7419986246324204e-01
    8.4106654409576379e-03 -6.8511878904467427e-01
    8.2370818728222817e-03 -7.2932495748947290e-01
    7.9198971311042043e-03 -8.6953870585248250e-01
    7.8804694125678525e-03 -1.1024448355290235e+00
    7.9543929856801549e-03 -1.1832159566199230e+00
    7.9957478370155152e-03 -1.2176857643454877e+00
    7.9741948410303239e-03 -1.2002824526342519e+00
    7.9198971311042043e-03 -1.1500350625790898e+00
    7.8552689516422202e-03 -1.0571882797418488e+00
    8.3189033080770299e-03 -7.0710678118654757e-01
    1.8235304010935337e-02 -2.2604178930221930e-01
    1.1587520211785269e-02 -3.8987177379235854e-01
    8.8246067000187361e-03 -6.0944940022004401e-01
    8.2370818728222817e-03 -7.2932495748947290e-01
    7.8461649088479302e-03 -9.7259752515927467e-01
    7.8920046264698458e-03 -1.1180339887498947e+00
    7.9957478370155152e-03 -1.2176857643454877e+00
    7.8804694125678525e-03 -1.1024448355290235e+00
    7.9363049659613126e-03 -1.1664714903095219e+00
    7.8621178190672204e-03 -1.0720325234540615e+00
    7.8621178190672204e-03 -9.3280752040807957e-01
    8.1313692057025187e-03 -7.6316288066020521e-01
    8.2768001512751911e-03 -7.1818484645960767e-01
    9.3304771218185364e-03 -5.4524975680627075e-01
    9.2339285670738156e-03 -5.5595944914256934e-01
    1.0353300672318620e-02 -4.5834924851410563e-01
    1.1857708957152227e-02 -3.7796447300922725e-01
    1.2478354962115544e-02 -3.5355339059327373e-01
    1.3236910050028106e-02 -3.2816506165694681e-01
    1.1857708957152227e-02 -3.7796447300922725e-01
    1.2478354962115544e-02 -3.5355339059327373e-01
    1.1857708957152227e-02 -3.7796447300922725e-01
    1.1587520211785269e-02 -3.8987177379235854e-01
    1.0900114397395523e-02 -4.2465029006520061e-01
    9.9086457366154793e-03 -4.9130368444051753e-01
    9.5411833800805243e-03 -5.2377121263567050e-01
    9.0564748108176597e-03 -5.7735026918962584e-01
    8.8246067000187361e-03 -6.0944940022004401e-01
    8.8976963528930031e-03 -5.9874081708009175e-01
    8.5132614939603841e-03 -6.6332495807107994e-01
    8.3634894914617515e-03 -6.9608626079978542e-01
    8.0713459754723701e-03 -7.8611546740277771e-01
    7.8920046264698458e-03 -8.9442719099991586e-01
    7.9741948410303239e-03 -1.2002824526342519e+00
    7.8920046264698458e-03 -1.1180339887498947e+00
    7.9198971311042043e-03 -1.1500350625790898e+00
    7.9543929856801549e-03 -1.1832159566199230e+00
    7.9957478370155152e-03 -1.2176857643454877e+00
    7.8438938397930192e-03 -1.0139866932482435e+00
    8.6277505602655180e-03 -6.4168894791974795e-01
    1.8235304010935337e-02 -2.2604178930221930e-01
    1.3236910050028106e-02 -3.2816506165694681e-01
    9.7785484640703236e-03 -5.0216920758194472e-01
    8.6898398157121363e-03 -6.3091857828659992e-01
    7.8705130353608540e-03 -9.1986621100779986e-01
    7.8552689516422202e-03 -1.0571882797418488e+00
    7.8705130353608540e-03 -1.0871146130092180e+00
    7.9957478370155152e-03 -1.2176857643454877e+00
    8.0190931358551515e-03 -1.2354415362426843e+00
    8.0442759853862084e-03 -1.2535663410560176e+00
    7.8438938397930192e-03 -9.8620623589897649e-01
    7.9051393047681520e-03 -8.8191710368819698e-01
    8.3189033080770299e-03 -7.0710678118654757e-01
    8.5689458222002086e-03 -6.5248952041962005e-01
    8.8246067000187361e-03 -6.0944940022004401e-01
    9.6562668431543919e-03 -5.1298917604257710e-01
    1.0195173807164032e-02 -4.6940279403817725e-01
    1.0522672835293128e-02 -4.4721359549995793e-01
    1.1111178091312098e-02 -4.1319693527066864e-01
    1.1111178091312098e-02 -4.1319693527066864e-01
    1.1111178091312098e-02 -4.1319693527066864e-01
    1.1857708957152227e-02 -3.7796447300922725e-01
    1.1111178091312098e-02 -4.1319693527066864e-01
    9.7785484640703236e-03 -5.0216920758194472e-01
    9.0564748108176597e-03 -5.7735026918962584e-01
    8.8976963528930031e-03 -5.9874081708009175e-01
    8.8246067000187361e-03 -6.0944940022004401e-01
    8.8976963528930031e-03 -5.9874081708009175e-01
    8.6277505602655180e-03 -6.4168894791974795e-01
    8.4106654409576379e-03 -6.8511878904467427e-01
    8.2370818728222817e-03 -7.2932495748947290e-01
    7.8804694125678525e-03 -9.0707486467577891e-01
    7.8438938397930192e-03 -1.0139866932482435e+00
    7.9363049659613126e-03 -1.1664714903095219e+00
    7.8621178190672204e-03 -1.0720325234540615e+00
    7.9198971311042043e-03 -1.1500350625790898e+00
    7.9198971311042043e-03 -1.1500350625790898e+00
    7.8499544115604621e-03 -1.0425720702853738e+00
    7.8461649088479302e-03 -9.7259752515927467e-01
    1.0522672835293128e-02 -4.4721359549995793e-01
    1.4763867829157706e-02 -2.8758784208880117e-01
    1.4763867829157706e-02 -2.8758784208880117e-01
    1.0900114397395523e-02 -4.2465029006520061e-01
    8.8976963528930031e-03 -5.9874081708009175e-01
    8.2768001512751911e-03 -7.1818484645960767e-01
    7.8461649088479302e-03 -9.7259752515927467e-01
    7.9543929856801549e-03 -1.1832159566199230e+00
    7.9363049659613126e-03 -1.1664714903095219e+00
    7.8804694125678525e-03 -1.1024448355290235e+00
    7.9543929856801549e-03 -1.1832159566199230e+00
    7.9051393047681520e-03 -1.1338934190276817e+00
    7.8920046264698458e-03 -1.1180339887498947e+00
    7.8920046264698458e-03 -8.9442719099991586e-01
    8.0442759853862084e-03 -7.9772403521746571e-01
    8.2370818728222817e-03 -7.2932495748947290e-01
    8.5689458222002086e-03 -6.5248952041962005e-01
    9.6562668431543919e-03 -5.1298917604257710e-01
    9.7785484640703236e-03 -5.0216920758194472e-01
    9.6562668431543919e-03 -5.1298917604257710e-01
    9.6562668431543919e-03 -5.1298917604257710e-01
    9.9086457366154793e-03 -4.9130368444051753e-01
    1.0522672835293128e-02 -4.4721359549995793e-01
    9.4327497145561545e-03 -5.3452248382484868e-01
    9.2339285670738156e-03 -5.5595944914256934e-01
    8.9748988116843519e-03 -5.8804284922390182e-01
    8.8246067000187361e-03 -6.0944940022004401e-01
    8.5689458222002086e-03 -6.5248952041962005e-01
    8.7553930298264783e-03 -6.2017367294604220e-01
    8.4605472936563706e-03 -6.7419986246324204e-01
    8.3634894914617515e-03 -6.9608626079978542e-01
    7.9957478370155152e-03 -8.2122993409346845e-01
    7.8461649088479284e-03 -1.0281745265969473e+00
    7.8438938397930192e-03 -9.8620623589897649e-01
    7.8621178190672204e-03 -1.0720325234540615e+00
    7.8920046264698458e-03 -1.1180339887498947e+00
    7.8552689516422202e-03 -1.0571882797418488e+00
    7.8705130353608540e-03 -1.0871146130092180e+00
    7.8438938397930192e-03 -9.8620623589897649e-01
    8.1003573254011339e-03 -7.7459666924148340e-01
    1.1857708957152227e-02 -3.7796447300922725e-01
    1.7120161767270561e-02 -2.4253562503633294e-01
    1.3684060564875008e-02 -3.1501847758722673e-01
    1.2153349589155531e-02 -3.6586646159020297e-01
    9.1427120215958491e-03 -5.6665767217182605e-01
    8.5689458222002086e-03 -6.5248952041962005e-01
    8.0442759853862084e-03 -7.9772403521746571e-01
    7.8499544115604621e-03 -1.0425720702853738e+00
    7.9957478370155152e-03 -1.2176857643454877e+00
    7.9198971311042043e-03 -1.1500350625790898e+00
    7.8461649088479284e-03 -1.0281745265969473e+00
    8.0190931358551515e-03 -1.2354415362426843e+00
    7.8705130353608540e-03 -1.0871146130092180e+00
    7.8705130353608540e-03 -9.1986621100779986e-01
    7.8621178190672204e-03 -9.3280752040807957e-01
    7.9741948410303239e-03 -8.3313723182848076e-01
    8.2768001512751911e-03 -7.1818484645960767e-01
    8.6277505602655180e-03 -6.4168894791974795e-01
    8.7553930298264783e-03 -6.2017367294604220e-01
    9.3304771218185364e-03 -5.4524975680627075e-01
    9.0564748108176597e-03 -5.7735026918962584e-01
    9.0564748108176597e-03 -5.7735026918962584e-01
    9.2339285670738156e-03 -5.5595944914256934e-01
    8.8246067000187361e-03 -6.0944940022004401e-01
    8.5689458222002086e-03 -6.5248952041962005e-01
    8.5689458222002086e-03 -6.5248952041962005e-01
    8.5132614939603841e-03 -6.6332495807107994e-01
    8.3634894914617515e-03 -6.9608626079978542e-01
    8.5689458222002086e-03 -6.5248952041962005e-01
    8.3189033080770299e-03 -7.0710678118654757e-01
    8.0713459754723701e-03 -7.8611546740277771e-01
    7.9198971311042043e-03 -8.6953870585248250e-01
    7.8461649088479284e-03 -1.0281745265969473e+00
    7.8621178190672204e-03 -1.0720325234540615e+00
    7.8920046264698458e-03 -1.1180339887498947e+00
    7.8804694125678525e-03 -1.1024448355290235e+00
    7.8804694125678525e-03 -1.1024448355290235e+00
    7.8621178190672204e-03 -9.3280752040807957e-01
    7.9363049659613143e-03 -8.5728627601061280e-01
    8.6277505602655180e-03 -6.4168894791974795e-01
    1.2478354962115544e-02 -3.5355339059327373e-01
    1.9624886028901153e-02 -2.0851441405707474e-01
    1.6200714650802268e-02 -2.5819888974716115e-01
    1.4763867829157706e-02 -2.8758784208880117e-01
    1.0047256709338800e-02 -4.8038446141526142e-01
    8.9748988116843519e-03 -5.8804284922390182e-01
    8.3189033080770299e-03 -7.0710678118654757e-01
    7.9957478370155152e-03 -8.2122993409346845e-01
    7.8461649088479302e-03 -9.7259752515927467e-01
    7.8804694125678525e-03 -9.0707486467577891e-01
    7.8438938397930192e-03 -9.8620623589897649e-01
    8.0190931358551515e-03 -1.2354415362426843e+00
    8.0713459754723684e-03 -1.2720777563426764e+00
    8.0713459754723684e-03 -1.2720777563426764e+00
    7.9957478370155152e-03 -1.2176857643454877e+00
    7.9198971311042043e-03 -1.1500350625790898e+00
    7.8621178190672204e-03 -9.3280752040807957e-01
    8.1996581998876640e-03 -7.4053163117735465e-01
    8.3634894914617515e-03 -6.9608626079978542e-01
    8.3189033080770299e-03 -7.0710678118654757e-01
    8.5689458222002086e-03 -6.5248952041962005e-01
    8.3189033080770299e-03 -7.0710678118654757e-01
    8.6898398157121363e-03 -6.3091857828659992e-01
    8.2768001512751911e-03 -7.1818484645960767e-01
    8.1644460983469214e-03 -7.5180941155611236e-01
    8.1996581998876640e-03 -7.4053163117735465e-01
    8.1644460983469214e-03 -7.5180941155611236e-01
    8.2370818728222817e-03 -7.2932495748947290e-01
    8.1996581998876640e-03 -7.4053163117735465e-01
    8.0442759853862084e-03 -7.9772403521746571e-01
    7.9198971311042043e-03 -8.6953870585248250e-01
    7.8552689516422202e-03 -1.0571882797418488e+00
    7.8804694125678525e-03 -1.1024448355290235e+00
    7.8552689516422202e-03 -1.0571882797418488e+00
    7.8438938397930192e-03 -9.8620623589897649e-01
    7.8438938397930192e-03 -1.0139866932482435e+00
    7.8461649088479302e-03 -9.7259752515927467e-01
    7.8804694125678525e-03 -9.0707486467577891e-01
    8.1003573254011339e-03 -7.7459666924148340e-01
    9.7785484640703236e-03 -5.0216920758194472e-01
    1.8235304010935337e-02 -2.2604178930221930e-01
    1.9624886028901153e-02 -2.0851441405707474e-01
    1.6200714650802268e-02 -2.5819888974716115e-01
    1.4763867829157706e-02 -2.8758784208880117e-01
    1.1857708957152227e-02 -3.7796447300922725e-01
    9.7785484640703236e-03 -5.0216920758194472e-01
    8.3189033080770299e-03 -7.0710678118654757e-01
    8.0713459754723701e-03 -7.8611546740277771e-01
    7.9741948410303239e-03 -8.3313723182848076e-01
    7.8461649088479302e-03 -9.7259752515927467e-01
    7.8461649088479302e-03 -9.7259752515927467e-01
    7.8920046264698458e-03 -1.1180339887498947e+00
    7.9543929856801549e-03 -1.1832159566199230e+00
    8.1003573254011339e-03 -1.2909944487358056e+00
    8.1313692057025187e-03 -1.3103362667939371e+00
    8.0190931358551515e-03 -1.2354415362426843e+00
    7.9051393047681520e-03 -1.1338934190276817e+00
    7.8499544115604621e-03 -1.0425720702853738e+00
    7.8705130353608540e-03 -9.1986621100779986e-01
    7.9198971311042043e-03 -8.6953870585248250e-01
    7.9741948410303239e-03 -8.3313723182848076e-01
    7.9543929856801549e-03 -8.4515425472851646e-01
    8.1003573254011339e-03 -7.7459666924148340e-01
    7.9957478370155152e-03 -8.2122993409346845e-01
    8.0442759853862084e-03 -7.9772403521746571e-01
    7.9957478370155152e-03 -8.2122993409346845e-01
    8.1644460983469214e-03 -7.5180941155611236e-01
    8.1003573254011339e-03 -7.7459666924148340e-01
    7.9363049659613143e-03 -8.5728627601061280e-01
    7.8438938397930192e-03 -1.0139866932482435e+00
    7.8552689516422202e-03 -1.0571882797418488e+00
    7.9741948410303239e-03 -1.2002824526342519e+00
    7.8920046264698458e-03 -1.1180339887498947e+00
    7.8920046264698458e-03 -1.1180339887498947e+00
    7.8621178190672204e-03 -1.0720325234540615e+00
    7.8461649088479302e-03 -9.7259752515927467e-01
    7.8552689516422202e-03 -9.4590530292691744e-01
    7.8705130353608540e-03 -9.1986621100779986e-01
    8.5689458222002086e-03 -6.5248952041962005e-01
    1.2837540507679501e-02 -3.4099716973523675e-01
    1.8235304010935337e-02 -2.2604178930221930e-01
    2.7456939576074268e-02 -1.4586499149789456e-01
    1.4763867829157706e-02 -2.8758784208880117e-01
    1.4763867829157706e-02 -2.8758784208880117e-01
    1.3684060564875008e-02 -3.1501847758722673e-01
    1.1857708957152227e-02 -3.7796447300922725e-01
    9.0564748108176597e-03 -5.7735026918962584e-01
    8.5689458222002086e-03 -6.5248952041962005e-01
    8.1003573254011339e-03 -7.7459666924148340e-01
    8.2370818728222817e-03 -7.2932495748947290e-01
    7.8621178190672204e-03 -9.3280752040807957e-01
    7.8438938397930192e-03 -1.0139866932482435e+00
    7.8920046264698458e-03 -1.1180339887498947e+00
    8.1644460983469197e-03 -1.3301243435223522e+00
    8.1003573254011339e-03 -1.2909944487358056e+00
    8.1996581998876640e-03 -1.3503812097939996e+00
    7.9957478370155152e-03 -1.2176857643454877e+00
    7.9957478370155152e-03 -1.2176857643454877e+00
    7.9543929856801549e-03 -1.1832159566199230e+00
    7.8621178190672204e-03 -1.0720325234540615e+00
    7.8438938397930192e-03 -9.8620623589897649e-01
    7.8461649088479284e-03 -1.0281745265969473e+00
    7.8920046264698458e-03 -8.9442719099991586e-01
    7.8705130353608540e-03 -9.1986621100779986e-01
    7.9363049659613143e-03 -8.5728627601061280e-01
    7.9051393047681520e-03 -8.8191710368819698e-01
    7.9198971311042043e-03 -8.6953870585248250e-01
    7.8920046264698458e-03 -8.9442719099991586e-01
    7.8621178190672204e-03 -1.0720325234540615e+00
    7.8804694125678525e-03 -1.1024448355290235e+00
    7.9051393047681520e-03 -1.1338934190276817e+00
    7.9051393047681520e-03 -1.1338934190276817e+00
    7.8804694125678525e-03 -1.1024448355290235e+00
    7.8705130353608540e-03 -9.1986621100779986e-01
    7.8920046264698458e-03 -8.9442719099991586e-01
    7.8621178190672204e-03 -9.3280752040807957e-01
    7.8920046264698458e-03 -8.9442719099991586e-01
    8.3189033080770299e-03 -7.0710678118654757e-01
    9.9086457366154793e-03 -4.9130368444051753e-01
    1.5426589121171381e-02 -2.7317918235407651e-01
    1.8235304010935337e-02 -2.2604178930221930e-01
    2.1420515062895482e-02 -1.8966081045272040e-01
    1.8235304010935337e-02 -2.2604178930221930e-01
    1.5426589121171381e-02 -2.7317918235407651e-01
    1.4188769156600639e-02 -3.0151134457776357e-01
    1.4763867829157706e-02 -2.8758784208880117e-01
    1.1339566996270572e-02 -4.0160966445124940e-01
    9.3304771218185364e-03 -5.4524975680627075e-01
    8.6277505602655180e-03 -6.4168894791974795e-01
    8.0190931358551515e-03 -8.0942721340037938e-01
    8.0713459754723701e-03 -7.8611546740277771e-01
    7.8461649088479302e-03 -9.7259752515927467e-01
    7.8920046264698458e-03 -1.1180339887498947e+00
    7.9543929856801549e-03 -1.1832159566199230e+00
    7.9957478370155152e-03 -1.2176857643454877e+00
    8.2768001512751911e-03 -1.3923991921155658e+00
    8.2370818728222817e-03 -1.3711309200802091e+00
    8.2370818728222817e-03 -1.3711309200802091e+00
    8.1644460983469197e-03 -1.3301243435223522e+00
    7.9957478370155152e-03 -1.2176857643454877e+00
    8.1644460983469197e-03 -1.3301243435223522e+00
    8.0713459754723684e-03 -1.2720777563426764e+00
    7.9198971311042043e-03 -1.1500350625790898e+00
    7.9741948410303239e-03 -1.2002824526342519e+00
    7.8499544115604621e-03 -1.0425720702853738e+00
    7.8499544115604621e-03 -9.5916630466254393e-01
    7.8621178190672204e-03 -1.0720325234540615e+00
    7.8552689516422202e-03 -1.0571882797418488e+00
    7.9198971311042043e-03 -1.1500350625790898e+00
    7.9198971311042043e-03 -1.1500350625790898e+00
    7.9051393047681520e-03 -1.1338934190276817e+00
    7.8552689516422202e-03 -1.0571882797418488e+00
    7.8438938397930192e-03 -1.0139866932482435e+00
    7.9363049659613143e-03 -8.5728627601061280e-01
    7.8920046264698458e-03 -8.9442719099991586e-01
    7.9051393047681520e-03 -8.8191710368819698e-01
    8.4106654409576379e-03 -6.8511878904467427e-01
    9.3304771218185364e-03 -5.4524975680627075e-01
    1.0353300672318620e-02 -4.5834924851410563e-01
    1.7120161767270561e-02 -2.4253562503633294e-01
    2.1420515062895482e-02 -1.8966081045272040e-01
    1.9624886028901153e-02 -2.0851441405707474e-01
    1.9624886028901153e-02 -2.0851441405707474e-01
    1.5426589121171381e-02 -2.7317918235407651e-01
    1.6200714650802268e-02 -2.5819888974716115e-01
    1.7120161767270561e-02 -2.4253562503633294e-01
    1.5426589121171381e-02 -2.7317918235407651e-01
    1.2837540507679501e-02 -3.4099716973523675e-01
    9.7785484640703236e-03 -5.0216920758194472e-01
    8.3189033080770299e-03 -7.0710678118654757e-01
    8.0713459754723701e-03 -7.8611546740277771e-01
    8.0713459754723701e-03 -7.8611546740277771e-01
    7.8552689516422202e-03 -9.4590530292691744e-01
    7.8920046264698458e-03 -1.1180339887498947e+00
    7.9741948410303239e-03 -1.2002824526342519e+00
    8.1003573254011339e-03 -1.2909944487358056e+00
    8.3189033080770299e-03 -1.4142135623730951e+00
    8.4106654409576362e-03 -1.4596008983995230e+00
    8.4605472936563706e-03 -1.4832396974191324e+00
    8.2370818728222817e-03 -1.3711309200802091e+00
    8.2370818728222817e-03 -1.3711309200802091e+00
    8.1313692057025187e-03 -1.3103362667939371e+00
    8.1003573254011339e-03 -1.2909944487358056e+00
    7.9957478370155152e-03 -1.2176857643454877e+00
    8.1313692057025187e-03 -1.3103362667939371e+00
    8.0713459754723684e-03 -1.2720777563426764e+00
    7.9543929856801549e-03 -1.1832159566199230e+00
    7.9198971311042043e-03 -1.1500350625790898e+00
    7.9198971311042043e-03 -1.1500350625790898e+00
    7.9957478370155152e-03 -1.2176857643454877e+00
    7.9363049659613126e-03 -1.1664714903095219e+00
    7.8621178190672204e-03 -1.0720325234540615e+00
    7.8431372549019607e-03 -1. 7.8804694125678525e-03
    -9.0707486467577891e-01 7.9957478370155152e-03
    -8.2122993409346845e-01 8.4605472936563706e-03
    -6.7419986246324204e-01 9.0564748108176597e-03
    -5.7735026918962584e-01 1.0522672835293128e-02
    -4.4721359549995793e-01 1.5426589121171381e-02
    -2.7317918235407651e-01 2.1420515062895482e-02
    -1.8966081045272040e-01 2.1420515062895482e-02
    -1.8966081045272040e-01 4.7223078212165127e-02
    -8.3624201000709081e-02 2.3863178957040466e-02
    -1.6903085094570330e-01 1.7120161767270561e-02
    -2.4253562503633294e-01 1.9624886028901153e-02
    -2.0851441405707474e-01 1.7120161767270561e-02
    -2.4253562503633294e-01 1.8235304010935337e-02
    -2.2604178930221930e-01 1.3684060564875008e-02
    -3.1501847758722673e-01 1.1857708957152227e-02
    -3.7796447300922725e-01 9.4327497145561545e-03
    -5.3452248382484868e-01 8.2370818728222817e-03
    -7.2932495748947290e-01 7.9198971311042043e-03
    -8.6953870585248250e-01 7.8804694125678525e-03
    -9.0707486467577891e-01 7.8499544115604621e-03
    -1.0425720702853738e+00 7.9363049659613126e-03
    -1.1664714903095219e+00 7.9957478370155152e-03
    -1.2176857643454877e+00 8.1644460983469197e-03
    -1.3301243435223522e+00 8.3634894914617532e-03
    -1.4366035595229616e+00 8.5132614939603859e-03
    -1.5075567228888185e+00 8.4106654409576362e-03
    -1.4596008983995230e+00 8.2370818728222817e-03
    -1.3711309200802091e+00 8.2768001512751911e-03
    -1.3923991921155658e+00 8.3634894914617532e-03
    -1.4366035595229616e+00 8.4605472936563706e-03
    -1.4832396974191324e+00 8.2370818728222817e-03
    -1.3711309200802091e+00 8.1644460983469197e-03
    -1.3301243435223522e+00 7.9543929856801549e-03
    -1.1832159566199230e+00 7.9198971311042043e-03
    -1.1500350625790898e+00 7.9363049659613126e-03
    -1.1664714903095219e+00 7.9198971311042043e-03
    -1.1500350625790898e+00 7.8621178190672204e-03
    -9.3280752040807957e-01 7.8438938397930192e-03
    -1.0139866932482435e+00 7.8621178190672204e-03
    -9.3280752040807957e-01 8.0442759853862084e-03
    -7.9772403521746571e-01 9.2339285670738156e-03
    -5.5595944914256934e-01 9.0564748108176597e-03
    -5.7735026918962584e-01 9.9086457366154793e-03
    -4.9130368444051753e-01 1.3236910050028106e-02
    -3.2816506165694681e-01 1.6200714650802268e-02
    -2.5819888974716115e-01 2.3863178957040466e-02
    -1.6903085094570330e-01 3.3509129172532327e-02
    -1.1867816581938533e-01 4.7223078212165127e-02
    -8.3624201000709081e-02 1. 0. 2.3863178957040466e-02
    -1.6903085094570330e-01 1.7120161767270561e-02
    -2.4253562503633294e-01 1.8235304010935337e-02
    -2.2604178930221930e-01 1.8235304010935337e-02
    -2.2604178930221930e-01 1.4763867829157706e-02
    -2.8758784208880117e-01 1.4763867829157706e-02
    -2.8758784208880117e-01 1.1857708957152227e-02
    -3.7796447300922725e-01 9.5411833800805243e-03
    -5.2377121263567050e-01 8.4605472936563706e-03
    -6.7419986246324204e-01 8.0442759853862084e-03
    -7.9772403521746571e-01 7.8552689516422202e-03
    -9.4590530292691744e-01 7.8499544115604621e-03
    -1.0425720702853738e+00 7.9543929856801549e-03
    -1.1832159566199230e+00 8.0713459754723684e-03
    -1.2720777563426764e+00 8.1003573254011339e-03
    -1.2909944487358056e+00 8.1313692057025187e-03
    -1.3103362667939371e+00 8.2768001512751911e-03
    -1.3923991921155658e+00 8.2768001512751911e-03
    -1.3923991921155658e+00 8.3189033080770299e-03
    -1.4142135623730951e+00 8.2370818728222817e-03
    -1.3711309200802091e+00 8.1644460983469197e-03
    -1.3301243435223522e+00 8.2768001512751911e-03
    -1.3923991921155658e+00 8.0442759853862084e-03
    -1.2535663410560176e+00 8.0442759853862084e-03
    -1.2535663410560176e+00 7.9741948410303239e-03
    -1.2002824526342519e+00 7.8499544115604621e-03
    -1.0425720702853738e+00 7.8499544115604621e-03
    -1.0425720702853738e+00 7.9051393047681520e-03
    -8.8191710368819698e-01 8.0190931358551515e-03
    -8.0942721340037938e-01 8.1644460983469214e-03
    -7.5180941155611236e-01 8.8246067000187361e-03
    -6.0944940022004401e-01 8.7553930298264783e-03
    -6.2017367294604220e-01 8.9748988116843519e-03
    -5.8804284922390182e-01 1.2837540507679501e-02
    -3.4099716973523675e-01 1.5426589121171381e-02
    -2.7317918235407651e-01 2.1420515062895482e-02
    -1.8966081045272040e-01 3.3509129172532327e-02
    -1.1867816581938533e-01 1. 0. 4.7223078212165127e-02
    -8.3624201000709081e-02 1. 0. 1. 0. 2.7456939576074268e-02
    -1.4586499149789456e-01 1.9624886028901153e-02
    -2.0851441405707474e-01 1.6200714650802268e-02
    -2.5819888974716115e-01 1.5426589121171381e-02
    -2.7317918235407651e-01 1.5426589121171381e-02
    -2.7317918235407651e-01 1.4763867829157706e-02
    -2.8758784208880117e-01 1.2153349589155531e-02
    -3.6586646159020297e-01 1.0047256709338800e-02
    -4.8038446141526142e-01 8.9748988116843519e-03
    -5.8804284922390182e-01 8.2370818728222817e-03
    -7.2932495748947290e-01 8.0713459754723701e-03
    -7.8611546740277771e-01 7.9741948410303239e-03
    -8.3313723182848076e-01 7.9957478370155152e-03
    -8.2122993409346845e-01 7.8552689516422202e-03
    -9.4590530292691744e-01 7.8552689516422202e-03
    -1.0571882797418488e+00 7.9363049659613126e-03
    -1.1664714903095219e+00 7.9363049659613126e-03
    -1.1664714903095219e+00 7.9198971311042043e-03
    -1.1500350625790898e+00 7.9543929856801549e-03
    -1.1832159566199230e+00 7.9741948410303239e-03
    -1.2002824526342519e+00 7.9198971311042043e-03
    -1.1500350625790898e+00 7.9051393047681520e-03
    -1.1338934190276817e+00 7.9051393047681520e-03
    -1.1338934190276817e+00 7.8621178190672204e-03
    -1.0720325234540615e+00 7.8499544115604621e-03
    -9.5916630466254393e-01 7.9363049659613143e-03
    -8.5728627601061280e-01 8.0442759853862084e-03
    -7.9772403521746571e-01 8.1996581998876640e-03
    -7.4053163117735465e-01 8.4106654409576379e-03
    -6.8511878904467427e-01 8.5132614939603841e-03
    -6.6332495807107994e-01 8.5689458222002086e-03
    -6.5248952041962005e-01 1.1587520211785269e-02
    -3.8987177379235854e-01 1.3684060564875008e-02
    -3.1501847758722673e-01 1.4763867829157706e-02
    -2.8758784208880117e-01 3.3509129172532327e-02
    -1.1867816581938533e-01 1. 0. 1. 0. 4.7223078212165127e-02
    -8.3624201000709081e-02 1. 0. 1. 0. 1. 0. 3.3509129172532327e-02
    -1.1867816581938533e-01 1.9624886028901153e-02
    -2.0851441405707474e-01 2.1420515062895482e-02
    -1.8966081045272040e-01 1.7120161767270561e-02
    -2.4253562503633294e-01 1.6200714650802268e-02
    -2.5819888974716115e-01 1.6200714650802268e-02
    -2.5819888974716115e-01 1.3236910050028106e-02
    -3.2816506165694681e-01 1.0353300672318620e-02
    -4.5834924851410563e-01 1.0047256709338800e-02
    -4.8038446141526142e-01 8.3634894914617515e-03
    -6.9608626079978542e-01 8.0190931358551515e-03
    -8.0942721340037938e-01 8.0442759853862084e-03
    -7.9772403521746571e-01 8.0190931358551515e-03
    -8.0942721340037938e-01 7.8499544115604621e-03
    -9.5916630466254393e-01 7.8552689516422202e-03
    -9.4590530292691744e-01 7.8621178190672204e-03
    -9.3280752040807957e-01 7.8461649088479284e-03
    -1.0281745265969473e+00 7.8438938397930192e-03
    -9.8620623589897649e-01 7.8621178190672204e-03
    -9.3280752040807957e-01 7.8438938397930192e-03
    -1.0139866932482435e+00 7.8461649088479284e-03
    -1.0281745265969473e+00 7.8438938397930192e-03
    -1.0139866932482435e+00 7.9198971311042043e-03
    -8.6953870585248250e-01 8.0713459754723701e-03
    -7.8611546740277771e-01 8.4605472936563706e-03
    -6.7419986246324204e-01 8.4605472936563706e-03
    -6.7419986246324204e-01 8.6898398157121363e-03
    -6.3091857828659992e-01 8.9748988116843519e-03
    -5.8804284922390182e-01 9.7785484640703236e-03
    -5.0216920758194472e-01 1.2153349589155531e-02
    -3.6586646159020297e-01 1.2478354962115544e-02
    -3.5355339059327373e-01 1.4188769156600639e-02
    -3.0151134457776357e-01 2.3863178957040466e-02
    -1.6903085094570330e-01 3.3509129172532327e-02
    -1.1867816581938533e-01 1. 0. 1. 0. 4.7223078212165127e-02
    -8.3624201000709081e-02 1. 0. 1. 0. 1. 0. 3.3509129172532327e-02
    -1.1867816581938533e-01 2.3863178957040466e-02
    -1.6903085094570330e-01 2.3863178957040466e-02
    -1.6903085094570330e-01 2.3863178957040466e-02
    -1.6903085094570330e-01 1.9624886028901153e-02
    -2.0851441405707474e-01 2.3863178957040466e-02
    -1.6903085094570330e-01 1.9624886028901153e-02
    -2.0851441405707474e-01 1.4763867829157706e-02
    -2.8758784208880117e-01 1.3236910050028106e-02
    -3.2816506165694681e-01 1.2153349589155531e-02
    -3.6586646159020297e-01 1.0522672835293128e-02
    -4.4721359549995793e-01 9.0564748108176597e-03
    -5.7735026918962584e-01 8.8246067000187361e-03
    -6.0944940022004401e-01 8.8246067000187361e-03
    -6.0944940022004401e-01 8.7553930298264783e-03
    -6.2017367294604220e-01 8.7553930298264783e-03
    -6.2017367294604220e-01 8.1644460983469214e-03
    -7.5180941155611236e-01 8.2370818728222817e-03
    -7.2932495748947290e-01 8.1313692057025187e-03
    -7.6316288066020521e-01 8.0713459754723701e-03
    -7.8611546740277771e-01 8.0442759853862084e-03
    -7.9772403521746571e-01 8.3189033080770299e-03
    -7.0710678118654757e-01 8.4106654409576379e-03
    -6.8511878904467427e-01 8.8246067000187361e-03
    -6.0944940022004401e-01 9.2339285670738156e-03
    -5.5595944914256934e-01 9.0564748108176597e-03
    -5.7735026918962584e-01 9.4327497145561545e-03
    -5.3452248382484868e-01 1.4188769156600639e-02
    -3.0151134457776357e-01 1.2478354962115544e-02
    -3.5355339059327373e-01 1.5426589121171381e-02
    -2.7317918235407651e-01 1.6200714650802268e-02
    -2.5819888974716115e-01 1.7120161767270561e-02
    -2.4253562503633294e-01 3.3509129172532327e-02
    -1.1867816581938533e-01 1. 0. 1. 0. 1. 0.</input_scale>
  <output_scale>
    1.0526315789473684e+00 0.</output_scale>
  <inv_output_scale>
    9.4999999999999996e-01 0.</inv_output_scale>
  <weights>
    <_>
      1.7389365083892366e-01 7.3010321523328129e-03
      1.2323689463210994e-02 1.4590952740221659e-02
      -1.0507070830056529e-02 2.0400824730832805e-02
      -1.4207227468313153e-02 -9.6055728148841252e-03
      -1.5116148161378982e-02 6.2145353123082029e-03
      1.5438060929147571e-02 1.0648589708079520e-02
      1.4147342737362591e-02 -1.6236679516321805e-02
      -1.1472639582877631e-02 1.7425731107288622e-02
      -1.3588306502985112e-02 1.2814678146899907e-02
      -6.5975292469249601e-03 7.8175005178923607e-03
      -1.0354347181987255e-02 1.6337326926953177e-02
      1.3468070883419303e-02 1.3132461203624020e-02
      1.6786783013018263e-02 -1.6731128191854443e-02
      9.1651463009750338e-03 -1.0549886167861969e-02
      1.5262580255709191e-02 1.6691693399808138e-02
      -1.0861432579434371e-02 -9.9514111856636982e-03
      8.2346720781590922e-03 1.6104171450277580e-02
      1.6902920206265052e-02 1.7131151865318800e-02
      1.2405526672055167e-02 1.6987223443658162e-02
      -8.2842385343184863e-03 -1.1157791963157792e-02
      4.7439497338442056e-02 1.2706960520728443e-02
      8.8184712498419644e-03 3.2671350619670097e-03
      -9.2820501794360771e-03 -5.8577970829022316e-03
      -5.0395391068298974e-03 -8.1136541195524423e-03
      5.3082213055286884e-03 8.0228281490993293e-03
      2.2533142291762524e-03 1.0209945504980130e-02
      4.4113019701215129e-03 -6.5547785163830759e-03
      3.2529737700073111e-03 1.6066674065191009e-03
      4.6066027623985215e-03 8.8755093440962586e-03
      -1.0102456343719412e-02 8.6967927662578038e-03
      -8.4325857721134542e-03 -4.0697136105764965e-03
      -4.2533064077459465e-03 1.0576461046778380e-02
      1.2656041217788537e-03 3.7842802732389377e-03
      1.0196299212273040e-02 -1.0633394937584084e-02
      4.0764988589671695e-03 1.5848977930355127e-03
      -9.5186245460715073e-03 -1.1674782724481714e-02
      5.9011714967437739e-03 4.5576447627625697e-03
      7.7802705100093860e-03 -4.7986064025463569e-03
      1.1023989593917833e-02 4.9579989984140753e-03
      -1.2334506582661274e-02 -9.6456406127142964e-03
      1.7692020885221940e-01 1.2822938142627411e-02
      9.2529149702565792e-03 1.2211260729542850e-02
      -8.5064100232333534e-03 2.1389005845842440e-02
      -1.3350599731756101e-02 -8.8365784126747775e-03
      -1.5792218202577566e-02 8.2583963487178908e-03
      1.4080916314849550e-02 9.2059084138554695e-03
      1.2818379560208858e-02 -1.1730302140477003e-02
      -1.1550297365985628e-02 1.6301917109771125e-02
      -1.5038901677183121e-02 1.0873515888954542e-02
      -1.0076887306354403e-02 8.5402682011258800e-03
      -9.2251186597175957e-03 1.9547572156338407e-02
      1.4195380417470770e-02 1.0424098558317586e-02
      1.6480672940094056e-02 -1.6750786637369328e-02
      9.9216802226027457e-03 -1.0742170948849160e-02
      1.3789811722733074e-02 1.5074815415018232e-02
      -8.6009545666597704e-03 -1.2684959905239665e-02
      6.0646661836184388e-03 1.1932353557154675e-02
      1.1482957487247952e-02 1.9188932587496800e-02
      9.1663268953650033e-03 1.2533126199014007e-02
      -1.2605875888270631e-02 -8.7073244052661945e-03
      4.4773608271539232e-03 1.3812924821100744e-02
      9.9004910148810400e-03 9.0841044461237687e-04
      -8.2671952640104521e-03 -1.2250545241668983e-02
      -9.6975835413495219e-04 -9.0156159502282566e-03
      1.0063370574330606e-02 8.3216428777306631e-03
      -1.4803990034231758e-04 9.5330086217783171e-03
      2.4147448585468672e-03 -6.7660213651913803e-03
      7.6248539813144672e-03 -3.6834823646331302e-03
      1.0805075983261480e-02 8.9475406629858142e-03
      -1.0032388377391715e-02 6.8103386714676818e-03
      -8.0008718073370164e-03 -1.1982281703849696e-02
      -8.5489034771462948e-03 9.2400873473451120e-03
      -2.9728532563395335e-03 1.1165717538474616e-02
      9.8061067200496174e-03 -1.0752919494928442e-02
      2.1544333209484209e-03 -1.5080311960175093e-03
      -8.9818889621424321e-03 -1.1031873868907079e-02
      8.1776388203847229e-03 1.1095609479477434e-03
      7.8186884391757642e-03 -1.0890599335261533e-02
      1.1086274571835718e-02 4.7881537601652518e-03
      -1.0686298993462745e-02 -9.8175378389521503e-03
      7.6792128537373156e-04 3.9113966154086634e-04
      1.0223290973327929e-04 -7.4051485516200854e-04
      -1.0613465030639344e-03 1.2195734907036050e-03
      7.8348237475296342e-04 6.2273781643240763e-04
      -6.8533836696241007e-04 -5.6083736816806462e-04
      1.9154761838263633e-04 -5.4979385448701730e-04
      8.3192936768511632e-04 -5.4251001121607728e-04
      -9.5949344330447761e-04 -8.2391837064399703e-04
      9.9710439467748358e-04 2.3306896178115530e-04
      7.2939638117246631e-04 -7.0924623867844069e-04
      -8.1654930446447226e-04 -3.5859610113503105e-04
      -9.0056365953744696e-04 7.2327842410388086e-04
      9.9368987839671113e-04 6.7204190186007920e-04
      -9.6018195820310795e-04 1.1309850430212796e-03
      -1.2108542536666820e-03 -1.2192476459423629e-04
      1.1874979022113809e-03 1.1181620405702841e-03
      -1.1762246172103261e-03 -3.1067637113254138e-04
      -1.0466778412739374e-03 8.7273754851174812e-04
      -1.6315578044241819e-04 9.8650727645104995e-04
      -2.6554248025771376e-04 5.6806831594354706e-04
      1.1936854513403968e-03 -9.7985299091219629e-04
      9.5299997988754779e-04 -1.1058620135187077e-04
      8.2739715686127774e-05 -1.2982753208899678e-04
      2.7265431118780485e-04 1.6522723830615326e-04
      -5.3247321664021130e-04 -3.4666311617651186e-04
      -1.0490767123061790e-03 -9.5807283833550076e-04
      1.0258043785471233e-03 -9.4870741011722861e-04
      6.4008382825744012e-04 -3.6562015021120744e-04
      2.9736090753866085e-04 -1.1645249205592084e-03
      -1.1942211337740234e-03 -8.6104032702435940e-04
      -8.0696502597657363e-04 1.0319883860130696e-03
      5.2700750202510011e-04 8.3612265018103598e-04
      -9.9670973543749576e-04 -2.3272534041554502e-05
      6.4139057102730621e-04 3.7459591871464844e-04
      -7.1691755580176721e-04 1.5291014943650730e-04
      5.4051425519736570e-04 1.0194950219548902e-03
      3.0081275546891325e-04 5.8834438890964340e-04
      1.6306369467748052e-04 7.7891127957786213e-04
      6.1573715273536005e-04 9.7330054844149987e-04
      7.9010807593027301e-04 -8.5758423904020592e-04
      2.1417132932911455e-04 -4.4589068887066364e-04
      1.0531673992642304e-03 7.0344106791488939e-04
      -1.2221909087404568e-03 -5.2110462328643547e-04
      -6.6090793352329108e-04 -1.2487154519535092e-03
      7.8983116539177900e-04 3.6349600499168761e-04
      -3.2422762477708235e-04 4.1901243388493408e-04
      -1.5051485239619305e-04 3.6912922873491875e-04
      5.6773945685285930e-04 9.1961652954561152e-04
      -9.8217938047836096e-04 -1.1970159940137759e-03
      -5.3924562759331861e-04 8.9887411077465434e-04
      -7.0579574587044370e-05 1.1142487605087985e-03
      9.8500512045425633e-04 -4.9897621598470846e-04
      -1.0600403586221406e-03 1.1432539274522358e-03
      1.2253049148512927e-04 1.1305370848161741e-03
      -6.5728282982254285e-04 4.0059460311130991e-04
      9.2982881932916089e-04 6.1660478295609122e-04
      4.1214060191835801e-04 -7.7914438015144359e-04
      8.3075770514120281e-04 1.1795181362592481e-03
      -4.8608309140902954e-04 8.5282263176968077e-04
      -7.5689017161771231e-04 4.8027403922400396e-05
      -2.0714733118100384e-01 8.4277710199121107e-03
      -3.2932928001776267e-02 -1.9783650208297497e-02
      2.8477723829979470e-02 -1.7156785780591186e-02
      1.8492812919827070e-02 2.6414458508071528e-02
      1.4059742292372623e-02 8.4250203763027512e-03
      -1.7008112620203793e-02 -2.3817188182242172e-02
      -1.8239123015007939e-02 2.2851644722308481e-02
      1.0761404897946501e-02 -2.0871485589386066e-02
      1.2196276742573349e-02 -2.3180707975479973e-02
      -9.4346675922508134e-03 7.7039050603019557e-03
      2.4930610680996720e-02 -1.6476938496190256e-02
      -1.2079246464979264e-02 -3.1381189914248035e-02
      -1.8922131212988216e-02 1.4120182612860918e-02
      8.3065618403897618e-03 -1.0061599597492957e-02
      -1.7872765680642562e-02 -1.8228730144619194e-02
      3.2590693585106405e-02 3.3643059120227456e-02
      7.3115061906817462e-03 -1.9777484000111912e-02
      -2.1886318727193481e-02 -1.4191532684452406e-02
      -2.7258950874653312e-02 -2.1208129432337051e-02
      2.8308741317380339e-02 3.1319609087963815e-02
      -2.0779044428957963e-01 9.9019304973607739e-03
      -3.1810891654653319e-02 -1.8344152971115649e-02
      2.8759215618035256e-02 -1.7409487140167507e-02
      1.6539222277128927e-02 2.5533620745041119e-02
      1.2686753802542746e-02 7.8702360350257749e-03
      -1.8865611922899195e-02 -2.4719836683351235e-02
      -1.7339941626189598e-02 2.0749951873638948e-02
      9.5843072104517500e-03 -2.0779815237249876e-02
      1.3265559424728825e-02 -2.4087160191429931e-02
      -9.5325078757785373e-03 6.8556226215655616e-03
      2.4949924539789958e-02 -1.6926195051611290e-02
      -1.1541068523112910e-02 -3.3174875894632028e-02
      -1.9441839468682050e-02 1.4688213857584722e-02
      1.0246254481166672e-02 -9.4875812129640979e-03
      -1.9720623930247337e-02 -1.7098218538243802e-02
      3.2995634097597717e-02 3.4067049248176710e-02
      5.8541325260946441e-03 -1.9357033004951150e-02
      -2.2719658323049452e-02 -1.5012389781222530e-02
      -2.7085037368479666e-02 -2.1476082683304778e-02
      2.6057897388124737e-02 3.1853742315310740e-02
      -2.0718153871584574e-01 8.0990368801112256e-03
      -3.1300165007740861e-02 -1.9887449770562053e-02
      2.9198339822284258e-02 -1.7932435172948041e-02
      1.7441059253097749e-02 2.5782288140135320e-02
      1.1694751865300248e-02 8.8054912525061795e-03
      -1.8007893987855596e-02 -2.4035763956197175e-02
      -1.7933478030871922e-02 2.2645310397020675e-02
      1.1229303873828873e-02 -2.0887292798073363e-02
      1.3939331915244057e-02 -2.2218542767235262e-02
      -8.6451166291804642e-03 7.9791473777576331e-03
      2.4567602001963125e-02 -1.5587932779429822e-02
      -1.3922231062525204e-02 -3.2027242784553801e-02
      -1.7826329187633192e-02 1.5742389506879593e-02
      9.3948822147639985e-03 -8.7612678903621725e-03
      -1.9129033091844293e-02 -1.7955128853547917e-02
      3.3631448853384156e-02 3.3540999089614193e-02
      6.5481613200713334e-03 -1.9250943601944247e-02
      -2.2018167346312720e-02 -1.6230653684568622e-02
      -2.7418958271894316e-02 -2.0099272902070583e-02
      2.6216305451294220e-02 3.0570819141456419e-02
      8.5499363938327855e-02 1.8239250152963484e-02
      1.1735920936118738e-02 4.4533170168221253e-03
      -9.6850229931408384e-03 -1.8025665048725177e-03
      -6.0493707794298558e-03 -1.0657052705868005e-02
      4.1736044468949612e-03 1.2708655134268845e-02
      4.8649760876407020e-03 1.0362935465655336e-02
      5.4665182993354974e-03 -6.3979258428907924e-03
      2.8332035294199262e-03 1.2166154694837502e-03
      3.0388937306832643e-03 8.6139072302366896e-03
      -1.3861314655086018e-02 1.0078183175422110e-02
      -1.0931571390601014e-02 -2.4277565288983883e-03
      -2.2414375965871601e-03 1.2409260614537414e-02
      1.9040689320830831e-03 4.1864223164320346e-03
      1.3756173454114716e-02 -1.4302424969047446e-02
      3.9077613049941584e-03 3.2341062677854141e-03
      -1.3214650660474477e-02 -1.6814851947387979e-02
      9.2949423874373500e-03 4.2358853224665283e-03
      7.1846676161308387e-03 -4.1658354462867945e-03
      1.3842861134553318e-02 6.4891473372289980e-03
      -1.6671257773915781e-02 -1.0886933819915248e-02
      3.2244109022558703e-01 5.8372853836011498e-02
      7.4150885324427068e-02 3.2300054192796239e-02
      -6.9313210640597922e-02 9.6242603635299604e-03
      -3.0764224599163507e-02 -6.0870949724447967e-02
      8.3331578108827701e-04 9.3238206700473489e-02
      2.7774655693324754e-02 6.1352861317785591e-02
      3.0806386169661339e-02 -4.6010076863901940e-02
      1.5472955387669002e-03 2.4840149548434488e-02
      -5.9784491933195219e-04 5.5514948291735818e-02
      -1.0073449854701787e-01 1.0338243884642576e-01
      -5.8420500501536098e-02 4.5301276178037926e-03
      -1.6459187304989807e-03 7.4556695526554695e-02
      2.3697598722566139e-02 -1.0481137974520239e-03
      3.7227719438251386e-02 -3.6538914889133273e-02
      3.1915174002279133e-02 2.4092471394238597e-02
      -7.6097573139957284e-02 -5.9243119584970652e-02
      9.7146220999792240e-02 3.3371852908051440e-02
      4.9873433468531479e-02 2.9495930674340014e-03
      7.2190083391763527e-02 3.8450168347238661e-02
      -6.4993881904641324e-02 -7.0146565977168659e-02
      2.5334497064023392e-01 6.8579469336466164e-02
      5.1862973606446497e-02 2.5070901086753198e-02
      -4.6480466732186650e-02 5.5107637304237077e-03
      -2.2561263557275085e-02 -4.2522270005578421e-02
      3.3049660542393087e-03 7.0274893423094384e-02
      1.9259669008018440e-02 4.5329226243913688e-02
      2.1533084278986030e-02 -3.1870464672158136e-02
      3.0133462541898372e-03 1.8246807163960977e-02
      8.8226241540798945e-04 3.9567429623561412e-02
      -7.2755636547766914e-02 6.9392005443384613e-02
      -4.1285715582839652e-02 5.6443762222338836e-04
      -1.5892639372637372e-03 5.3305014565229264e-02
      1.6238121098735705e-02 1.3038898317079456e-04
      5.6560791813639315e-02 -5.7840323217377393e-02
      2.2710486992493499e-02 1.8285816401006495e-02
      -5.7385775569987418e-02 -6.9457393505535051e-02
      7.0379866879741959e-02 2.4888341301932890e-02
      3.5098072568144345e-02 3.7182666961925199e-04
      5.3266163497105917e-02 2.8407153181218801e-02
      -6.2577639366192206e-02 -5.0607568523695995e-02
      2.1520581906828584e-01 4.2856347408580180e-02
      5.4042332282790095e-02 1.7647474533114778e-02
      -5.4981110516054331e-02 4.0370369854529891e-03
      -1.8257430266353503e-02 -4.7335839940698378e-02
      1.5617222041123500e-03 4.7171833750299687e-02
      1.5980046673336419e-02 5.0199317153471312e-02
      1.7570980101813963e-02 -3.4289033450957698e-02
      3.2170254618638537e-03 1.3054873072938136e-02
      7.4149711275031617e-04 4.2837054713800261e-02
      -5.1760296040143414e-02 4.7326938169882662e-02
      -4.9067857280161033e-02 1.5015354037098223e-03
      -2.0484987086668636e-03 5.6667380792189095e-02
      1.3158002075841868e-02 6.7935649337529298e-04
      3.8207207924505458e-02 -3.7202284462551166e-02
      1.7245129950380956e-02 1.3886624985883693e-02
      -5.0757774568886901e-02 -3.6878407888394749e-02
      5.8908556022528251e-02 2.0217727727431196e-02
      3.4324580020364391e-02 -3.3213478719711369e-05
      4.6235106382966462e-02 2.4399583829003774e-02
      -3.3571941255031892e-02 -5.6406463414507613e-02
      4.8617923184941075e-01 9.1480132631950664e-02
      9.2226373497859476e-02 4.5650529324553359e-02
      -8.6282339835671004e-02 2.2774047684157420e-02
      -4.2758537281654706e-02 -7.6736630106181924e-02
      -8.7010473586271418e-03 1.2243939198410456e-01
      4.0416318613696912e-02 7.8823790625428006e-02
      4.2935922690064118e-02 -5.6689347851494015e-02
      -6.8874516044846856e-03 3.6023357597146394e-02
      -1.0398994065615064e-02 6.8892732331182233e-02
      -1.2650796862073632e-01 1.2722801661292385e-01
      -7.3595655179742842e-02 1.5708680069311327e-02
      9.7533855263077281e-03 9.4451495857673942e-02
      3.5158184532230158e-02 -1.2423612046459136e-02
      7.5395412072312804e-02 -7.5171600787226081e-02
      4.2752023446027840e-02 3.7111867041096917e-02
      -9.8263836555750522e-02 -9.3003342551743459e-02
      1.2355735939538642e-01 4.7239157003576518e-02
      6.2926533995527292e-02 1.3367176419043241e-02
      9.2028060456804298e-02 5.3922602462694091e-02
      -9.4373006246556881e-02 -9.0045718625959836e-02
      4.0327644528745721e-01 6.3395543060693102e-02
      4.7500564566608131e-02 3.3296089892011355e-02
      -4.4272962227826063e-02 2.6132026863657089e-02
      -3.4859596523354436e-02 -4.0702980265761225e-02
      -1.6401329707188172e-02 5.9811878795043572e-02
      3.3948347255533362e-02 4.2304952863126931e-02
      3.3653976693898149e-02 -3.9620774900001536e-02
      -1.1337998389466414e-02 3.1815161979371759e-02
      -1.6197474824402747e-02 3.9619418147202774e-02
      -6.0172512007588518e-02 5.5966109105723472e-02
      -4.1251415996275173e-02 2.2054993718314379e-02
      1.4584073640471163e-02 4.8754589715108820e-02
      3.1040117787720350e-02 -1.9334951602002260e-02
      5.7203947989368835e-02 -5.7138720926294996e-02
      3.3894168105633830e-02 3.1536475867548014e-02
      -5.1701418427989525e-02 -6.3504591050419182e-02
      5.6029855603050030e-02 3.5751258831415778e-02
      4.0522330014224610e-02 1.9172495282247234e-02
      5.0193734230999792e-02 3.8630019018439536e-02
      -5.8537817590420531e-02 -4.5712239419391856e-02
      2.6897027371415150e-01 2.7015716248831013e-02
      4.2701350763610986e-02 1.8569578837120172e-02
      -3.6224583964455895e-02 5.6717669497847057e-03
      -1.6906530575959467e-02 -3.3855139348698132e-02
      -2.6790092694246991e-03 5.6431905528623920e-02
      1.3710113727285200e-02 3.6480688702047293e-02
      1.6824688471271110e-02 -2.3297194908987399e-02
      -2.1267622259278553e-03 1.3097906582167477e-02
      -2.2273737040599344e-03 3.2184727957809044e-02
      -5.2904078802631663e-02 4.8736282102367683e-02
      -3.3099491416865044e-02 3.9881716309942104e-03
      1.8186734611086238e-03 4.0791820256518722e-02
      1.2608928585980931e-02 -4.5059820641084776e-03
      2.6145317244924381e-02 -2.8356042226566940e-02
      1.6351734820874726e-02 1.4266954023955102e-02
      -4.5644494774736540e-02 -2.7474291174490070e-02
      4.4746707331147516e-02 1.8132984073900803e-02
      2.7457615620917090e-02 5.0425941035347061e-03
      3.8222345349340540e-02 1.9945751053515422e-02
      -3.3588170154300726e-02 -3.8013279561737730e-02
      6.0018363328773439e-01 1.1499290786611270e-01
      8.1146034106718071e-02 4.7122898214118240e-02
      -7.3374248379239962e-02 2.9718559077549313e-02
      -4.4848290783585286e-02 -6.9552948705054532e-02
      -2.0024852324871181e-02 1.0871995799834798e-01
      4.2119567202066492e-02 7.2903454711651869e-02
      4.5333750366954507e-02 -5.8133678884086541e-02
      -1.4258866694208588e-02 3.9378050356720824e-02
      -2.0403828568924989e-02 6.8558456935521900e-02
      -1.1218557756879055e-01 1.0366153179385625e-01
      -6.9454437839023622e-02 2.7015191659713469e-02
      1.8448738916593693e-02 8.0909462745799118e-02
      3.8654639185202781e-02 -2.3058012500099850e-02
      1.1499186044585796e-01 -1.1897167036986731e-01
      4.7363052560865905e-02 3.9477701847970399e-02
      -8.4970013880106707e-02 -9.6711438784442313e-02
      9.9035179723863706e-02 4.9745747289274181e-02
      6.4278737636502270e-02 2.5827104005211848e-02
      8.3147404836780653e-02 5.4878350291173494e-02
      -9.1377355112345834e-02 -7.5637107061362008e-02
      -3.3938483391833879e-01 -2.3516178826680639e-02
      -8.8502187800245714e-04 -1.9618232575772179e-02
      1.0229233433460043e-02 -2.3447901028445954e-02
      1.9788019163342351e-02 1.6154785728302444e-02
      1.7046565956612681e-02 4.9483944899640878e-02
      -1.9636364677594151e-02 -3.4326036032858637e-02
      -1.8424729816268647e-02 2.3511302643635774e-02
      1.4388699210778098e-02 -2.1588987495361731e-02
      1.8810586386794947e-02 -2.9882158148515438e-02
      -4.2059130860978192e-02 5.5128125842704330e-02
      3.3427577708026464e-02 -1.9781688908389952e-02
      -1.8567635274837842e-02 -6.8505520989979134e-03
      -2.2222460206406773e-02 1.9381812993299653e-02
      -1.0910775341767884e-02 6.1381269168858240e-03
      -1.9620092087848099e-02 -2.1941793154718999e-02
      -4.1453584551038409e-03 2.4373222452253314e-03
      5.9883496673393925e-02 -2.1880896986523523e-02
      -2.6378672589796561e-02 -1.9819964426198721e-02
      -8.0812488358660527e-03 -2.2820814891600087e-02
      -5.4665733235878528e-05 9.0505261544623437e-03
      -3.0186258428050039e-01 -4.9509531335559590e-02
      -7.5546645481946645e-02 -4.4760550864540193e-02
